tree
version=v4
num_class=1
num_tree_per_iteration=1
label_index=0
max_feature_idx=78
objective=regression
feature_names=ooo_rooms available_rooms day_of_week month quarter week_of_year is_weekend retail_rate is_federal_holiday days_to_next_holiday days_from_last_holiday temp_mean_f temp_max_f temp_min_f precipitation_in had_precipitation snowfall_in had_snow windspeed_max_mph weathercode medallia_sample_size medallia_overall_satisfaction medallia_likelihood_to_recommend medallia_likelihood_to_return medallia_value_for_price medallia_hotel_cleanliness pickup_7d pickup_14d pickup_21d pickup_30d pickup_60d total_rooms_on_books avg_booked_rate occ_lag_7d occ_lag_14d occ_lag_28d occ_lag_364d occ_roll_7d occ_roll_28d rev_lag_7d rev_lag_14d rev_lag_28d rev_lag_364d rev_roll_7d rev_roll_28d adr_lag_7d adr_lag_14d adr_lag_28d adr_lag_364d adr_roll_7d adr_roll_28d mpi_lag_7d mpi_lag_28d mpi_roll_7d mpi_roll_28d ari_lag_7d ari_lag_28d ari_roll_7d ari_roll_28d rgi_lag_7d rgi_lag_28d rgi_roll_7d rgi_roll_28d adr_gap_vs_comp_lag_7d adr_gap_vs_comp_lag_28d adr_gap_vs_comp_roll_7d adr_gap_vs_comp_roll_28d comp_occ_lag_7d comp_occ_lag_28d comp_occ_roll_7d comp_occ_roll_28d comp_adr_lag_7d comp_adr_lag_28d comp_adr_roll_7d comp_adr_roll_28d comp_revpar_lag_7d comp_revpar_lag_28d comp_revpar_roll_7d comp_revpar_roll_28d
feature_infos=[0:74] [73:147] [0:6] [1:12] [1:4] [1:52] [0:1] [169:999] [0:1] [1:60] [1:60] [10.6:94.5] [16.899999999999999:106.3] [1.8999999999999999:83.700000000000003] [0:2.488] [0:1] [0:6.9450000000000003] [0:1] [3.2000000000000002:37.600000000000001] [0:75] [0:57] [4.5999999999999996:10] [4:10] [3.1000000000000001:10] [3:9.3000000000000007] [5:9.9000000000000004] [3:90] [2:90] [0:87] [0:59] [0:54] [38:254] [121.89:710.34000000000003] [0.38940000000000002:1] [0.38940000000000002:1] [0.38940000000000002:1] [0.38940000000000002:1] [0.49340000000000001:0.99219999999999997] [0.49969999999999998:0.96260000000000001] [6955.3100000000004:94041.419999999998] [6955.3100000000004:94041.419999999998] [6955.3100000000004:94041.419999999998] [6955.3100000000004:83829.520000000004] [10707.741400000001:85656.021399999998] [11554.858899999999:66130.449299999993] [115.76000000000001:648.55999999999995] [115.76000000000001:648.55999999999995] [115.76000000000001:648.55999999999995] [152.28:590.35000000000002] [160.90860000000001:603.23289999999997] [181.86580000000001:482.84890000000001] [55.670000000000002:142.63999999999999] [55.670000000000002:142.63999999999999] [63.5886:112.52] [80.221400000000003:107.2993] [62.490000000000002:128.53] [62.490000000000002:128.53] [78.6357:107.1271] [83.060000000000002:101.13930000000001] [43.329999999999998:138.16] [43.329999999999998:138.16] [53.5914:109.45140000000001] [73.726799999999997:99.678200000000004] [-226.78999999999999:238.58000000000001] [-226.78999999999999:238.58000000000001] [-69.491399999999999:34.188600000000001] [-52.879600000000003:21.48] [0.44019999999999998:0.99470000000000003] [0.44019999999999998:0.99470000000000003] [0.59550000000000003:0.9728] [0.62829999999999997:0.95789999999999997] [182.28:605.08000000000004] [182.28:602.58000000000004] [198.66139999999999:582.78999999999996] [202.0667:487.37180000000001] [80.239999999999995:593.08000000000004] [80.239999999999995:593.08000000000004] [119.67:561.40859999999998] [128.53110000000001:465.76179999999999]
tree_sizes=2253 2413 2183 2343 2372 2369 2269 2167 2373 2189 2508 2682 2583 2603 2572 2321 2200 2425 2182 2416 2184 2158 2291 2283 2181 2487 2643 2290 2764 2390 2548 2459 2552 2700 2594 2419 2405 2482 2366 2522 2569 2543 2696 2472 2571 2379 2410 2500 2381 2519 2406 2535 2425 2673 2636 2343 2449 2396 2425 2540 2532 2628 2634 2714 2723 2529 2460 2455 2657 2396 2382 2539 2719 2608 2400 2563 2512 2547 2429 2558 2720 2490 2555 2674 2632 2662 2540 2676 2302 2561 2603 2752 2673 2591 2663 2628 2458 2534 2541 2689 2225 2357 2538 2646 2328 2781 2579 2490 2549 2689 2694 2787 2630 2463 2448 2575 2460 2410 2561 2709 2537 2554 2497 2611 2434 2619 2627 2483 2685 2617 2667 2716 2582 2784 2590

Tree=0
num_leaves=25
num_cat=0
split_feature=32 32 32 32 32 32 32 32 32 32 32 32 10 32 32 32 73 32 73 32 32 32 32 78
split_gain=5.03575e+06 640599 625369 182564 94327.1 75127.6 60066.1 26103 18735.6 16516.5 12849.8 11301.9 8862.3 5932.61 3396.38 2934.38 2401.68 2241.01 1628.29 1358.97 1210.51 940.101 709.856 599.93
threshold=323.54000000000002 213.23500000000004 438.83500000000004 268.62500000000006 506.9550000000001 388.37500000000006 178.40500000000003 246.30500000000004 477.83000000000004 293.48000000000008 356.92000000000002 419.69000000000005 20.500000000000004 164.46000000000004 234.31000000000003 280.06000000000006 351.17215000000004 200.78500000000003 317.34070000000003 254.02500000000001 369.54500000000007 222.24500000000003 150.19000000000003 303.87610000000001
decision_type=2 2 2 2 2 2 2 2 2 2 2 2 8 2 2 2 10 2 10 2 2 2 2 10
left_child=1 6 5 7 8 10 13 14 -4 15 -2 -7 17 22 16 -5 21 -8 -16 -9 -12 -3 -1 -21
right_child=2 3 4 9 -6 11 12 19 -10 -11 20 -13 -14 -15 18 -17 -18 -19 -20 23 -22 -23 -24 -25
leaf_value=309.19855550749389 315.77539262646701 311.7010411203683 319.52572025052609 313.54233633984569 322.75615331773059 317.57245341589083 310.41004905859654 312.73079236461086 320.94700931574238 314.78941588397169 316.49712129671536 318.58740412671563 311.36945701775051 310.1055656615784 312.1256820948613 314.05440989360676 312.30967604136157 310.95865948093694 312.5662621575874 312.94595519819535 316.92484094769696 312.00406113989817 309.60655277284195 313.22005594759997
leaf_weight=17 23 23 22 15.999999999999998 19 26 20 14.999999999999998 15.999999999999998 29 15.999999999999998 18 29 21 15.999999999999998 27 14.999999999999998 14.999999999999998 17 15.000000000000002 15.999999999999998 24 25 15.999999999999998
leaf_count=17 23 23 22 16 19 26 20 15 16 29 16 18 29 21 16 27 15 15 17 15 16 24 25 16
internal_value=314.049 312.002 318.511 313.008 321.014 317.067 310.316 312.38 320.133 314.237 316.324 317.992 310.968 309.656 312.096 313.864 311.962 310.64 312.35 312.969 316.715 311.853 309.436 313.086
internal_weight=496 340 156 213 57 99 127 141 38 72 55 44 64 63 95 43 62 35 33 46 32 47 42 31
internal_count=496 340 156 213 57 99 127 141 38 72 55 44 64 63 95 43 62 35 33 46 32 47 42 31
is_linear=0
shrinkage=1


Tree=1
num_leaves=26
num_cat=0
split_feature=32 32 32 32 32 32 32 32 32 32 32 10 32 32 32 32 32 32 75 32 32 2 78 32 78
split_gain=4.73895e+06 614425 575530 180231 99645 59742.5 56524.3 24562.8 17262.4 15594.4 14735.5 8341.9 6219.72 5582.47 3195.35 2761.48 2633.52 2107.79 1821.37 1278.82 1134.82 894.273 749.464 668.721 564.524
threshold=329.19500000000005 213.23500000000004 452.49500000000006 268.62500000000006 397.07500000000005 517.97500000000014 178.40500000000003 246.30500000000004 293.48000000000008 422.04000000000002 362.14000000000004 20.500000000000004 490.39000000000004 164.46000000000004 234.31000000000003 280.06000000000006 309.9550000000001 200.78500000000003 221.36500000000004 254.02500000000001 378.34000000000009 2.5000000000000004 295.9695000000001 150.19000000000003 303.87610000000001
decision_type=2 2 2 2 2 2 2 2 2 2 2 8 2 2 2 2 2 2 10 2 2 2 10 2 10
left_child=1 6 4 7 10 12 13 14 15 -6 -2 17 -4 23 18 -5 -10 -8 -3 -9 -12 -16 -20 -1 -21
right_child=2 3 5 8 9 -7 11 19 16 -11 20 -13 -14 -15 21 -17 -18 -19 22 24 -22 -23 -24 -25 -26
leaf_value=-4.6490948414732634 1.8805553314998718 -2.2249730616291674 5.9331408691406233 -0.43524739443698768 3.6356206195857244 8.8162678117213442 -3.4737919574842184 -1.2225287463419461 0.51601748710454876 4.7544369137813396 2.6410804186369239 -2.5430335767420966 6.9287315354391783 -3.7691499114772764 -1.435811248103007 0.061509396454763499 1.0724624619528511 -2.9416740554353327 -1.9869825236002605 -1.013799324922783 3.0586724579769906 -1.7735432961296005 -1.7058193191383342 -4.2531781809915321 -0.74788951552916905
leaf_weight=17 27 19 15.000000000000002 15.999999999999998 22 14.999999999999998 20 14.999999999999998 15.000000000000002 26 18 29 15.999999999999998 21 18 27 15.999999999999998 14.999999999999998 22 15.000000000000002 14.999999999999998 14.999999999999998 21 25 15.999999999999998
leaf_count=17 27 19 15 16 22 15 20 15 15 26 18 29 16 21 18 27 16 15 22 15 15 15 21 25 16
internal_value=0.0566578 -1.91107 4.42575 -0.933388 3.22627 7.23535 -3.56516 -1.56246 0.265479 4.24599 2.4076 -2.93208 6.45737 -4.20544 -1.83819 -0.123586 0.804528 -3.25031 -1.96792 -0.991604 2.83528 -1.59182 -1.85185 -4.4188 -0.878029
internal_weight=496 342 154 215 108 46 127 141 74 48 60 64 31 63 95 43 31 35 62 46 33 33 43 42 31
internal_count=496 342 154 215 108 46 127 141 74 48 60 64 31 63 95 43 31 35 62 46 33 33 43 42 31
is_linear=0
shrinkage=0.03


Tree=2
num_leaves=24
num_cat=0
split_feature=32 32 32 32 32 32 32 32 32 32 32 32 10 32 73 32 53 32 32 32 73 32 63
split_gain=4.45971e+06 567255 554639 161651 78928 72208.5 53191.2 23113.6 20122.4 14615.3 12980.7 9904.27 7852.04 5252.98 3029.8 2598.76 2096.69 1976.36 1519.31 1203.4 824.876 629.951 542.559
threshold=323.54000000000002 213.23500000000004 440.81500000000005 268.62500000000006 517.97500000000014 391.86000000000007 178.40500000000003 246.30500000000004 477.83000000000004 293.48000000000008 362.14000000000004 419.69000000000005 20.500000000000004 164.46000000000004 317.34070000000003 280.06000000000006 98.440000000000012 234.31000000000003 224.51000000000002 254.02500000000001 351.17215000000004 150.19000000000003 -19.444999999999997
decision_type=2 2 2 2 2 2 2 2 2 2 2 2 8 2 10 2 10 2 2 2 10 2 10
left_child=1 6 5 7 8 10 13 14 -4 15 -2 -7 16 21 18 -5 -8 20 -3 -9 -16 -1 -21
right_child=2 3 4 9 -6 11 12 19 -10 -11 -12 -13 -14 -15 17 -17 -18 -19 -20 22 -22 -23 -24
leaf_value=-4.5100305873837279 1.7818485902139527 -2.1660004335626994 5.2523957409941939 -0.42223064957378065 8.5526587765715831 3.4177119164456511 -2.894775378789928 -1.1859747050846137 6.6614677341679966 0.7510040536722915 2.6884845679803475 4.3674060743526919 -2.4668739888754234 -3.6563440361838437 -1.9261871931006342 0.059667531196544436 -3.4171847131455046 -1.3367977587568445 -1.8002535357959768 -0.71591856921630026 -1.5800489302727074 -4.1258376472153344 -0.97641965776960427
leaf_weight=17 29 20 20 15.999999999999998 14.999999999999998 23 18 14.999999999999998 20 29 29 20 29 21 15.000000000000002 27 17 17 28 15.000000000000002 14.999999999999998 25 15.999999999999998
leaf_count=17 29 20 20 16 15 23 18 15 20 29 29 20 29 21 15 27 17 17 28 15 15 25 16
internal_value=0.0549731 -1.87189 4.25381 -0.925308 6.67745 2.93135 -3.45847 -1.51572 5.96441 0.231143 2.23712 3.86402 -2.84433 -4.07958 -1.78319 -0.119891 -3.15307 -1.60604 -1.95477 -0.961955 -1.75608 -4.28656 -0.851775
internal_weight=496 340 156 213 55 101 127 141 40 72 58 43 64 63 95 43 35 47 48 46 30 42 31
internal_count=496 340 156 213 55 101 127 141 40 72 58 43 64 63 95 43 35 47 48 46 30 42 31
is_linear=0
shrinkage=0.03


Tree=3
num_leaves=25
num_cat=0
split_feature=32 32 32 32 32 32 32 32 32 32 32 32 61 32 73 32 32 32 74 32 50 77 73 32
split_gain=4.19717e+06 544027 510417 159525 88095.9 52771.8 50143.3 21759.6 16675.5 15248.3 10627.9 8502.97 5506.96 5471.52 3811.23 2524.57 2445.63 2444.6 1520.65 1377.51 936.956 926.569 776.115 593.422
threshold=329.19500000000005 213.23500000000004 452.49500000000006 268.62500000000006 391.86000000000007 517.97500000000014 185.06500000000003 248.88500000000002 422.04000000000002 293.48000000000008 362.14000000000004 164.46000000000004 88.271450000000016 490.39000000000004 317.34070000000003 234.31000000000003 280.06000000000006 309.9550000000001 237.59020000000004 224.51000000000002 328.48980000000006 252.84285000000003 351.17215000000004 150.19000000000003
decision_type=2 2 2 2 2 2 2 2 2 2 2 2 10 2 10 2 2 2 10 2 10 8 10 2
left_child=1 6 4 7 10 13 11 14 -6 16 -2 23 21 -4 19 22 -5 -11 -13 -3 -9 -8 -16 -1
right_child=2 3 5 9 8 -7 12 20 -10 17 -12 18 -14 -15 15 -17 -18 -19 -20 -21 -22 -23 -24 -25
leaf_value=-4.3751266130464161 1.7708863078908867 -2.1011824674915496 5.5874546251265294 -0.40960320303373243 3.3711171307993935 8.2969312456200672 -2.5662894383763288 -0.99034950941622613 4.4721343912135616 0.4781331292260127 2.6079688624055373 -3.7269728204974295 -3.031982524638273 6.5222953782126165 -1.8685935882872515 -1.269867479493018 0.057880812376710056 1.0140753223740053 -3.2219750577267083 -1.7545427350620395 -0.68366973446057089 -2.1907784506965711 -1.5328049780760096 -4.0023095264549022
leaf_weight=17 27 20 15.000000000000002 15.999999999999998 26 14.999999999999998 17 25 26 15.000000000000002 29 15.000000000000002 22 15.999999999999998 15.000000000000002 22 27 15.999999999999998 15.999999999999998 29 14.999999999999998 14.999999999999998 14.999999999999998 25
leaf_count=17 27 20 15 16 26 15 17 25 26 15 29 15 22 16 15 22 27 16 16 29 15 15 15 25
internal_value=0.0533243 -1.79851 4.16509 -0.87854 3.03549 6.81098 -3.35496 -1.47037 3.92542 0.249357 2.20634 -3.86943 -2.65652 6.07973 -1.70505 -1.52151 -0.116306 0.755984 -3.47199 -1.89806 -0.876379 -2.39401 -1.70358 -4.15827
internal_weight=496 342 154 215 108 46 127 141 52 74 56 73 54 31 101 52 43 31 31 49 40 32 30 42
internal_count=496 342 154 215 108 46 127 141 52 74 56 73 54 31 101 52 43 31 31 49 40 32 30 42
is_linear=0
shrinkage=0.03


Tree=4
num_leaves=26
num_cat=0
split_feature=32 32 32 32 32 32 32 32 32 32 32 32 32 53 32 32 49 32 74 73 32 10 32 23 50
split_gain=3.9498e+06 511010 487870 132651 74364.1 64329.2 47187.4 20480.4 14651.5 12762.6 10772.8 8705.59 7998.95 5899.11 2685.36 2301.53 1897.55 1557.01 1430.91 1233.18 1085.63 872.057 558.997 541.41 437.083
threshold=321.00500000000005 438.83500000000004 213.23500000000004 268.62500000000006 506.9550000000001 388.37500000000006 185.06500000000003 246.30500000000004 477.83000000000004 353.58000000000004 293.48000000000008 419.69000000000005 164.46000000000004 96.821450000000013 232.05000000000004 280.06000000000006 322.01710000000008 367.50500000000005 237.59020000000004 317.34070000000003 254.02500000000001 24.500000000000004 150.19000000000003 6.8500000000000005 319.56700000000006
decision_type=2 2 2 2 2 2 2 2 2 2 2 2 2 10 2 2 10 2 10 10 2 8 2 2 10
left_child=2 5 6 7 8 9 12 14 -3 -2 15 -7 22 21 16 -5 23 -11 -14 -16 -9 -8 -1 -4 -22
right_child=1 4 3 10 -6 11 13 20 -10 17 -12 -13 18 -15 19 -17 -18 -19 -20 -21 24 -23 -24 -25 -26
leaf_value=-4.2442578590370692 1.4605449310766125 4.9037451545559625 -2.0928531973702569 -0.39735338990933422 7.7699141663078235 3.1718881711758482 -2.534817931273273 -1.1178153520248262 6.1609151166398943 2.1483946062462773 0.6601323624055353 4.0632709416524193 -3.6155351972104692 -3.0312838660580956 -1.6562391146926667 0.056147593512662901 -1.5391086734761161 2.5875157795322239 -3.1256169884227147 -1.293065687164547 -0.91272562900436227 -2.1888976069043697 -3.8824799808342294 -1.8241969162261413 -0.67804644613170928
leaf_weight=17 23 22 14.999999999999998 15.999999999999998 19 26 15.999999999999998 14.999999999999998 15.999999999999998 17 26 18 15.000000000000002 18 18 27 18 18 15.999999999999998 19 16.000000000000004 20 25 25 14.999999999999998
leaf_count=17 23 22 15 16 19 26 16 15 16 17 26 18 15 18 18 27 18 18 16 19 16 20 25 25 15
internal_value=0.0517254 3.94849 -1.78712 -0.899075 6.22314 2.67492 -3.25459 -1.42637 5.44052 2.01556 0.178678 3.54078 -3.75366 -2.57704 -1.67815 -0.112828 -1.8084 2.37764 -3.36816 -1.47178 -0.905102 -2.34598 -4.03382 -1.92747 -0.800494
internal_weight=496 159 337 210 57 102 127 141 38 58 69 44 73 54 95 43 58 35 31 37 46 36 42 40 31
internal_count=496 159 337 210 57 102 127 141 38 58 69 44 73 54 95 43 58 35 31 37 46 36 42 40 31
is_linear=0
shrinkage=0.03


Tree=5
num_leaves=26
num_cat=0
split_feature=32 32 32 32 32 32 32 32 32 32 32 32 32 32 53 1 32 32 32 32 74 32 33 44 32
split_gain=3.42769e+06 474938 415282 90744.9 75729.1 74555.3 57650.3 15112 12690.5 11755.3 9469.25 8345.38 7585.56 5737.29 5219.56 3193.04 1577.9 1305.52 1089.56 1027.99 944.82 790.865 752.18 574.093 434.907
threshold=318.27000000000004 224.51000000000002 432.61500000000007 506.9550000000001 268.62500000000006 182.68000000000004 378.34000000000009 464.5800000000001 246.30500000000004 201.90500000000003 342.23500000000007 415.2050000000001 293.48000000000008 168.84500000000003 95.196400000000025 133.50000000000003 278.95500000000004 360.33500000000009 234.31000000000003 397.07500000000005 368.24250000000006 213.23500000000004 0.76950000000000018 44053.832500000011 153.76500000000001
decision_type=2 2 2 2 2 2 2 2 2 2 2 2 2 2 10 2 2 2 2 2 10 2 10 10 2
left_child=1 5 6 7 8 13 10 -4 18 14 -2 19 16 24 -7 -11 -6 -12 -3 -8 22 -17 -10 -18 -1
right_child=2 4 3 -5 12 9 11 -9 20 15 17 -13 -14 -15 -16 21 23 -19 -20 -21 -22 -23 -24 -25 -26
leaf_value=-4.062609099200241 1.2038698378233152 -1.6391668207773904 4.3799501459973111 7.7551787377037478 -0.3917877390228699 -2.4088371690411434 2.7728456119949465 5.5975167641199732 -0.75932901899391236 -2.4817087248329806 1.8528441911361542 3.8243039910147121 0.47903680022675088 -3.2376937797717615 -3.1944410182024376 -2.1264401431571218 -0.16222075725314625 2.2521204178690057 -1.3537749973631972 3.1687574423513101 -0.64986284798541027 -1.8403540230939488 -1.0356267857086117 0.092002751465417074 -3.7370887746830737
leaf_weight=20 15.999999999999998 25 20 14.999999999999998 15.999999999999998 15.999999999999998 18 20 15.999999999999998 15.999999999999998 14.999999999999998 15.999999999999998 27 20 17 20 14.999999999999998 21 29 17 17 25 23 17 24
leaf_count=20 16 25 20 15 16 16 18 20 16 16 15 16 27 20 17 20 15 21 29 17 17 25 23 17 24
internal_value=-0.00567105 -1.68981 3.64978 5.75416 -0.657854 -2.89752 2.52382 4.995 -1.15886 -2.35726 1.81782 3.24114 0.0772215 -3.68854 -2.81781 -2.10599 -0.149032 2.0886 -1.48732 2.96943 -0.841063 -1.96976 -0.92343 -0.0271849 -3.88953
internal_weight=501 343 158 55 185 158 103 40 110 94 52 51 75 64 33 61 48 36 54 35 56 45 39 32 44
internal_count=501 343 158 55 185 158 103 40 110 94 52 51 75 64 33 61 48 36 54 35 56 45 39 32 44
is_linear=0
shrinkage=0.03


Tree=6
num_leaves=25
num_cat=0
split_feature=32 32 32 32 32 32 32 32 32 32 32 32 32 32 53 0 32 32 32 32 63 32 32 9
split_gain=3.22566e+06 446941 390804 85406.9 71262.6 70155.9 54253.5 14295.4 11941 11063.4 8910.67 7853.82 7138.23 5433.83 4911.52 3005.38 1489.46 1227.94 1025.25 967.223 899.294 744.241 647.033 283.743
threshold=318.27000000000004 224.51000000000002 432.61500000000007 506.9550000000001 268.62500000000006 182.68000000000004 378.34000000000009 467.35000000000008 246.30500000000004 201.90500000000003 342.23500000000007 415.2050000000001 293.48000000000008 171.79500000000004 95.196400000000025 13.500000000000002 280.06000000000006 360.33500000000009 234.31000000000003 397.07500000000005 -24.124999999999996 213.23500000000004 153.76500000000001 17.500000000000004
decision_type=2 2 2 2 2 2 2 2 2 2 2 2 2 2 10 2 2 2 2 2 10 2 2 2
left_child=1 5 6 7 8 13 10 -4 18 14 -2 19 16 22 -7 21 -6 -12 -3 -8 -10 -11 -1 -22
right_child=2 4 3 -5 12 9 11 -9 20 15 17 -13 -14 -15 -16 -17 -18 -19 -20 -21 23 -23 -24 -25
leaf_value=-3.9410348076951172 1.1678662793881427 -1.590089991221171 4.3303051936548851 7.5232964053740128 -0.35065999802641973 -2.33679714595046 2.6898907318537915 5.5277536037590487 -0.68332413715501672 -2.0628059870465436 1.7974435252446272 3.7099324506242697 0.46469225201721326 -3.0869299441698357 -3.09888894626472 -2.4074893188476563 -0.0091311434942350517 2.1847172723983075 -1.3132316489556159 3.0739735810847577 -0.82777900607086863 -1.785253612952318 -3.6054443111172882 -1.0278691742348909
leaf_weight=20 15.999999999999998 25 23 14.999999999999998 19 15.999999999999998 18 17 26 20 14.999999999999998 15.999999999999998 27 17 17 15.999999999999998 29 21 29 17 15.000000000000002 25 27 14.999999999999998
leaf_count=20 16 25 23 15 19 16 18 17 26 20 15 16 27 17 17 16 29 21 29 17 15 25 27 15
internal_value=-0.0054883 -1.63925 3.5406 5.58202 -0.638163 -2.81082 2.44832 4.84552 -1.12417 -2.28674 1.76344 3.1442 0.0749046 -3.57814 -2.73353 -2.04297 -0.144575 2.02611 -1.44279 2.88061 -0.815898 -1.9108 -3.75232 -0.929418
internal_weight=501 343 158 55 185 158 103 40 110 94 52 51 75 64 33 61 48 36 54 35 56 45 47 30
internal_count=501 343 158 55 185 158 103 40 110 94 52 51 75 64 33 61 48 36 54 35 56 45 47 30
is_linear=0
shrinkage=0.03


Tree=7
num_leaves=24
num_cat=0
split_feature=32 32 32 32 32 32 32 32 32 32 32 32 32 53 62 1 74 32 50 32 32 32 42
split_gain=3.03554e+06 420594 368174 70250.6 67097.9 66015.9 60473.2 12090.5 11671.7 10430.5 10412.3 6038.92 5111.71 4621.65 2933.12 2828.74 1617.38 1225.94 1046.09 964.721 700.361 609.121 485.88
threshold=318.27000000000004 224.51000000000002 443.36500000000007 388.37500000000006 271.26000000000005 182.68000000000004 506.9550000000001 246.30500000000004 353.58000000000004 415.2050000000001 201.90500000000003 296.04500000000002 171.79500000000004 95.196400000000025 90.441600000000008 133.50000000000003 357.79750000000007 367.50500000000005 349.88945000000007 234.31000000000003 213.23500000000004 153.76500000000001 45639.430000000008
decision_type=2 2 2 2 2 2 2 2 2 2 2 2 2 10 10 2 10 2 10 2 2 2 8
left_child=1 5 3 8 7 12 14 19 -2 -5 13 16 21 -7 -4 -12 -6 -10 22 -3 -17 -1 -9
right_child=2 4 6 9 11 10 -8 18 17 -11 15 -13 -14 -15 -16 20 -18 -19 -20 -21 -22 -23 -24
leaf_value=-3.8230985615794491 1.2773570574183266 -1.5424824916816757 4.5666675058155732 2.8873922554622511 -0.27022285056993395 -2.2669116353543006 7.2983473220774489 -0.7508431067434298 1.9351001804385366 3.7531433111326247 -2.3354897101571623 0.51027614350221584 -2.9945936016183441 -3.0061948499931268 5.2837598183463967 -2.001076156349848 0.071791191729071405 2.3163486364654768 -0.56595546187641455 -1.2739025285362993 -1.731802878922331 -3.4974809267957192 -0.96115345381784334
leaf_weight=20 23 25 15.000000000000002 27 23 15.999999999999998 14.999999999999998 22 17 26 15.999999999999998 22 17 17 14.999999999999998 20 27 20 15.999999999999998 29 25 27 21
leaf_count=20 23 25 15 27 23 16 15 22 17 26 16 22 17 17 15 20 27 20 16 29 25 27 21
internal_value=-0.00531102 -1.59019 3.43469 2.51887 -0.619063 -2.7267 5.72901 -1.07496 1.81319 3.31527 -2.21832 0.0966676 -3.47105 -2.65177 4.93346 -1.98183 -0.0856181 2.14407 -0.776883 -1.39958 -1.8536 -3.63999 -0.854585
internal_weight=501 343 158 113 185 158 45 113 60 53 94 72 64 33 30 61 50 37 59 54 45 47 43
internal_count=501 343 158 113 185 158 45 113 60 53 94 72 64 33 30 61 50 37 59 54 45 47 43
is_linear=0
shrinkage=0.03


Tree=8
num_leaves=26
num_cat=0
split_feature=32 32 32 32 32 32 32 32 32 32 32 32 32 54 32 32 0 32 18 55 44 32 32 66 45
split_gain=2.8566e+06 395916 347524 87961.9 80101.7 43877.1 34728 16469 14062.2 12181.1 6348.37 5261.05 4816.36 2464.84 2431.95 1799.09 1526.08 1368.08 815.168 812.409 496.064 451.556 353.717 346.097 325.081
threshold=318.27000000000004 217.30500000000004 464.5800000000001 391.86000000000007 268.62500000000006 182.68000000000004 506.9550000000001 246.30500000000004 422.04000000000002 353.58000000000004 293.48000000000008 201.90500000000003 168.84500000000003 97.968650000000011 230.78 374.4550000000001 12.500000000000002 278.95500000000004 11.050000000000002 92.810000000000016 44053.832500000011 403.96500000000009 153.76500000000001 -15.249449999999998 261.69000000000005
decision_type=2 2 2 2 2 2 2 2 2 2 2 2 2 10 2 2 2 2 2 10 10 2 2 10 10
left_child=1 5 3 9 7 12 -4 14 21 -2 17 13 22 -7 24 -11 -13 -6 -16 -9 -19 -5 -1 -21 -3
right_child=2 4 6 8 10 11 -8 19 -10 15 -12 16 -14 -15 18 -17 -18 20 -20 23 -22 -23 -24 -25 -26
leaf_value=-3.7086916962050434 1.239119439776704 -1.7185068674162616 5.1193591841319552 2.7573186485315864 -0.36230165801872716 -2.3147620951898209 7.080124292722175 -0.62776674059621673 3.8685214690400431 1.9332587964222485 0.438308103371019 -1.8899487971688458 -2.9542295962973424 -2.872878486912116 -1.0835025886206135 2.3714267324287199 -2.3010385339679909 -0.14833769947191408 -1.3917547866174407 -0.76936070746001772 0.08797740153553199 3.092142191028278 -3.4125643857452324 -0.97628774395812778 -1.5118247956844519
leaf_weight=20 23 19 20 15.000000000000002 15.999999999999998 18 14.999999999999998 23 30 24 27 25 20 14.999999999999998 14.999999999999998 15.999999999999998 14.999999999999998 14.999999999999998 20 18 17 14.999999999999998 24 14.999999999999998 21
leaf_count=20 23 19 20 15 16 18 15 23 30 24 27 25 20 15 15 16 15 15 20 18 17 15 24 15 21
internal_value=-0.00514334 -1.5426 3.33193 2.57951 -0.711105 -2.79216 5.96863 -1.15858 3.40194 1.79415 0.0707172 -2.28606 -3.36716 -2.57246 -1.4494 2.11131 -2.04683 -0.136262 -1.26142 -0.76812 -0.0228071 2.92965 -3.55126 -0.864799 -1.61206
internal_weight=501 343 158 123 206 137 35 131 60 63 75 73 64 33 75 40 40 48 35 56 32 30 44 33 40
internal_count=501 343 158 123 206 137 35 131 60 63 75 73 64 33 75 40 40 48 35 56 32 30 44 33 40
is_linear=0
shrinkage=0.03


Tree=9
num_leaves=24
num_cat=0
split_feature=32 32 32 32 32 32 32 32 32 32 32 32 32 53 0 70 50 50 32 33 32 32 32
split_gain=2.68822e+06 372609 327052 82774.9 59414.4 58420.1 32686.4 13227.6 11463.2 10677.2 9206.76 5390.45 4557.55 4230.93 2515.41 1748.5 1436.48 951.471 848.593 794.481 626.899 532.301 424.673
threshold=318.27000000000004 224.51000000000002 464.5800000000001 391.86000000000007 271.26000000000005 182.68000000000004 506.9550000000001 422.04000000000002 353.58000000000004 246.30500000000004 201.90500000000003 296.04500000000002 171.79500000000004 95.196400000000025 13.500000000000002 0.91350000000000009 328.95015000000006 349.88945000000007 234.31000000000003 0.76950000000000018 213.23500000000004 153.76500000000001 403.96500000000009
decision_type=2 2 2 2 2 2 2 2 2 2 2 2 2 10 2 10 10 10 2 10 2 2 2
left_child=1 5 3 8 9 12 -4 22 -2 18 13 16 21 -7 20 -10 -6 19 -3 -11 -12 -1 -5
right_child=2 4 6 7 11 10 -8 -9 15 17 14 -13 -14 -15 -16 -17 -18 -19 -20 -21 -22 -23 -24
leaf_value=-3.5977084008119347 1.2020265105903278 -1.450535450095902 4.9661613452939903 2.6748738447930718 -0.26224428871050981 -2.1278031949907819 6.8684261446220924 3.7526589397106709 1.8729750752597738 -0.64900266620921299 -1.8840214135224682 0.48188312943289879 -2.8166522709015878 -2.8342679701103144 -2.1990048759674354 2.3041115862409645 0.061373952952298243 -0.53018910809097997 -1.1985270973244961 -0.91635251325047651 -1.6294960012835655 -3.2920877740828254 2.9996859893291892
leaf_weight=20 23 25 20 15.000000000000002 22 15.999999999999998 14.999999999999998 30 24 18 20 22 17 17 15.999999999999998 15.999999999999998 28 15.999999999999998 29 25 25 27 14.999999999999998
leaf_count=20 23 25 20 15 22 16 15 30 24 18 20 22 17 17 16 16 28 16 29 25 25 27 15
internal_value=-0.00498968 -1.49645 3.23223 2.50231 -0.582392 -2.56617 5.7901 3.30013 1.74046 -1.01139 -2.08792 0.0911114 -3.26638 -2.49552 -1.86553 2.04813 -0.0811078 -0.731273 -1.31646 -0.805357 -1.74462 -3.42586 2.84205
internal_weight=501 343 158 123 185 158 35 60 63 113 94 72 64 33 61 40 50 59 54 43 45 47 30
internal_count=501 343 158 123 185 158 35 60 63 113 94 72 64 33 61 40 50 59 54 43 45 47 30
is_linear=0
shrinkage=0.03


Tree=10
num_leaves=27
num_cat=0
split_feature=32 32 32 32 32 32 32 32 32 32 32 32 32 32 5 50 74 32 33 32 77 36 68 32 75 33
split_gain=2.67115e+06 401672 346058 84147.7 68766 40587.4 37866.8 9116.1 9051.29 8778.56 7443.63 6254.28 5122.25 3649.12 1854.47 1837.98 1583.97 1315.57 1202.22 1176.76 1148.87 934.243 504.447 392.236 380.664 122.393
threshold=330.66000000000003 232.05000000000004 445.79500000000002 191.84 278.95500000000004 391.86000000000007 517.97500000000014 170.76000000000002 303.91000000000003 213.23500000000004 251.47500000000002 422.04000000000002 486.30500000000001 356.92000000000002 8.5000000000000018 328.95015000000006 340.66825000000006 150.19000000000003 0.72400000000000009 374.4550000000001 306.97290000000004 0.70730000000000015 0.88635000000000008 223.02000000000001 224.62000000000003 0.83695000000000008
decision_type=2 2 2 2 2 2 2 2 2 2 2 2 2 2 2 10 8 2 10 2 10 10 8 2 10 10
left_child=1 3 5 7 10 13 12 17 16 21 18 -7 -4 -2 -9 25 -6 -1 -3 -15 23 24 -20 -11 -5 -12
right_child=2 4 6 9 8 11 -8 14 -10 20 15 -13 -14 19 -16 -17 -18 -19 22 -21 -22 -23 -24 -25 -26 -27
leaf_value=-3.5881877350138724 1.4178333451027094 -0.90512402115581181 4.4130481670058765 -2.0500673368935267 -0.15254125095973503 2.7726682178546671 6.6338991101396392 -2.9277788901091415 0.77349328130643002 -1.7360587384760213 -0.66933409136395117 3.5513359911196698 5.2629483574127471 1.8294616689288952 -2.4303880314285404 -0.35998891821445844 0.21881408014519077 -3.1901672302333162 -1.3524545851900429 2.19455268931166 -1.3176947393943006 -1.8760050147719396 -1.0984581121997299 -1.5032336742792103 -2.3251804197190999 -0.80156215801966157
leaf_weight=15.999999999999998 14.999999999999998 15.999999999999998 15.999999999999998 16.000000000000004 15.999999999999998 27 17 14.999999999999998 28 18 14.999999999999998 15.999999999999998 15.999999999999998 23 18 18 29 35 17 15.999999999999998 19 17 15.999999999999998 18 14.999999999999998 17
leaf_count=16 15 16 16 16 16 27 17 15 28 18 15 16 16 23 18 18 29 35 17 16 19 17 16 18 15 17
internal_value=-0.00299714 -1.39441 3.41765 -2.35662 -0.347899 2.37749 5.47219 -3.06177 0.35051 -1.78032 -0.862819 3.06623 4.84559 1.8267 -2.66061 -0.604214 0.0867206 -3.31846 -1.12579 1.9819 -1.51815 -2.0788 -1.2312 -1.62193 -2.18676 -0.740768
internal_weight=505 359 146 187 172 97 49 84 73 103 99 43 32 54 33 50 45 51 49 39 55 48 33 36 31 32
internal_count=505 359 146 187 172 97 49 84 73 103 99 43 32 54 33 50 45 51 49 39 55 48 33 36 31 32
is_linear=0
shrinkage=0.03


Tree=11
num_leaves=29
num_cat=0
split_feature=32 32 32 32 32 32 32 32 32 32 32 32 32 32 5 50 32 33 32 70 77 51 53 70 32 32 25 0
split_gain=2.51373e+06 377990 325675 79181.8 64712.7 38192.8 35633.6 8575.71 8550.26 8261.75 7004.95 5887.3 4819.99 3433.44 1745.33 1729.67 1239.3 1131.26 1107.63 1085.98 1081.06 1079.07 915.92 1156.19 442.989 368.961 173.725 87.5994
threshold=330.66000000000003 232.05000000000004 445.79500000000002 191.84 278.95500000000004 391.86000000000007 517.97500000000014 170.76000000000002 296.04500000000002 213.23500000000004 251.47500000000002 422.04000000000002 486.30500000000001 356.92000000000002 8.5000000000000018 328.95015000000006 150.19000000000003 0.72400000000000009 374.4550000000001 0.91075000000000006 306.97290000000004 91.65000000000002 87.949300000000008 0.87895000000000012 238.75000000000003 223.02000000000001 8.3500000000000032 25.500000000000004
decision_type=2 2 2 2 2 2 2 2 2 2 2 2 2 2 2 10 2 10 2 10 10 10 10 10 2 2 2 2
left_child=1 3 5 7 10 13 12 16 19 22 17 -7 -4 -2 -9 26 -1 -3 -15 -6 25 -10 -5 -24 -19 -11 -12 -18
right_child=2 4 6 9 8 11 -8 14 21 20 15 -13 -14 18 -16 -17 27 24 -20 -21 -22 -23 23 -25 -26 -27 -28 -29
leaf_value=-3.4808774916033878 1.3754396499431014 -0.87805489014242288 4.281069210444655 -1.7972871327954669 -0.1221387353645651 2.6896418184008919 6.4354658074253104 -2.8402373061069222 0.85346280962507293 -1.6841212653585418 -0.79809587016058126 3.4451277460116088 5.105551837671582 1.774696893588581 -2.3576783333987077 -0.34921916084606558 -2.9667021107343423 -1.3085673690751152 2.1289212506730979 0.20546328054410273 -1.2782676384392686 0.51928291132325233 -2.2890396697237221 -1.8956789856970904 -1.0692534708753925 -1.4582615953271079 -0.64626234205587163 -3.2208337787169516
leaf_weight=15.999999999999998 14.999999999999998 15.999999999999998 15.999999999999998 14.999999999999998 21 27 17 14.999999999999998 15.999999999999998 18 14.999999999999998 15.999999999999998 15.999999999999998 23 18 18 18 17 15.999999999999998 15.999999999999998 19 20 18 14.999999999999998 15.999999999999998 18 17 17
leaf_count=16 15 16 16 15 21 27 17 15 16 18 15 16 16 23 18 18 18 17 16 16 19 20 18 15 16 18 17 17
internal_value=-0.00290544 -1.35269 3.31541 -2.28611 -0.337501 2.30635 5.30852 -2.97014 0.340012 -1.72707 -0.837016 2.97446 4.70068 1.77205 -2.58103 -0.586144 -3.2191 -1.09212 1.9226 0.0195726 -1.47273 0.668827 -2.01663 -2.11342 -1.19437 -1.57341 -0.718615 -3.0946
internal_weight=505 359 146 187 172 97 49 84 73 103 99 43 32 54 33 50 51 49 39 37 55 36 48 33 33 36 32 35
internal_count=505 359 146 187 172 97 49 84 73 103 99 43 32 54 33 50 51 49 39 37 55 36 48 33 33 36 32 35
is_linear=0
shrinkage=0.03


Tree=12
num_leaves=28
num_cat=0
split_feature=32 32 32 32 32 32 32 32 32 32 32 32 32 32 5 50 74 32 32 77 24 36 18 75 32 25 0
split_gain=2.36559e+06 355716 306492 74516 60899.9 35939.5 33532 8091.7 8069.85 7775.29 6592.11 5541.83 4535.54 3230.5 1642.61 1627.75 1405.39 1166.19 1042.55 1017.26 1010.7 875.928 748.723 351.301 347.063 163.443 82.2098
threshold=330.66000000000003 232.05000000000004 445.79500000000002 191.84 278.95500000000004 391.86000000000007 517.97500000000014 303.91000000000003 170.76000000000002 213.23500000000004 251.47500000000002 422.04000000000002 486.30500000000001 356.92000000000002 8.5000000000000018 328.95015000000006 343.11980000000005 150.19000000000003 374.4550000000001 306.97290000000004 6.0500000000000007 0.70730000000000015 10.950000000000001 224.62000000000003 223.02000000000001 8.3500000000000032 25.500000000000004
decision_type=2 2 2 2 2 2 2 2 2 2 2 2 2 2 2 10 10 2 2 10 2 10 2 10 2 2 2
left_child=1 3 5 8 10 13 12 16 17 21 20 -7 -4 -2 -10 25 -6 -1 -15 24 -3 23 -22 -5 -11 -12 -19
right_child=2 4 6 9 7 11 -8 -9 14 19 15 -13 -14 18 -16 -17 -18 26 -20 -21 22 -23 -24 -25 -26 -27 -28
leaf_value=-3.3767763854410044 1.3343135666451185 -0.87410637947991288 4.1530372890579361 -1.9300426718453376 -0.14493887148170828 2.6091017949074335 6.2429679141226391 0.72977536752262218 -2.7553132786544849 -1.6337375765560076 -0.77423254348906956 3.3420959672303954 4.9528623834057379 1.7215714831569449 -2.2871439955439263 -0.33877161218188806 0.20485468749130034 -2.8779474916748722 2.0652525700364159 -1.2400202671561653 -1.0036775770219057 -1.761110289900883 -1.3134160392975138 -2.1923106206849563 -1.4146349231159918 -0.62693133122060996 -3.1244919906123991
leaf_weight=15.999999999999998 14.999999999999998 18 15.999999999999998 16.000000000000004 15.999999999999998 27 17 28 14.999999999999998 18 14.999999999999998 15.999999999999998 15.999999999999998 23 18 18 29 18 15.999999999999998 19 15.000000000000002 17 15.999999999999998 14.999999999999998 18 17 17
leaf_count=16 15 18 16 16 16 27 17 28 15 18 15 16 16 23 18 18 29 18 16 19 15 17 16 15 18 17 17
internal_value=-0.00282363 -1.31224 3.21623 -2.21773 -0.327408 2.23734 5.14975 0.329842 -2.8813 -1.67541 -0.811984 2.88544 4.5601 1.71904 -2.50384 -0.568616 0.0804275 -3.12282 1.86507 -1.42867 -1.05946 -1.95632 -1.16545 -2.06032 -1.52634 -0.697126 -3.00203
internal_weight=505 359 146 187 172 97 49 73 84 103 99 43 32 54 33 50 45 51 39 55 49 48 31 31 36 32 35
internal_count=505 359 146 187 172 97 49 73 84 103 99 43 32 54 33 50 45 51 39 55 49 48 31 31 36 32 35
is_linear=0
shrinkage=0.03


Tree=13
num_leaves=28
num_cat=0
split_feature=32 32 32 32 32 32 32 32 32 32 32 32 32 32 44 74 50 61 32 33 51 32 77 38 68 32 0
split_gain=2.22618e+06 334752 288439 70134.3 57445.5 33819.1 31554.4 9981.28 8134.72 6606.96 5216.64 4267.88 4163.76 3039.55 1525.09 1384.99 1169.49 1160.22 1097.38 1027.91 999.357 981.292 957.217 649.001 447.014 326.46 77.1425
threshold=330.66000000000003 232.05000000000004 445.79500000000002 188.28500000000003 272.56500000000005 391.86000000000007 517.97500000000014 296.04500000000002 213.23500000000004 170.76000000000002 422.04000000000002 486.30500000000001 251.47500000000002 356.92000000000002 42966.628250000002 239.04550000000003 328.48980000000006 88.271450000000016 150.19000000000003 0.72400000000000009 91.65000000000002 374.4550000000001 306.97290000000004 0.83765000000000012 0.88635000000000008 223.02000000000001 25.500000000000004
decision_type=2 2 2 2 2 2 2 2 2 2 2 2 2 2 10 10 10 10 2 10 10 2 10 10 8 2 2
left_child=1 3 5 9 12 13 11 14 17 18 -7 -4 19 -2 -6 -11 -14 23 -1 -3 -9 -15 25 -5 -21 -10 -20
right_child=2 4 6 8 7 10 -8 20 22 15 -12 -13 16 21 -16 -17 -18 -19 26 24 -22 -23 -24 -25 -26 -27 -28
leaf_value=-3.2757888708382006 1.29441714150565 -0.82386389973007623 4.0288342399240644 -1.6294111002164822 -0.20871216673137305 2.5309733398211858 6.0562281239976619 0.80807594441921904 -1.5848612046175716 -2.6730192479738752 3.2421453657774166 4.8047394711503344 -0.74478076797759463 1.6700363496792807 0.13638563566249259 -2.2186654440033871 -0.41353538283677854 -2.1162813610167017 -2.7918483076861689 -1.2389266406196302 0.48661711357478188 2.0034879866270261 -1.2029172960416539 -1.9357814831328182 -1.0007768563243831 -1.3723134416490381 -3.0310321805623968
leaf_weight=15.999999999999998 14.999999999999998 15.999999999999998 15.999999999999998 14.999999999999998 23 27 17 15.999999999999998 18 15.000000000000002 15.999999999999998 15.999999999999998 25 23 23 14.999999999999998 15.999999999999998 19 18 17 20 15.999999999999998 19 17 15.999999999999998 18 17
leaf_count=16 15 16 16 15 23 27 17 16 18 15 16 16 25 23 23 15 16 19 18 17 20 16 19 17 16 18 17
internal_value=-0.00274643 -1.27299 3.12002 -2.1514 -0.317623 2.17039 4.99573 0.256681 -1.64208 -2.81646 2.79909 4.42372 -0.840746 1.66761 -0.03617 -2.44996 -0.616212 -1.91667 -3.02941 -1.02777 0.630452 1.80927 -1.38593 -1.79498 -1.12519 -1.48068 -2.91222
internal_weight=505 359 146 187 172 97 49 82 106 81 43 32 90 54 46 30 41 51 51 49 36 39 55 32 33 36 35
internal_count=505 359 146 187 172 97 49 82 106 81 43 32 90 54 46 30 41 51 51 49 36 39 55 32 33 36 35
is_linear=0
shrinkage=0.03


Tree=14
num_leaves=28
num_cat=0
split_feature=32 32 32 32 32 32 32 32 32 32 32 32 32 32 5 44 74 32 33 51 32 77 36 40 75 32 0
split_gain=2.09499e+06 315027 271449 66016 54060.1 31823.8 29693.5 9393.06 7138.6 6881.3 4910.51 4015.99 3918.63 2859.89 1480.51 1435.16 1033.27 1032.62 967.23 940.471 923.629 900.714 821.013 421.389 327.457 307.075 72.3792
threshold=330.66000000000003 232.05000000000004 445.79500000000002 191.84 272.56500000000005 391.86000000000007 517.97500000000014 296.04500000000002 170.76000000000002 213.23500000000004 422.04000000000002 486.30500000000001 251.47500000000002 356.92000000000002 8.5000000000000018 42966.628250000002 344.05395000000004 150.19000000000003 0.72400000000000009 91.65000000000002 374.4550000000001 306.97290000000004 0.70730000000000015 31391.195000000003 224.62000000000003 223.02000000000001 25.500000000000004
decision_type=2 2 2 2 2 2 2 2 2 2 2 2 2 2 2 10 10 2 10 10 2 10 10 10 10 2 2
left_child=1 3 5 8 12 13 11 15 17 22 -7 -4 18 -2 -10 -6 -14 -1 -3 -9 -15 25 24 -20 -5 -11 -19
right_child=2 4 6 9 7 10 -8 19 14 21 -12 -13 16 20 -16 -17 -18 26 23 -21 -22 -23 -24 -25 -26 -27 -28
leaf_value=-3.1778211704147195 1.2557136441227605 -0.79922498399966224 3.9083457932516787 -1.8165156056056508 -0.20246438948037565 2.4551846409372828 5.8750741246019285 0.783909180364876 -2.5950197857321298 -1.5374470832803573 3.1451840894467358 4.6610463422258315 -0.72498740301310638 1.6200439393546213 -2.1511741287358248 0.13230293807135229 -0.41647926553603137 -2.7083247861571587 -1.2089502908581884 0.47205500548022639 1.9435706079786066 -1.1669245009534941 -1.6529357538754639 -0.97772962933761276 -2.0673311845646349 -1.3312580761684936 -2.9403679372837814
leaf_weight=15.999999999999998 14.999999999999998 15.999999999999998 15.999999999999998 16.000000000000004 23 27 17 15.999999999999998 14.999999999999998 18 15.999999999999998 15.999999999999998 24 23 18 23 17 18 15.999999999999998 20 15.999999999999998 19 17 17 14.999999999999998 18 17
leaf_count=16 15 16 16 16 23 27 17 16 15 18 16 16 24 23 18 23 17 18 16 20 16 19 17 17 15 18 17
internal_value=-0.00266803 -1.23491 3.02668 -2.08705 -0.308121 2.10545 4.84632 0.249003 -2.71163 -1.5766 2.71532 4.29143 -0.815596 1.61772 -2.35659 -0.0350862 -0.597769 -2.9388 -0.997034 0.611593 1.75513 -1.34447 -1.84087 -1.09154 -1.94106 -1.43638 -2.82511
internal_weight=505 359 146 187 172 97 49 82 84 103 43 32 90 54 33 46 41 51 49 36 39 55 48 33 31 36 35
internal_count=505 359 146 187 172 97 49 82 84 103 43 32 90 54 33 46 41 51 49 36 39 55 48 33 31 36 35
is_linear=0
shrinkage=0.03


Tree=15
num_leaves=25
num_cat=0
split_feature=32 32 32 32 32 32 62 32 32 32 32 32 9 24 74 33 52 32 64 38 18 32 63 55
split_gain=2.05024e+06 308725 212324 90626.1 54228.7 24018.1 13805.6 11224.7 8970.59 5512.72 5400.18 4843.2 2492.23 2481.05 1585.34 1264.24 1135.93 1107.43 649.76 598.178 566.231 523.306 490.503 209.984
threshold=342.23500000000007 213.23500000000004 473.59500000000008 271.26000000000005 403.96500000000009 170.76000000000002 93.704650000000015 296.04500000000002 246.30500000000004 374.4550000000001 201.90500000000003 432.61500000000007 13.500000000000002 6.0500000000000007 357.79750000000007 0.90430000000000021 99.545000000000016 184.10500000000005 -15.065 0.86760000000000015 11.550000000000002 150.19000000000003 -8.0599999999999987 95.455000000000013
decision_type=2 2 2 2 2 2 10 2 2 2 2 2 2 2 10 10 10 2 10 10 2 2 10 10
left_child=1 5 4 8 9 21 -4 14 13 22 12 -6 -7 -3 -5 -9 20 -14 23 -13 -15 -1 -2 -10
right_child=2 3 6 7 11 10 -8 15 18 -11 -12 19 17 16 -16 -17 -18 -19 -20 -21 -22 -23 -24 -25
leaf_value=-3.0682415315146754 1.3294258482670069 -0.88906879154715956 4.5061670074040201 -0.25612975684963923 2.7282778515458914 -2.5431609594042053 5.7781390666070376 0.81378036879374482 -0.50543298537548964 2.0672320909200446 -1.6837666275673122 3.1411387507543207 -2.2757512657664645 -1.0543232823169137 0.089531761318616801 0.46302715438278719 -1.4544953398198943 -1.9101695033999915 -0.8361290905094918 3.5184402380257005 -1.2886066411389134 -2.7834812402657199 1.6005982418630607 -0.6717311723525341
leaf_weight=15.999999999999998 15.000000000000002 19 18 22 22 15.999999999999998 15.999999999999998 17 15.000000000000002 27 27 15.000000000000002 15.999999999999998 19 26 21 24 21 14.999999999999998 15.999999999999998 24 35 14.999999999999998 14.999999999999998
leaf_count=16 15 19 18 22 22 16 16 17 15 27 27 15 16 19 26 21 24 21 15 16 24 35 15 15
internal_value=0.0306815 -1.21507 3.04065 -0.520585 2.39824 -2.36484 5.11239 0.236 -1.01719 1.75317 -2.03751 3.08966 -2.21594 -1.19695 -0.0689669 0.620846 -1.28351 -2.07116 -0.672654 3.34128 -1.18647 -2.87576 1.4675 -0.589611
internal_weight=492 348 144 217 110 131 34 86 131 57 80 53 53 86 48 38 67 37 45 31 43 51 30 30
internal_count=492 348 144 217 110 131 34 86 131 57 80 53 53 86 48 38 67 37 45 31 43 51 30 30
is_linear=0
shrinkage=0.03


Tree=16
num_leaves=24
num_cat=0
split_feature=32 32 32 32 32 32 62 32 32 32 32 32 9 73 47 50 70 33 32 12 25 32 32
split_gain=1.9294e+06 290520 199814 85284 51034.1 22599.2 12992.8 10563.1 8440.79 5186.11 5082.82 4558.92 2345.44 2334.44 1676.62 1462.1 1255.43 1189.73 1042.29 646.027 642.71 493.179 454.395
threshold=342.23500000000007 213.23500000000004 473.59500000000008 271.26000000000005 403.96500000000009 170.76000000000002 93.704650000000015 296.04500000000002 246.30500000000004 374.4550000000001 201.90500000000003 432.61500000000007 13.500000000000002 317.34070000000003 247.89500000000001 328.95015000000006 0.9195000000000001 0.90430000000000021 184.10500000000005 75.550000000000011 7.8500000000000005 150.19000000000003 227.89000000000001
decision_type=2 2 2 2 2 2 10 2 2 2 2 2 2 10 10 10 10 10 2 2 2 2 2
left_child=1 5 4 8 9 21 -4 15 13 20 12 -6 -7 22 -15 -5 -13 -9 -14 -10 -2 -1 -3
right_child=2 3 6 7 11 10 -8 17 19 -11 -12 16 18 14 -16 -17 -18 -19 -20 -21 -22 -23 -24
leaf_value=-2.9764809353552133 1.5719389890753148 -1.4281127176261008 4.3713564683063533 -0.25436237791654898 2.6466151791527155 -2.4671037891423593 5.605334963219188 0.78943853551691223 -0.55720272896250156 2.0053297291753913 -1.6333470242653667 2.9972234945202181 -2.2076914336302571 -0.76132682039590871 -1.1569141687722315 0.079045473176318048 3.4600951777663185 0.44916934317853868 -1.8530005346737677 -0.79353173411784061 1.2704764417477223 -2.7000958783072173 -1.2164625170130929
leaf_weight=15.999999999999998 15.000000000000002 20 18 21 22 15.999999999999998 15.999999999999998 17 27 27 27 15.000000000000002 15.999999999999998 17 24 27 15.999999999999998 21 21 18 14.999999999999998 35 25
leaf_count=16 15 20 18 21 22 16 16 17 27 27 27 15 16 17 24 27 16 21 21 18 15 35 25
internal_value=0.0297753 -1.17871 2.94969 -0.505007 2.32649 -2.29406 4.95947 0.22894 -0.98675 1.70071 -1.97655 2.99724 -2.14965 -1.16113 -0.994054 -0.0669021 3.24136 0.602272 -2.00919 -0.652543 1.42362 -2.78966 -1.31204
internal_weight=492 348 144 217 110 131 34 86 131 57 80 53 53 86 41 48 31 38 37 45 30 51 45
internal_count=492 348 144 217 110 131 34 86 131 57 80 53 53 86 41 48 31 38 37 45 30 51 45
is_linear=0
shrinkage=0.03


Tree=17
num_leaves=26
num_cat=0
split_feature=32 32 32 32 32 32 32 32 32 32 32 32 53 73 47 31 32 70 52 64 25 32 32 63 34
split_gain=1.81567e+06 273389 188041 80255.8 48027.7 21264 12473.5 9940.53 7942.98 4878.85 4784.11 4291.32 2320.08 2196.62 1577.47 1439.75 1421.78 1181 1039.2 609.28 604.713 464.778 427.573 125.239 108.22
threshold=342.23500000000007 213.23500000000004 473.59500000000008 271.26000000000005 403.96500000000009 170.76000000000002 512.6350000000001 296.04500000000002 246.30500000000004 374.4550000000001 201.90500000000003 432.61500000000007 88.167150000000007 317.34070000000003 247.89500000000001 138.50000000000003 287.47000000000008 0.9195000000000001 96.015000000000015 -15.065 7.8500000000000005 150.19000000000003 227.89000000000001 -23.824999999999999 0.73620000000000008
decision_type=2 2 2 2 2 2 2 2 2 2 2 2 10 10 10 2 2 10 10 10 2 2 2 10 10
left_child=1 5 4 8 9 21 -4 16 13 20 12 -6 -7 22 -15 -14 -5 -13 -9 23 -2 -1 -3 -10 -23
right_child=2 3 6 7 11 10 -8 18 19 -11 -12 17 15 14 -16 -17 -18 -19 -20 -21 -22 24 -24 -25 -26
leaf_value=-2.8874647536233207 1.5249374805336375 -1.3853761751931206 4.2354861365659078 -0.21492460354275983 2.5673966948840081 -1.7516066298373911 5.4434263197283865 0.71845628154521091 -0.48610953372182242 1.9452810353051713 -1.5844371758988074 2.9076055340434221 -2.3835640669842153 -0.7385540073428335 -1.1222788926122591 -1.9754246278566734 0.1124199256767221 3.3566157317830019 0.39796824786150564 -0.79117040125634575 1.2324887789602692 -2.745800052275293 -1.1800414824343013 -0.617353961855866 -2.5175794918222021
leaf_weight=15.999999999999998 15.000000000000002 20 18 26 22 14.999999999999998 15.999999999999998 22 14.999999999999998 27 27 15.000000000000002 22 17 24 15.999999999999998 22 15.999999999999998 15.999999999999998 14.999999999999998 14.999999999999998 14.999999999999998 25 15.000000000000002 20
leaf_count=16 15 20 18 26 22 15 16 22 15 27 27 15 22 17 24 16 22 16 16 15 15 15 25 15 20
internal_value=0.0288978 -1.14343 2.86145 -0.489891 2.25689 -2.2254 4.81113 0.222091 -0.957217 1.64982 -1.91741 2.90758 -2.08535 -1.12637 -0.964303 -2.21458 -0.0648996 3.14443 0.584254 -0.633013 1.38106 -2.70614 -1.27277 -0.5527 -2.61921
internal_weight=492 348 144 217 110 131 34 86 131 57 80 53 53 86 41 38 48 31 38 45 30 51 45 30 35
internal_count=492 348 144 217 110 131 34 86 131 57 80 53 53 86 41 38 48 31 38 45 30 51 45 30 35
is_linear=0
shrinkage=0.03


Tree=18
num_leaves=24
num_cat=0
split_feature=32 32 32 32 32 32 62 32 32 32 32 70 24 9 32 52 37 52 32 12 25 18 38
split_gain=1.70866e+06 257277 176962 75524.9 45198.4 20012.1 11877.5 9367.09 7473.88 4589.78 4502.83 4044.32 2260.52 2208.5 1693.99 1510.94 1058.19 1002.32 965.232 606.789 568.957 507 499.955
threshold=342.23500000000007 213.23500000000004 473.59500000000008 271.26000000000005 403.96500000000009 170.76000000000002 93.704650000000015 293.48000000000008 246.30500000000004 374.4550000000001 201.90500000000003 0.9195000000000001 6.0500000000000007 13.500000000000002 432.61500000000007 96.995000000000019 0.92875000000000008 99.545000000000016 184.10500000000005 75.550000000000011 7.8500000000000005 11.550000000000002 0.77205000000000013
decision_type=2 2 2 2 2 2 10 2 2 2 2 10 2 2 2 10 10 10 2 2 2 2 10
left_child=1 5 4 8 9 22 -4 16 12 20 13 14 -3 -7 -6 -9 -5 21 -15 -10 -2 -14 -1
right_child=2 3 6 7 11 10 -8 15 19 -11 -12 -13 17 18 -16 -17 -18 -19 -20 -21 -22 -23 -24
leaf_value=-2.736171876631956 1.4793413596929503 -0.79919583658533766 4.1058358494132507 -0.24162080703226449 2.3230190908235562 -2.3301580325688156 5.283936137261791 0.68921014485803966 -0.52179899809761543 1.8870304642146705 -1.5369919364774074 3.1330883372010994 -0.95972316952202263 -2.0773964199173118 2.8206671031052091 0.33569774231548261 0.060592710521277481 -1.3355485617147909 -1.7374824041878525 -0.75060897975086827 1.1956369669968108 -1.1805270250919206 -2.4843951316717647
leaf_weight=28 15.000000000000002 19 18 23 15.000000000000002 15.999999999999998 15.999999999999998 23 27 27 27 23 19 15.999999999999998 14.999999999999998 21 19 24 21 18 14.999999999999998 24 23
leaf_count=28 15 19 18 23 15 16 16 23 27 27 27 23 19 16 15 21 19 24 21 18 15 24 23
internal_value=0.0280367 -1.10922 2.77585 -0.475232 2.18937 -2.15882 4.66723 0.215446 -0.928574 1.60045 -1.86003 2.82061 -1.09266 -2.02296 2.57617 0.521095 -0.10496 -1.1752 -1.88712 -0.614088 1.33976 -1.08423 -2.6252
internal_weight=492 348 144 217 110 131 34 86 131 57 80 53 86 53 30 44 42 67 37 45 30 43 51
internal_count=492 348 144 217 110 131 34 86 131 57 80 53 86 53 30 44 42 67 37 45 30 43 51
is_linear=0
shrinkage=0.03


Tree=19
num_leaves=26
num_cat=0
split_feature=32 32 32 32 32 32 32 32 32 10 32 32 24 74 31 53 70 33 52 77 64 25 18 38 55
split_gain=1.60794e+06 242106 166536 71071.8 42535.2 18829.6 11403.6 8828.48 7033.07 4500.36 4317.84 3874.26 2127 1328.15 1160.67 2260.67 1071.44 1064.55 943.018 632.472 571.249 535.312 476.913 470.003 194.376
threshold=342.23500000000007 213.23500000000004 473.59500000000008 271.26000000000005 403.96500000000009 170.76000000000002 512.6350000000001 296.04500000000002 246.30500000000004 21.500000000000004 374.4550000000001 432.61500000000007 6.0500000000000007 357.79750000000007 136.50000000000003 96.821450000000013 0.9195000000000001 0.90430000000000021 99.545000000000016 256.09070000000003 -15.065 7.8500000000000005 11.550000000000002 0.77205000000000013 95.455000000000013
decision_type=2 2 2 2 2 2 2 2 2 8 2 2 2 10 2 10 10 10 10 8 10 2 2 10 10
left_child=1 5 4 8 10 23 -4 13 12 14 21 -6 -3 -5 15 -7 -13 -9 22 -11 24 -2 -14 -1 -10
right_child=2 3 6 7 11 9 -8 17 20 19 -12 16 18 -15 -16 -17 -18 -19 -20 -21 -22 -23 -24 -25 -26
leaf_value=-2.6542330606225972 1.4351085381492028 -0.77528289164145159 3.9781074468977224 -0.23277459097557326 2.4133019521285073 -1.8466206395907665 5.1314161411178443 0.72727646357852327 -0.4376982841618432 -1.6555960224950033 1.830524184249906 2.7363282983722867 -0.93100704163078252 0.083606612993522247 -1.7383198491600262 -2.3556796335951189 3.162531093704366 0.40558018041548988 -1.2955654031670267 -1.353419717427504 -0.74871949300417462 1.1598870309721989 -1.1451848502367301 -2.4100249688071957 -0.59655026635458297
leaf_weight=28 15.000000000000002 19 18 22 22 19 15.999999999999998 17 15.000000000000002 15.000000000000002 27 15.000000000000002 19 26 14.999999999999998 15.999999999999998 15.999999999999998 21 24 14.999999999999998 14.999999999999998 14.999999999999998 24 23 14.999999999999998
leaf_count=28 15 19 18 22 22 19 16 17 15 15 27 15 19 26 15 16 16 21 24 15 15 15 24 23 15
internal_value=0.0272094 -1.07602 2.69281 -0.461008 2.12387 -2.0942 4.52762 0.208998 -0.900782 -1.80437 1.55256 2.73622 -1.05996 -0.0614615 -1.98105 -2.0824 2.96109 0.550303 -1.14003 -1.50706 -0.595709 1.29971 -1.05177 -2.5466 -0.518035
internal_weight=492 348 144 217 110 131 34 86 131 80 57 53 86 48 50 35 31 38 67 30 45 30 43 51 30
internal_count=492 348 144 217 110 131 34 86 131 80 57 53 86 48 50 35 31 38 67 30 45 30 43 51 30
is_linear=0
shrinkage=0.03


Tree=20
num_leaves=24
num_cat=0
split_feature=32 32 32 32 32 32 32 32 32 32 32 53 43 32 32 20 32 76 20 50 32 32 27
split_gain=1.5369e+06 207068 197228 57112.3 29919.4 28334.1 12772.8 10494.4 6983.68 4563.54 4047.75 3525.35 3390.56 2784.79 1900.83 1815.3 1509.39 1475.48 1447.88 607.582 472.656 465.599 426.121
threshold=318.27000000000004 438.83500000000004 204.02500000000001 251.47500000000002 381.92500000000001 517.97500000000014 287.47000000000008 168.84500000000003 477.83000000000004 353.58000000000004 415.2050000000001 88.919250000000019 21499.881400000002 234.31000000000003 268.62500000000006 13.500000000000002 303.91000000000003 257.31500000000005 17.500000000000004 328.48980000000006 223.02000000000001 149.08000000000001 14.500000000000002
decision_type=2 2 2 2 2 2 2 2 2 2 2 10 10 2 2 2 2 8 2 10 2 2 2
left_child=2 4 7 12 9 8 14 21 -3 -2 -6 -9 -4 15 19 -14 -8 -13 -11 -5 -17 -1 -15
right_child=1 5 3 6 10 -7 16 11 -10 18 -12 17 13 22 -16 20 -18 -19 -20 -21 -22 -23 -24
leaf_value=-2.6661330001704249 0.89325231686947004 3.0434393269026354 -1.4797888122761367 -0.59351768715713726 1.9729287511011147 4.9364812604957642 0.15079014395525356 -1.5072967158522561 3.8430694913524346 1.5723122125256828 2.5546357236182002 -1.8907474357620841 -0.91354825453324751 -0.64897481823284353 -0.17810687169560874 -1.3341455565991045 0.51744312944999538 -2.299155277492992 1.1898326752564619 -0.35217500704471194 -1.1148988897842065 -2.4098089873810573 -0.8666946119367368
leaf_weight=18 24 22 14.999999999999998 24 27 15.999999999999998 25 15.999999999999998 21 24 20 24 28 14.999999999999998 29 22 17 14.999999999999998 15.999999999999998 15.999999999999998 20 30 21
leaf_count=18 24 22 15 24 27 16 25 16 21 24 20 24 28 15 29 22 17 15 16 16 20 30 21
internal_value=0.0895449 2.41239 -1.08939 -0.60413 1.6478 3.84823 -0.112569 -2.18158 3.438 1.22399 2.22295 -1.89409 -1.05482 -0.994 -0.363556 -1.10492 0.299672 -2.05061 1.42103 -0.497578 -1.23123 -2.50864 -0.777046
internal_weight=505 170 335 232 111 59 111 103 43 64 47 55 121 106 69 70 42 39 40 40 42 48 36
internal_count=505 170 335 232 111 59 111 103 43 64 47 55 121 106 69 70 42 39 40 40 42 48 36
is_linear=0
shrinkage=0.03


Tree=21
num_leaves=24
num_cat=0
split_feature=32 32 32 32 32 32 32 32 32 32 32 10 32 71 32 32 9 53 20 32 74 58 32
split_gain=1.44629e+06 194865 185632 45609.1 28154.4 26667.4 17974.7 7648.72 6571.76 4750.61 4294.54 4211.4 3809.46 2048.39 1832.28 1594.7 1403.22 1095.67 855.743 761.076 463.198 301.386 246.657
threshold=318.27000000000004 438.83500000000004 212.46000000000001 268.62500000000006 381.92500000000001 517.97500000000014 178.40500000000003 248.88500000000002 477.83000000000004 295.56500000000005 353.58000000000004 24.500000000000004 415.2050000000001 253.20500000000001 165.31500000000003 234.31000000000003 18.500000000000004 93.582850000000022 13.500000000000002 280.74000000000007 344.05395000000004 95.717850000000013 147.14500000000001
decision_type=2 2 2 2 2 2 2 2 2 2 2 8 2 10 2 2 2 10 2 2 10 10 2
left_child=2 4 6 7 10 8 14 13 -3 19 -2 17 -6 -4 22 18 -12 -8 -15 -5 -9 -17 -1
right_child=1 5 3 9 12 -7 11 20 -10 -11 16 -13 -14 15 -16 21 -18 -19 -20 -21 -22 -23 -24
leaf_value=-2.6088255882896854 0.86651046741033544 2.9523431417244628 -1.209946307108074 -0.21681709840575192 1.9138502581414807 4.7888481838903694 -1.5716368652058539 -0.57026025791921631 3.7280512909877888 0.42382756518768477 1.5704750950129953 -1.2372092377670167 2.4781877349320789 -0.84716829495167167 -2.0777327698234496 -0.81851235424561331 1.2014341515656606 -1.9119954925947134 -1.1207826008860757 0.030226604199954724 -0.36264056200156108 -0.61908321925571974 -2.3758542261786633
leaf_weight=14.999999999999998 24 22 25 21 27 15.999999999999998 15.999999999999998 24 21 26 19 19 20 19 19 15.000000000000002 21 26 26 24 17 14.999999999999998 28
leaf_count=15 24 22 25 21 27 16 16 24 21 26 19 19 20 19 19 15 21 26 26 24 17 15 28
internal_value=0.0868653 2.3402 -1.05679 -0.518658 1.59847 3.73308 -1.98371 -0.830817 3.3351 0.101389 1.18736 -1.61514 2.1564 -0.972373 -2.34471 -0.892408 1.37851 -1.78439 -1.00636 -0.0851398 -0.484757 -0.720044 -2.46009
internal_weight=505 170 335 212 111 59 123 141 43 71 64 61 47 100 62 75 40 42 45 45 41 30 43
internal_count=505 170 335 212 111 59 123 141 43 71 64 61 47 100 62 75 40 42 45 45 41 30 43
is_linear=0
shrinkage=0.03


Tree=22
num_leaves=25
num_cat=0
split_feature=32 32 32 32 32 32 32 32 32 32 32 32 53 41 24 20 72 32 71 33 50 32 0 67
split_gain=1.36102e+06 183381 175003 50493.2 26493.3 25098.7 9425.5 9251.75 6184.13 4470.39 4041.45 3585.19 3198.57 2344.76 1435.08 1335.4 1217.98 749.28 717.06 671.092 428.444 413.613 348.352 286.567
threshold=318.27000000000004 438.83500000000004 204.02500000000001 268.62500000000006 381.92500000000001 517.97500000000014 246.30500000000004 168.84500000000003 477.83000000000004 295.56500000000005 353.58000000000004 415.2050000000001 88.919250000000019 15256.190000000001 6.0500000000000007 17.500000000000004 270.22000000000008 227.35000000000002 313.68000000000001 0.76950000000000018 321.73575000000005 149.08000000000001 6.5000000000000009 0.91265000000000007
decision_type=2 2 2 2 2 2 2 2 2 2 2 2 10 10 2 2 8 2 10 10 10 2 2 10
left_child=2 4 7 6 10 8 13 21 -3 18 -2 -6 -9 -4 -15 -12 -14 22 -5 -8 -21 -1 -16 -19
right_child=1 5 3 9 11 -7 19 12 -10 -11 15 -13 16 14 17 -17 -18 23 -20 20 -22 -23 -24 -25
leaf_value=-2.5094843188679445 0.84056919998042046 2.8639736969616942 -1.3285609510004355 -0.19953933734858886 1.8565408990828254 4.6456303163332349 -0.36195050532798023 -1.4158082502133378 3.6164753647031804 0.41113714143548036 1.4823676775894641 2.4040274858355817 -1.7790426049884127 -0.75707623692254411 -1.0240132663029105 1.1155589829204238 -2.1480783822603313 -1.0025741598539262 0.039780652214880696 -0.71111016675879368 -0.47908187188183349 -2.2679660694293688 -1.2245878346015282 -0.80543593574599959
leaf_weight=18 24 22 18 23 27 15.999999999999998 18 15.999999999999998 21 26 24 20 23 26 21 15.999999999999998 15.999999999999998 16.000000000000004 22 15.000000000000002 14.999999999999998 30 17 14.999999999999998
leaf_count=18 24 22 18 23 27 16 18 16 21 26 24 20 23 26 21 16 16 16 22 15 15 30 17 15
internal_value=0.084266 2.27017 -1.02517 -0.56806 1.55063 3.62139 -0.861892 -2.05397 3.23528 0.0983519 1.15182 2.09185 -1.78402 -1.01157 -0.950822 1.33726 -1.93304 -1.02321 -0.0825909 -0.508816 -0.596136 -2.36108 -1.11527 -0.908684
internal_weight=505 170 335 232 111 59 161 103 43 71 64 47 55 113 95 40 39 69 45 48 30 48 38 31
internal_count=505 170 335 232 111 59 161 103 43 71 64 47 55 113 95 40 39 69 45 48 30 48 38 31
is_linear=0
shrinkage=0.03


Tree=23
num_leaves=25
num_cat=0
split_feature=32 32 32 32 32 32 32 32 32 32 32 32 0 9 58 33 9 32 20 32 77 32 32 50
split_gain=1.28078e+06 172573 164683 47609.6 24930.4 23622.2 8722.09 8256.25 5819.35 4759.42 3803.22 3374.12 2012.53 1974.89 1749.57 1301.97 1295.16 1288.46 1272 1058.94 610.193 528.507 437.004 270.427
threshold=318.27000000000004 438.83500000000004 204.02500000000001 256.90500000000003 381.92500000000001 517.97500000000014 170.76000000000002 287.47000000000008 477.83000000000004 234.31000000000003 353.58000000000004 415.2050000000001 14.500000000000002 13.500000000000002 91.651250000000019 0.78370000000000017 18.500000000000004 303.91000000000003 13.500000000000002 272.56500000000005 293.71430000000004 149.08000000000001 223.02000000000001 329.46425000000005
decision_type=2 2 2 2 2 2 2 2 2 2 2 2 2 2 8 10 2 2 2 2 10 2 2 10
left_child=2 4 6 9 10 8 21 19 -3 12 -2 -6 18 -8 -15 -11 -12 -9 -4 23 -17 -1 -20 -5
right_child=1 5 3 7 11 -7 13 17 -10 15 16 -13 -14 14 -16 20 -18 -19 22 -21 -22 -23 -24 -25
leaf_value=-2.4344082869849375 0.81540454421866215 2.7782493321425248 -0.83012944920177767 -0.49146245443147663 1.8009475911082269 4.506695533823744 -2.0149831027921254 0.13822728250554936 3.5082388189682763 -0.53521939660260764 1.4814407817209798 2.3320865515045393 -1.377937851459085 -1.7754390642252218 -1.3426549665504526 -0.96074000064457665 1.1273845371780937 0.47698987028815526 -1.2104485957829032 -0.13000273729353304 -0.68606693141088126 -2.1825179885194812 -0.98828345090068281 -0.31114760505818873
leaf_weight=18 24 22 28 15.000000000000002 27 15.999999999999998 14.999999999999998 25 21 25 19 20 14.999999999999998 21 15.999999999999998 16.000000000000004 21 17 19 23 14.999999999999998 33 18 15.999999999999998
leaf_count=18 24 22 28 15 27 16 15 25 21 25 19 20 15 21 16 16 21 17 19 23 15 33 18 16
internal_value=0.0817413 2.20223 -0.994491 -0.551068 1.50422 3.51303 -1.9925 -0.0394765 3.13845 -0.912033 1.11735 2.02923 -1.0609 -1.71472 -1.59039 -0.69858 1.29724 0.275785 -0.986713 -0.284736 -0.829201 -2.27375 -1.10389 -0.399096
internal_weight=505 170 335 232 111 59 103 96 43 136 64 47 80 52 37 56 40 42 65 54 31 51 37 31
internal_count=505 170 335 232 111 59 103 96 43 136 64 47 80 52 37 56 40 42 65 54 31 51 37 31
is_linear=0
shrinkage=0.03


Tree=24
num_leaves=24
num_cat=0
split_feature=32 32 32 32 32 32 32 32 32 32 32 32 32 71 32 76 32 20 49 37 50 58 48
split_gain=1.20528e+06 162403 155034 37960.7 23459.6 22268.3 15079.5 6434.22 3985.32 3579.08 3284.93 3175.46 2778.38 1808.85 1496.61 1383.99 1361.81 1231.51 780.356 685.062 461.117 268.421 221.387
threshold=318.27000000000004 438.83500000000004 212.46000000000001 268.62500000000006 381.92500000000001 506.9550000000001 178.40500000000003 248.88500000000002 295.56500000000005 353.58000000000004 477.83000000000004 415.2050000000001 201.90500000000003 253.20500000000001 165.31500000000003 249.45000000000002 234.31000000000003 17.500000000000004 318.78860000000003 0.92875000000000008 328.48980000000006 95.717850000000013 169.83000000000001
decision_type=2 2 2 2 2 2 2 2 2 2 2 2 2 10 2 8 2 2 10 10 10 10 8
left_child=2 4 6 7 9 10 14 13 19 -2 -3 -6 15 -4 22 -8 18 -11 -15 -5 -9 -18 -1
right_child=1 5 3 8 11 -7 12 20 -10 17 -12 -13 -14 16 -16 -17 21 -19 -20 -21 -22 -23 -24
leaf_value=-2.378119215920707 0.7909932618973905 2.6950908365055004 -1.1106716283923852 -0.18745584713693961 1.7470190367636971 4.1708924315575837 -1.4778032917676418 -0.52548568237843973 0.38805564072447868 1.3976131405899779 3.3115819592650149 2.2622984020965649 -1.2072828440138679 -1.0170489726347081 -1.900730624461737 -1.8676525949877361 -0.74592341527590289 1.0458331512736383 -0.75161289740867265 0.046921612732200899 -0.31884779068731489 -0.55832190314004571 -2.1648602122872682
leaf_weight=15.999999999999998 24 22 25 24 27 22 23 24 26 24 14.999999999999998 20 23 28 19 14.999999999999998 15.000000000000002 15.999999999999998 17 21 17 14.999999999999998 27
leaf_count=16 24 22 25 24 27 22 23 24 26 24 15 20 23 28 19 15 15 16 17 21 17 15 27
internal_value=0.0792935 2.13633 -0.964732 -0.472945 1.45919 3.40791 -1.81182 -0.757729 0.0927268 1.08391 2.94919 1.96849 -1.47424 -0.887561 -2.14247 -1.63398 -0.81248 1.25842 -0.917752 -0.0781157 -0.440336 -0.653258 -2.24692
internal_weight=505 170 335 212 111 59 123 141 71 64 37 47 61 100 62 38 75 40 45 45 41 30 43
internal_count=505 170 335 212 111 59 123 141 71 64 37 47 61 100 62 38 75 40 45 45 41 30 43
is_linear=0
shrinkage=0.03


Tree=25
num_leaves=27
num_cat=0
split_feature=32 32 32 32 32 32 32 32 32 32 32 70 68 32 49 24 26 65 50 55 40 59 73 9 55 52
split_gain=1.10141e+06 150248 122473 35789.9 21766.4 14703.9 12977 5678.74 5510.8 5333.97 2254.53 2138.25 1305.32 1202.87 1026.43 894.732 786.746 761.988 682.994 636.227 523.105 522.035 505.467 458.832 370.256 366.403
threshold=329.19500000000005 213.23500000000004 445.79500000000002 266.11500000000007 409.42000000000007 182.68000000000004 499.38000000000005 237.08000000000001 293.48000000000008 363.8250000000001 164.46000000000004 0.85665000000000013 0.78910000000000002 251.47500000000002 332.63715000000008 6.3500000000000005 31.500000000000004 -14.508599999999999 328.48980000000006 97.420000000000016 29435.855000000003 80.390000000000001 234.41425000000001 23.500000000000004 84.500000000000014 100.34500000000001
decision_type=2 2 2 2 2 2 2 2 2 2 2 8 8 2 10 2 2 10 10 10 10 10 10 2 10 10
left_child=1 5 4 7 9 10 -4 14 20 19 24 12 -7 15 21 -9 -6 -10 -15 -2 -5 -3 -12 -11 -1 -23
right_child=2 3 6 8 16 11 -8 13 17 23 22 -13 -14 18 -16 -17 -18 -19 -20 -21 -22 25 -24 -25 -26 -27
leaf_value=-2.2544295204756502 0.75607105994937396 -0.83947445200982485 2.8351506947464307 -0.28838426055195171 1.9618819395789149 -1.3380690060612743 3.8244013612235652 -0.50565435944316539 0.23129286488275611 1.5285531569871882 -1.9608714446514548 -1.1456915070658662 -1.7407352140813175 -0.535131990923853 -0.70463383544719094 -0.80759718190462737 2.2892541060909148 0.52198237349424637 -0.27716836642585319 1.0421357098449504 -0.070277051249529723 -0.95727171652929444 -1.6850226920595459 1.3020209196730004 -2.0208188918686969 -1.1594958200216954
leaf_weight=25 15.000000000000002 15.999999999999998 26 15.999999999999998 18 17 24 15.999999999999998 18 23 14.999999999999998 24 14.999999999999998 25 14.999999999999998 21 17 14.999999999999998 14.999999999999998 14.999999999999998 26 20 18 18 18 18
leaf_count=25 15 16 26 16 18 17 24 16 18 23 15 24 15 25 15 21 17 15 15 15 26 20 18 18 18 18
internal_value=-0.00922767 -0.93693 2.08961 -0.458411 1.51107 -1.7376 3.31337 -0.731962 0.0742157 1.20763 -2.01025 -1.36608 -1.52929 -0.554142 -0.929833 -0.677926 2.12397 0.36406 -0.4389 0.900649 -0.153645 -0.991651 -1.81323 1.43084 -2.15913 -1.0545
internal_weight=509 353 156 221 106 132 50 146 75 71 76 56 32 77 69 37 35 33 40 30 42 54 33 41 43 38
internal_count=509 353 156 221 106 132 50 146 75 71 76 56 32 77 69 37 35 33 40 30 42 54 33 41 43 38
is_linear=0
shrinkage=0.03


Tree=26
num_leaves=28
num_cat=0
split_feature=32 32 32 32 32 32 32 32 32 32 32 39 70 68 68 32 72 49 24 50 40 66 73 51 48 32 52
split_gain=1.03648e+06 141391 115314 33680.7 21996.7 13836.6 11021.8 5344.18 5186.14 5018.86 2120.82 2038.87 2012.57 1277.88 1228.39 1131.95 982.92 965.771 841.844 642.608 492.281 483.466 475.655 443.187 441.715 343.726 325.954
threshold=329.19500000000005 213.23500000000004 452.49500000000006 266.11500000000007 409.42000000000007 182.68000000000004 506.9550000000001 237.08000000000001 293.48000000000008 363.8250000000001 164.46000000000004 65710.570000000022 0.85665000000000013 0.9507500000000001 0.78910000000000002 251.47500000000002 337.3250000000001 332.63715000000008 6.3500000000000005 328.48980000000006 29435.855000000003 -17.340549999999997 234.41425000000001 88.580000000000027 385.43000000000006 149.08000000000001 100.34500000000001
decision_type=2 2 2 2 2 2 2 2 2 2 2 10 8 10 8 2 10 10 2 10 10 8 10 10 10 2 10
left_child=1 5 4 7 9 10 11 17 20 21 25 -4 14 -6 -7 18 -10 23 -9 -17 -5 -2 -12 -3 -11 -1 -25
right_child=2 3 6 8 13 12 -8 15 16 24 22 -13 -14 -15 -16 19 -18 -19 -20 -21 -22 -23 -24 26 -26 -27 -28
leaf_value=-2.2441091427216895 0.99795259976307804 -0.8424832984277435 2.6067963873270728 -0.27975968403236884 1.914064087121665 -1.29804464748528 3.8485858027492528 -0.49053199304598505 0.51186036314083327 1.302636995370466 -1.9022407085634148 3.1547336474447154 -1.1113922101692946 2.305630831290717 -1.6886866481438823 -0.51911007110230223 0.18340569753513158 -0.68356503432771287 -0.78342680743074766 -0.26888093891333897 -0.068172786219792725 0.74648719980867173 -1.6346120383138472 -0.92197893659645136 1.5311057319514378 -2.0104575531495446 -1.1248072941745748
leaf_weight=14.999999999999998 14.999999999999998 20 15.000000000000002 15.999999999999998 22 17 18 15.999999999999998 17 26 14.999999999999998 14.999999999999998 24 14.999999999999998 14.999999999999998 25 15.999999999999998 14.999999999999998 21 14.999999999999998 26 15.000000000000002 18 15.999999999999998 14.999999999999998 28 18
leaf_count=15 15 20 15 16 22 17 18 16 17 26 15 15 24 15 15 25 16 15 21 15 26 15 18 16 15 28 18
internal_value=-0.00895726 -0.908899 2.02708 -0.444697 1.48212 -1.68561 3.25039 -0.710065 0.0719965 1.1715 -1.9501 2.88561 -1.32522 2.07575 -1.48355 -0.537561 0.353173 -0.90202 -0.657643 -0.425764 -0.14905 0.873721 -1.759 -0.961986 1.38802 -2.09451 -1.0309
internal_weight=509 353 156 221 108 132 48 146 75 71 76 30 56 37 32 77 33 69 37 40 42 30 33 54 41 43 34
internal_count=509 353 156 221 108 132 48 146 75 71 76 30 56 37 32 77 33 69 37 40 42 30 33 54 41 43 34
is_linear=0
shrinkage=0.03


Tree=27
num_leaves=25
num_cat=0
split_feature=45 46 31 49 71 31 43 5 11 50 48 43 45 73 46 77 56 38 31 49 53 28 71 58
split_gain=711996 126230 101204 58124 45194.9 18526.2 14090.2 12667.8 11426.6 11172 9075.97 7725.83 7345.72 5318.84 4774.45 4134.49 2868.29 2432.66 1922.54 1548.77 1325.66 1133.43 1088.88 111.411
threshold=365.13500000000005 200.90500000000003 159.50000000000003 364.67140000000006 490.94000000000005 164.50000000000003 53169.060000000005 33.500000000000007 37.750000000000007 361.68215000000004 265.56000000000006 33874.867150000013 197.85500000000005 310.85855000000004 398.50000000000006 319.60930000000008 92.25500000000001 0.90540000000000009 115.50000000000001 320.48500000000007 88.701450000000008 12.500000000000002 272.49500000000006 85.951250000000016
decision_type=10 10 2 10 10 2 10 2 2 10 8 10 8 10 10 10 10 10 2 10 10 2 10 10
left_child=1 8 -2 5 7 13 -6 14 21 -5 -7 -12 -10 18 -4 22 -15 -17 -3 -18 -20 23 -13 -1
right_child=2 3 4 9 6 10 -8 -9 12 -11 11 15 -14 16 -16 17 19 -19 20 -21 -22 -23 -24 -25
leaf_value=-1.9246100959092556 -0.31632897971409507 -1.335262008109362 1.0016428054757669 1.2403494662393162 2.2743320615848379 -0.76731164725430046 3.2961611458784086 2.1576810751126043 -1.5734030244045298 0.22182280744339675 0.46278057692850938 -0.68694749154125723 -0.71614738546732637 -0.31206905577981897 1.6027903789865772 0.23173686374013669 -0.97257298900149869 -0.26384737897692173 -1.0919564388217222 -0.55559691208937623 -0.75195763633138213 -1.6748097913510331 -0.36649079507027443 -2.098135799732376
leaf_weight=25 18 14.999999999999998 22 18 25 29 25 26 23 21 14.999999999999998 14.999999999999998 14.999999999999998 18 27 15.999999999999998 18 20 23 14.999999999999998 20 15.999999999999998 27 17
leaf_count=25 18 15 22 18 25 29 25 26 23 21 15 15 15 18 27 16 18 20 23 15 20 16 27 17
internal_value=-0.00868535 -0.710033 1.78598 -0.37767 2.08873 -0.558539 2.78806 1.62095 -1.64411 0.692937 -0.304383 -0.159678 -1.23644 -0.842724 1.33421 -0.279621 -0.618071 -0.0435302 -1.03954 -0.784211 -0.934909 -1.90988 -0.481656 -1.99729
internal_weight=509 366 143 270 125 231 50 75 96 39 122 93 38 109 49 78 51 36 58 33 43 58 42 42
internal_count=509 366 143 270 125 231 50 75 96 39 122 93 38 109 49 78 51 36 58 33 43 58 42 42
is_linear=0
shrinkage=0.03


Tree=28
num_leaves=29
num_cat=0
split_feature=45 46 71 49 29 21 26 48 74 11 34 48 45 64 46 25 10 14 49 43 64 23 30 30 25 63 14 38
split_gain=670006 118788 65069 54697.9 37714 17716 14116.2 13167.6 12539.8 10753 8927.79 8198.65 6911.97 6537.73 5564.66 5365.75 4502.58 3165.18 2537.63 2532.98 2064.43 1525.52 1129.3 1122.56 958.048 877.611 591.595 349.555
threshold=365.13500000000005 200.90500000000003 498.21500000000009 364.67140000000006 5.5000000000000009 7.5500000000000007 39.500000000000007 431.79500000000002 380.4464000000001 37.750000000000007 0.94425000000000014 236.62000000000003 197.85500000000005 18.340000000000003 301.48000000000008 8.0500000000000025 12.500000000000002 1.0000000180025095e-35 306.76000000000005 45336.988600000004 -7.9549999999999992 6.4500000000000011 2.5000000000000004 2.5000000000000004 7.9500000000000011 -31.659999999999997 0.010000000000000002 0.7914500000000001
decision_type=10 10 10 10 2 2 2 10 10 2 10 8 8 10 10 2 10 2 10 10 10 2 2 2 2 10 2 10
left_child=1 9 4 6 -2 -4 11 10 -5 23 15 -3 -11 16 19 -6 17 25 22 -8 -12 -19 -18 27 -20 -13 -24 -1
right_child=2 3 5 8 7 -7 14 -9 -10 12 20 13 -14 -15 -16 -17 18 21 24 -21 -22 -23 26 -25 -26 -27 -28 -29
leaf_value=-2.0367208665621748 -0.086365007229421628 -1.3364385748067962 2.205054685215261 1.2829428272023577 1.3050695464749746 3.4452528886990814 -0.52318272987803316 2.3540080793513805 0.19836577519267592 -1.5263033279783038 0.73220792789395839 -0.43474038350621724 -0.69473434910821741 -0.0065242110534363806 0.38709763132456521 2.0377766214205524 -1.1302357068399744 -0.47512358579920755 -0.79908377424578791 -0.007613756078422268 1.228085422872383 -0.90629113320892418 -0.96423364214722862 -1.6381675084079732 -0.49354577306552971 -0.12366710814082391 -0.68921610974790248 -1.8065993464104482
leaf_weight=24 14.999999999999998 14.999999999999998 28 17 18 17 20 14.999999999999998 22 23 15.000000000000002 14.999999999999998 14.999999999999998 14.999999999999998 14.999999999999998 19 19 15.000000000000002 15.999999999999998 14.999999999999998 15.999999999999998 14.999999999999998 15.000000000000002 18 23 18 14.999999999999998 15.999999999999998
leaf_count=24 15 15 28 17 18 17 20 15 22 23 15 15 15 15 15 19 19 15 16 15 16 15 15 18 23 18 15 16
internal_value=-0.00843392 -0.688787 1.73251 -0.366368 1.2977 2.67691 -0.541826 1.54775 0.672206 -1.59491 1.36828 -0.665059 -1.19944 -0.603998 -0.0954762 1.68361 -0.663318 -0.46899 -0.802078 -0.302593 0.989758 -0.691907 -0.946349 -1.85273 -0.619796 -0.265553 -0.82815 -1.94708
internal_weight=509 366 143 270 98 45 231 83 39 96 68 181 38 166 50 37 151 63 88 35 31 30 49 58 39 33 30 40
internal_count=509 366 143 270 98 45 231 83 39 96 68 181 38 166 50 37 151 63 88 35 31 30 49 58 39 33 30 40
is_linear=0
shrinkage=0.03


Tree=29
num_leaves=26
num_cat=0
split_feature=45 46 31 49 77 25 31 71 11 50 48 45 62 73 7 46 39 10 72 46 31 53 30 56 38
split_gain=630515 111784 92002.1 51474.8 40660.2 21745.7 16746.3 10577.9 10119.1 9871.41 8367.41 6503.84 5228.09 4754.78 3890.29 3699.76 2847.91 2373.22 2217.69 2192.97 1826.75 1209.37 1056.08 1010.52 328.478
threshold=365.13500000000005 200.90500000000003 159.50000000000003 364.67140000000006 308.37145000000004 8.3500000000000032 164.50000000000003 498.21500000000009 37.750000000000007 361.68215000000004 288.29500000000002 197.85500000000005 92.410150000000002 310.85855000000004 436.50000000000006 315.88500000000005 25294.655000000002 17.500000000000004 257.71000000000009 402.57500000000005 115.50000000000001 88.701450000000008 2.5000000000000004 96.675000000000011 0.7914500000000001
decision_type=10 10 2 10 10 2 2 10 2 10 8 8 10 10 2 10 10 10 10 10 2 10 2 10 10
left_child=1 8 -2 6 19 7 13 -6 22 -5 18 -10 15 20 -9 17 -15 -12 -8 -4 -3 -22 24 -18 -1
right_child=2 3 4 9 5 -7 10 14 11 -11 12 -13 -14 16 -16 -17 23 -19 -20 -21 21 -23 -24 -25 -26
leaf_value=-1.9757462696226122 -0.32372977620016502 -1.2699172400794552 0.97349867028785764 1.1666630185409925 1.5129561277790855 3.0566231357764839 -0.91758340532534577 2.0071783871517006 -1.4806135535912504 0.20924709000666744 0.12098797599880062 -0.67396153982295537 -0.50941155193614307 -0.25062900906411284 2.6839132301129203 0.43790182158796492 -0.59214010350424751 -0.3099371446294249 -0.45567957516088919 1.415327058130381 -1.0299705991931178 -0.70537953345852888 -1.5891586322731588 -0.92256728270521182 -1.7525702132465681
leaf_weight=24 18 14.999999999999998 20 18 23 27 15.999999999999998 15.999999999999998 23 21 22 14.999999999999998 22 15.999999999999998 17 14.999999999999998 20 24 23 22 23 20 18 14.999999999999998 15.999999999999998
leaf_count=24 18 15 20 18 23 27 16 16 23 21 22 15 22 16 17 15 20 24 23 22 23 20 18 15 16
internal_value=-0.00818309 -0.668181 1.68067 -0.355412 1.96933 2.35443 -0.525622 2.01343 -1.54718 0.652098 -0.283986 -1.16354 -0.113508 -0.79581 2.35938 0.0295531 -0.583401 -0.103902 -0.646149 1.20638 -0.981894 -0.880027 -1.79729 -0.734909 -1.88881
internal_weight=509 366 143 270 125 83 231 56 96 39 122 38 83 109 33 61 51 46 39 42 58 43 58 35 40
internal_count=509 366 143 270 125 83 231 56 96 39 122 38 83 109 33 61 51 46 39 42 58 43 58 35 40
is_linear=0
shrinkage=0.03


Tree=30
num_leaves=28
num_cat=0
split_feature=32 32 32 32 32 32 32 32 32 10 66 32 66 37 70 18 51 30 32 33 32 32 32 32 40 61 27
split_gain=818214 125679 106290 32924.5 20406.1 16453.2 8952.09 4664.29 4061.52 3425.05 2714.34 2211.22 1655.16 1438.11 1414.09 1292.41 1158.55 1063.95 921.564 745.135 740.683 686.774 529.117 463.783 446.797 417.404 144.667
threshold=307.10500000000008 424.19500000000005 213.23500000000004 506.9550000000001 251.47500000000002 365.24000000000007 173.96500000000003 278.95500000000004 473.59500000000008 21.500000000000004 -17.102499999999996 342.23500000000007 -23.916049999999995 0.76740000000000008 0.9195000000000001 10.950000000000001 90.850000000000009 4.5000000000000009 388.37500000000006 0.76950000000000018 150.19000000000003 227.35000000000002 287.47000000000008 265.17500000000001 12767.855000000001 89.500700000000009 22.500000000000004
decision_type=2 2 2 2 2 2 2 2 2 8 10 2 10 10 10 2 10 2 2 10 2 2 2 2 10 10 2
left_child=2 5 6 8 13 11 20 19 14 12 -7 16 25 -4 -3 17 -2 -15 -12 -6 -1 -17 -9 -21 -22 -8 -24
right_child=1 3 4 -5 7 10 9 22 -10 -11 18 -13 -14 15 -16 21 -18 -19 -20 23 24 -23 26 -25 -26 -27 -28
leaf_value=-1.9803820151947111 0.71193331237151236 1.915588726133812 -0.47558245137473126 3.8943155850128477 -0.20126465870133997 1.6358253866266015 -1.2140928525211407 -0.07541762085604177 2.7199019584782493 -1.0254335569498059 1.0308088306177441 0.90663558506909003 -1.7093787384033203 -0.78970922047506553 2.3181853242065764 -1.045990749792379 0.371127141048676 -0.47865019017999821 1.3617152449532339 -0.52511505397285996 -1.857451353101087 -0.80233245810214915 0.1876447033882141 -0.29955736163446667 -1.6254053410916318 -1.4526940618876207 0.061092633782109336
leaf_weight=17 15.999999999999998 19 15.999999999999998 14.999999999999998 22 23 18 17 14.999999999999998 27 15.999999999999998 21 15.999999999999998 25 18 18 21 17 17 19 17 29 18 14.999999999999998 26 14.999999999999998 14.999999999999998
leaf_count=17 16 19 16 15 22 23 18 17 15 27 16 21 16 25 18 18 21 17 17 19 17 29 18 15 26 15 15
internal_value=-0.0127932 1.62211 -0.865698 2.653 -0.443982 1.01533 -1.51956 -0.150218 2.2915 -1.30119 1.38217 0.660231 -1.45191 -0.740316 2.11435 -0.787598 0.519305 -0.664559 1.20312 -0.338139 -1.79484 -0.896693 0.0603509 -0.426234 -1.71923 -1.32463 0.130346
internal_weight=528 181 347 67 211 114 136 106 52 76 56 58 49 105 37 89 37 42 33 56 60 47 50 34 43 33 33
internal_count=528 181 347 67 211 114 136 106 52 76 56 58 49 105 37 89 37 42 33 56 60 47 50 34 43 33 33
is_linear=0
shrinkage=0.03


Tree=31
num_leaves=27
num_cat=0
split_feature=32 32 32 32 32 32 32 32 32 10 66 32 32 70 68 51 32 18 33 58 32 32 32 53 27 38
split_gain=769991 118276 100025 30985.8 19202.8 15483.2 8428.48 4389.42 3822.59 2921.75 2553.72 2080.69 1360.09 1330.61 1281.68 1090.29 867.107 782.706 701.219 558.985 497.948 496.016 436.378 403.737 136.126 69.2506
threshold=307.10500000000008 424.19500000000005 213.23500000000004 506.9550000000001 251.47500000000002 365.24000000000007 170.76000000000002 278.95500000000004 473.59500000000008 21.500000000000004 -17.102499999999996 342.23500000000007 237.08000000000001 0.9195000000000001 0.85345000000000015 90.850000000000009 388.37500000000006 11.350000000000003 0.76950000000000018 95.748550000000009 287.47000000000008 150.19000000000003 265.17500000000001 93.445000000000007 22.500000000000004 0.77205000000000013
decision_type=2 2 2 2 2 2 2 2 2 8 10 2 2 10 8 10 2 2 10 10 2 2 2 10 2 10
left_child=2 5 6 8 12 11 21 18 13 14 -7 15 17 -3 -8 -2 -12 -4 -6 -14 -9 -1 -20 -19 -22 -23
right_child=1 3 4 -5 7 10 9 20 -10 -11 16 -13 19 -15 -16 -17 -18 23 22 -21 24 25 -24 -25 -26 -27
leaf_value=-1.9211447447835526 0.69064184474053769 1.8582719024898497 -0.67795110049732221 3.7778742702141948 -0.19524041217200608 1.586857076053247 -1.2619032091574396 -0.073161727752853345 2.6385759839029403 -1.0339535352818527 0.99998092152247919 0.87950112897823085 -0.66642837726648529 2.2488324223991247 -1.56975598018595 0.36001977262474294 1.3209835945196515 -0.76970959280138807 -0.50940295572355965 -0.42910742021478288 0.18203095394488517 -1.760173103922323 -0.29060049633647111 -0.97871280229010549 0.059265943608212697 -1.6090202295745224
leaf_weight=17 15.999999999999998 19 28 14.999999999999998 22 23 27 17 14.999999999999998 29 15.999999999999998 21 24 18 26 21 17 15.999999999999998 19 14.999999999999998 18 20 14.999999999999998 22 14.999999999999998 17
leaf_count=17 16 19 28 15 22 23 27 17 15 29 16 21 24 18 26 21 17 16 19 15 18 20 15 22 15 17
internal_value=-0.0124053 1.57359 -0.839795 2.57366 -0.430695 0.984952 -1.4741 -0.145724 2.22296 -1.28051 1.34081 0.640477 -0.718159 2.05109 -1.41429 0.503771 1.16714 -0.801726 -0.328023 -0.575856 0.0585455 -1.76658 -0.413485 -0.891878 0.126448 -1.69303
internal_weight=528 181 347 67 211 114 136 106 52 82 56 58 105 37 53 37 33 66 56 39 50 54 34 38 33 37
internal_count=528 181 347 67 211 114 136 106 52 82 56 58 105 37 53 37 33 66 56 39 50 54 34 38 33 37
is_linear=0
shrinkage=0.03


Tree=32
num_leaves=28
num_cat=0
split_feature=32 32 32 32 32 32 32 32 32 10 66 32 66 37 70 18 51 30 32 33 32 32 32 74 32 40 27
split_gain=724607 111308 94126.9 29161.3 18070.4 14570.4 7969.39 4130.75 3597.71 3049.3 2402.61 1957.86 1525.45 1313.73 1252.05 1159.1 1026.06 997.197 815.864 659.891 649.666 628.287 468.616 445.45 410.59 404.947 128.088
threshold=307.10500000000008 424.19500000000005 213.23500000000004 506.9550000000001 251.47500000000002 365.24000000000007 173.96500000000003 278.95500000000004 473.59500000000008 21.500000000000004 -17.102499999999996 342.23500000000007 -23.916049999999995 0.76740000000000008 0.9195000000000001 10.950000000000001 90.850000000000009 4.5000000000000009 388.37500000000006 0.76950000000000018 150.19000000000003 227.35000000000002 287.47000000000008 238.14445000000003 265.17500000000001 12767.855000000001 22.500000000000004
decision_type=2 2 2 2 2 2 2 2 2 8 10 2 10 10 10 2 10 2 2 10 2 2 2 10 2 10 2
left_child=2 5 6 8 13 11 20 19 14 12 -7 16 23 -4 -3 17 -2 -15 -12 -6 -1 -17 -9 -8 -21 -22 -24
right_child=1 3 4 -5 7 10 9 22 -10 -11 18 -13 -14 15 -16 21 -18 -19 -20 24 25 -23 26 -25 -26 -27 -28
leaf_value=-1.8636794493554973 0.66998712628801282 1.8026700826329509 -0.44371872073022001 3.6649144838656298 -0.18939647887028802 1.5393546171043544 -1.366575735216943 -0.070973315148059921 2.559681707743394 -0.96376613861862259 0.97007494632328783 0.85317876439762796 -1.6130374252461941 -0.74644612089602536 2.1815543249241203 -0.98784951376452679 0.34924483518985555 -0.44548909676739196 1.2814703136455277 -0.49416097310584362 -1.7500387586666342 -0.75498806518449635 0.17658515239356298 -1.125142660504562 -0.28191144417290664 -1.529728828181232 0.05749387338509987
leaf_weight=17 15.999999999999998 19 15.999999999999998 14.999999999999998 22 23 15.999999999999998 17 14.999999999999998 27 15.999999999999998 21 15.999999999999998 25 18 18 21 17 17 19 17 29 18 17 14.999999999999998 26 14.999999999999998
leaf_count=17 16 19 16 15 22 23 16 17 15 27 16 21 16 25 18 18 21 17 17 19 17 29 18 17 15 26 15
internal_value=-0.0120252 1.52652 -0.814661 2.49668 -0.417806 0.955482 -1.42998 -0.141364 2.15647 -1.22394 1.30069 0.621315 -1.36615 -0.696667 1.98973 -0.741849 0.488702 -0.62534 1.13223 -0.318211 -1.6897 -0.845156 0.0567942 -1.24414 -0.401117 -1.61879 0.122667
internal_weight=528 181 347 67 211 114 136 106 52 76 56 58 49 105 37 89 37 42 33 56 60 47 50 33 34 43 33
internal_count=528 181 347 67 211 114 136 106 52 76 56 58 49 105 37 89 37 42 33 56 60 47 50 33 34 43 33
is_linear=0
shrinkage=0.03


Tree=33
num_leaves=29
num_cat=0
split_feature=32 32 32 32 32 32 32 32 32 53 31 66 32 37 70 75 36 52 32 27 33 32 61 32 32 32 40 56
split_gain=681902 104751 88579 27444.2 17004.8 13711.4 7499.2 3887.33 3386.04 2885.44 2831.28 2260.44 1842.28 1236.1 1178.12 1105.7 1072.27 1009.45 767.647 751.428 620.997 611.396 573.997 469.612 441.011 386.325 381.16 122.338
threshold=307.10500000000008 424.19500000000005 213.23500000000004 506.9550000000001 251.47500000000002 365.24000000000007 173.96500000000003 278.95500000000004 473.59500000000008 96.821450000000013 135.50000000000003 -17.102499999999996 342.23500000000007 0.76740000000000008 0.9195000000000001 221.36500000000004 0.74220000000000008 96.015000000000015 388.37500000000006 14.500000000000002 0.76950000000000018 150.19000000000003 84.127850000000009 227.89000000000001 287.47000000000008 265.17500000000001 12767.855000000001 93.265000000000015
decision_type=2 2 2 2 2 2 2 2 2 10 2 10 2 10 10 10 10 10 2 2 10 2 10 2 2 2 10 10
left_child=2 5 6 8 13 12 21 20 14 19 -11 -7 17 -4 -3 -15 23 -2 -13 22 -6 -1 -8 -17 -9 -22 -23 -26
right_child=1 3 4 -5 7 11 9 24 -10 10 -12 18 -14 15 -16 16 -18 -19 -20 -21 25 26 -24 -25 27 -27 -28 -29
leaf_value=-1.8079330296670237 0.6035831428060725 1.7487319093238649 -0.43044862504317377 3.5553323166552571 -0.18372747153651953 1.493274157311032 -0.98505795032082966 -0.068850357829650474 2.4831463592630683 -1.7129090531561457 -1.1191613407071643 0.94106333937600384 0.82764419030123826 -0.87329343677592974 2.1162889737369608 -0.86843794420312004 -0.45594088967390883 0.28267580589978797 1.2431389423269681 -0.8615067449908389 -0.47937505631934935 -1.697691583269852 -1.2634681559717933 -0.65086371650622588 0.17500166355864391 -0.27348219808153929 -1.4839250610703014 0.059042878318055762
leaf_weight=17 22 19 15.999999999999998 14.999999999999998 22 23 15.000000000000002 17 14.999999999999998 15.000000000000002 14.999999999999998 15.999999999999998 21 29 18 14.999999999999998 19 14.999999999999998 17 15.999999999999998 19 17 14.999999999999998 26 17 14.999999999999998 26 15.999999999999998
leaf_count=17 22 19 16 15 22 23 15 17 15 15 15 16 21 29 18 15 19 15 17 16 19 17 15 26 17 15 26 16
internal_value=-0.0116605 1.48086 -0.790285 2.42201 -0.405303 0.926894 -1.38719 -0.137135 2.09196 -1.18733 -1.41844 1.26178 0.602725 -0.675817 1.9302 -0.719644 -0.644691 0.474083 1.09837 -1.03519 -0.308692 -1.63914 -1.12618 -0.731461 0.0550953 -0.389119 -1.57035 0.118999
internal_weight=528 181 347 67 211 114 136 106 52 76 30 56 58 105 37 89 60 37 33 46 56 60 30 41 50 34 43 33
internal_count=528 181 347 67 211 114 136 106 52 76 30 56 58 105 37 89 60 37 33 46 56 60 30 41 50 34 43 33
is_linear=0
shrinkage=0.03


Tree=34
num_leaves=28
num_cat=0
split_feature=32 32 32 32 32 32 32 32 32 10 32 32 31 53 32 57 31 18 32 33 52 5 56 73 32 32 55
split_gain=641725 96582.9 84880.4 25828.2 16695.8 12331.9 7056.06 3969.7 3186.83 2743.01 2189.09 1628.77 1240.58 1972.04 1185.37 1146.97 909.378 677 587.993 584.396 521.177 490.329 454.746 385.403 363.493 220.52 200.695
threshold=309.9550000000001 424.19500000000005 213.23500000000004 506.9550000000001 251.47500000000002 365.24000000000007 173.96500000000003 278.95500000000004 473.59500000000008 21.500000000000004 397.07500000000005 342.23500000000007 136.50000000000003 96.821450000000013 237.08000000000001 98.445000000000007 179.50000000000003 11.350000000000003 164.46000000000004 0.76950000000000018 85.720000000000013 36.500000000000007 95.095000000000013 325.07640000000009 265.17500000000001 288.60500000000008 84.500000000000014
decision_type=2 2 2 2 2 2 2 2 2 8 2 2 2 10 2 10 2 2 2 10 10 2 8 10 2 2 10
left_child=2 5 6 8 14 11 18 19 15 12 23 16 13 -8 17 -3 -2 -4 26 -6 -16 25 -19 -7 -21 -9 -1
right_child=1 3 4 -5 7 10 9 21 -10 -11 -12 -13 -14 -15 20 -17 -18 22 -20 24 -22 -23 -24 -25 -26 -27 -28
leaf_value=-1.7297155025743891 0.64367569473494712 1.7031466465519551 -0.61854187608402689 3.4490267259971645 -0.17822814208309665 0.93899349533508847 -1.1661856176318224 -0.082862639173716807 2.408899448939732 -0.90511017973013153 1.4356625873314406 0.80287384504377135 -1.0498909602371165 -1.6360205163688302 -0.38141033562710908 2.0659645783097162 0.33282267707244412 -0.9084801073139217 -1.4221889135634793 -0.46503155430470861 -0.61013252060031686 0.20878254510239508 -0.6895827519782235 1.1673947582054773 -0.26530499100289073 0.066088072272385057 -1.5555820483110083
leaf_weight=24 14.999999999999998 20 28 14.999999999999998 22 16.000000000000004 18 14.999999999999998 14.999999999999998 27 25 21 14.999999999999998 15.999999999999998 14.999999999999998 17 20 22 17 19 24 14.999999999999998 15.999999999999998 14.999999999999998 14.999999999999998 22 19
leaf_count=24 15 20 28 15 22 16 18 15 15 27 25 21 15 16 15 17 20 22 17 19 24 15 16 15 15 22 19
internal_value=-0.0113101 1.44883 -0.76031 2.34958 -0.386304 0.909165 -1.3457 -0.124302 2.02939 -1.15183 1.22402 0.593468 -1.28668 -1.38941 -0.655591 1.87245 0.466816 -0.733579 -1.59009 -0.299458 -0.522802 0.0644061 -0.817379 1.05126 -0.37748 0.00563183 -1.6547
internal_weight=528 179 349 67 213 112 136 108 52 76 56 56 49 34 105 37 35 66 60 56 39 52 38 31 34 37 43
internal_count=528 179 349 67 213 112 136 108 52 76 56 56 49 34 105 37 35 66 60 56 39 52 38 31 34 37 43
is_linear=0
shrinkage=0.03


Tree=35
num_leaves=26
num_cat=0
split_feature=32 32 32 32 32 32 32 21 32 66 10 32 66 32 70 32 7 32 32 32 77 58 49 32 75
split_gain=596131 84019.9 75760.2 19308 12509.2 8713.17 7589.49 4312.58 3674.51 2568.79 2131.55 1827.87 1442.41 1332.48 1239.83 873.55 803.92 710.221 575.86 566.614 529.946 411.872 369.558 350.782 146.413
threshold=318.27000000000004 213.23500000000004 432.61500000000007 268.62500000000006 477.83000000000004 367.50500000000005 182.68000000000004 7.5500000000000007 234.31000000000003 -17.125699999999998 22.500000000000004 307.10500000000008 -23.916049999999995 163.30000000000004 0.87895000000000012 247.58500000000001 436.50000000000006 287.47000000000008 223.02000000000001 394.66500000000002 197.84500000000003 95.803400000000011 315.57215000000002 149.08000000000001 337.05000000000007
decision_type=2 2 2 2 2 2 2 2 2 10 8 2 10 2 10 2 2 2 2 2 10 10 10 2 10
left_child=1 6 5 8 -4 14 13 -6 16 -7 12 17 -8 23 -2 21 -3 -5 -18 -11 -15 -10 -17 -1 -19
right_child=2 3 4 11 7 9 10 -9 15 19 -12 -13 -14 20 -16 22 18 24 -20 -21 -22 -23 -24 -25 -26
leaf_value=-1.758630595159689 0.86648165301741831 -0.54367591144882621 1.8622675515241163 -0.14224251250213479 2.3371148129079824 1.5313987666418016 -1.0130713052824725 3.0578123867214546 -0.61687342157169256 0.9350430090007591 -0.8193705314048717 0.33752522633321258 -1.4101149892361364 -1.4763103527617243 0.52776132612905668 -0.41635512086445697 -0.90804620236766587 0.0027286869566017216 -0.68666931102694762 1.1903543502191467 -1.2087207310065082 -0.41291779504758169 -0.24626187785142131 -1.543869858196075 0.13318601243123659
leaf_weight=14.999999999999998 15.999999999999998 15.999999999999998 28 28 14.999999999999998 18 19 18 22 14.999999999999998 23 14.999999999999998 15.999999999999998 17 26 25 22 16.000000000000004 23 21 14.999999999999998 15.999999999999998 22 28 14.999999999999998
leaf_count=15 16 16 28 28 15 18 19 18 22 15 23 15 16 17 26 25 22 16 23 21 15 16 22 28 15
internal_value=-0.02834 -0.712355 1.50933 -0.352344 2.3359 0.983158 -1.30749 2.7343 -0.552375 1.23541 -1.04773 0.0423983 -1.19637 -1.50753 0.65771 -0.424382 -0.730207 -0.0328308 -0.795819 1.08546 -1.35301 -0.531692 -0.337115 -1.62078 0.0660143
internal_weight=510 353 157 220 61 96 133 33 146 54 58 74 35 75 42 85 61 59 45 36 32 38 47 43 31
internal_count=510 353 157 220 61 96 133 33 146 54 58 74 35 75 42 85 61 59 45 36 32 38 47 43 31
is_linear=0
shrinkage=0.03


Tree=36
num_leaves=26
num_cat=0
split_feature=32 32 32 32 32 32 32 21 32 58 36 32 53 32 43 32 7 32 32 77 9 32 58 32 75
split_gain=560991 79068.1 71293.4 18170 11773.9 8199.66 7141.98 4057.64 3457.82 2395.29 2056.12 1720.15 1572.63 1253.45 1218.32 825.431 756.354 668.353 541.837 498.52 454.195 330.294 319.025 278.828 137.782
threshold=318.27000000000004 213.23500000000004 432.61500000000007 268.62500000000006 477.83000000000004 367.50500000000005 182.68000000000004 7.5500000000000007 234.31000000000003 96.32180000000001 0.68230000000000002 307.10500000000008 88.701450000000008 163.30000000000004 36636.528600000012 251.47500000000002 436.50000000000006 287.47000000000008 223.02000000000001 197.84500000000003 17.500000000000004 149.08000000000001 95.748550000000009 397.07500000000005 337.05000000000007
decision_type=2 2 2 2 2 2 2 2 2 10 10 2 10 2 10 2 2 2 2 10 2 2 10 2 10
left_child=1 6 5 8 -4 14 13 -6 16 -7 12 17 -8 21 -2 22 -3 -5 -18 -15 -17 -1 -10 -11 -19
right_child=2 3 4 11 7 9 10 -9 15 23 -12 -13 -14 19 -16 20 18 24 -20 -21 -22 -23 -24 -25 -26
leaf_value=-1.706046939989261 0.83482521963259337 -0.52741643103483682 1.8064991050353025 -0.13798284464978916 2.2672342684419449 1.4243187876996775 -0.89419780591793629 2.9663321020068225 -0.57039592658718352 0.91316559725029489 -0.75622180157759045 0.32743310748540677 -1.2945726103594297 -1.4321509249958475 0.50274962145411317 -0.22901684270331366 -0.88086659074640594 0.0026470808448078469 -0.66611392114271051 -1.1725795743314928 -0.43287906009081167 -1.4976363107609876 -0.40231394370176782 1.1146476616336658 0.1292037074193606
leaf_weight=14.999999999999998 17 15.999999999999998 28 28 14.999999999999998 24 14.999999999999998 18 26 15.000000000000002 19 14.999999999999998 24 17 25 24 22 16.000000000000004 23 14.999999999999998 17 28 18 14.999999999999998 14.999999999999998
leaf_count=15 17 16 28 28 15 24 15 18 26 15 19 15 24 17 25 24 22 16 23 15 17 28 18 15 15
internal_value=-0.0274913 -0.69104 1.46417 -0.341798 2.266 0.953744 -1.26838 2.65252 -0.535845 1.19845 -1.01639 0.0411337 -1.14196 -1.46242 0.63803 -0.411682 -0.708355 -0.0318445 -0.771999 -1.31254 -0.314006 -1.57227 -0.502204 1.01564 0.0640419
internal_weight=510 353 157 220 61 96 133 33 146 54 58 74 39 75 42 85 61 59 45 32 41 43 44 30 31
internal_count=510 353 157 220 61 96 133 33 146 54 58 74 39 75 42 85 61 59 45 32 41 43 44 30 31
is_linear=0
shrinkage=0.03


Tree=37
num_leaves=27
num_cat=0
split_feature=32 32 32 32 32 32 32 18 32 66 10 32 55 32 43 32 60 32 33 32 77 52 35 32 75 25
split_gain=527921 74407.8 67090.1 17099.1 11081.7 7716.35 6721.02 4045.57 3253.91 2305.69 1947.27 1618.79 1348.5 1179.1 1146.56 780.794 717.399 628.954 512.233 510.718 468.953 406.532 313.331 310.997 129.659 116.564
threshold=318.27000000000004 213.23500000000004 432.61500000000007 268.62500000000006 477.83000000000004 367.50500000000005 182.68000000000004 10.65 234.31000000000003 -17.125699999999998 22.500000000000004 307.10500000000008 94.360000000000014 163.30000000000004 36636.528600000012 247.58500000000001 99.995000000000019 287.47000000000008 0.89165000000000016 397.07500000000005 197.84500000000003 99.920000000000016 0.93080000000000018 149.08000000000001 337.05000000000007 8.3500000000000032
decision_type=2 2 2 2 2 2 2 2 2 10 8 2 8 2 10 2 10 2 10 2 10 10 8 2 10 2
left_child=1 6 5 8 -4 14 13 -6 16 -7 12 17 -8 23 -2 22 21 -5 -17 -11 -15 25 -10 -1 -19 -3
right_child=2 3 4 11 7 9 10 -9 15 19 -12 -13 -14 20 -16 18 -18 24 -20 -21 -22 -23 -24 -25 -26 -27
leaf_value=-1.6550355661588649 0.80985389418615972 -0.74261828841450028 1.7524007289294892 -0.1338507375423921 2.9056535299083004 1.4429728593060185 -0.92981973273313634 2.2118818179692061 -0.42078785495916621 0.89289172253650639 -0.76780404552203207 0.31764275538960957 -1.3119853823336867 -1.3893124004822672 0.48769723949318156 -0.23800326677279707 -0.50321725332063694 0.0025679149026068566 -0.44281047630838405 1.1320717506709062 -1.1375190745002011 -0.87876695373129599 -0.59805843297337502 -1.4527873189181568 0.12534047591329811 -0.61319145481451798
leaf_weight=14.999999999999998 17 16.000000000000004 28 28 17 18 17 15.999999999999998 21 17 23 14.999999999999998 18 17 25 29 14.999999999999998 16.000000000000004 18 19 14.999999999999998 14.999999999999998 17 28 14.999999999999998 14.999999999999998
leaf_count=15 17 16 28 28 17 18 17 16 21 17 23 15 18 17 25 29 15 16 18 19 15 15 17 28 15 15
internal_value=-0.0266677 -0.670361 1.42036 -0.331568 2.1982 0.925208 -1.23043 2.57318 -0.519809 1.1626 -0.985972 0.0399068 -1.128 -1.41867 0.618938 -0.399362 -0.687157 -0.0308878 -0.316859 1.02056 -1.27329 -0.746493 -0.500814 -1.52521 0.0621285 -0.681129
internal_weight=510 353 157 220 61 96 133 33 146 54 58 74 35 75 42 85 61 59 47 36 32 46 38 43 31 31
internal_count=510 353 157 220 61 96 133 33 146 54 58 74 35 75 42 85 61 59 47 36 32 46 38 43 31 31
is_linear=0
shrinkage=0.03


Tree=38
num_leaves=26
num_cat=0
split_feature=32 32 32 32 32 32 32 24 32 66 36 32 53 32 43 32 36 32 32 32 77 9 48 26 75
split_gain=496804 70021.6 63134.5 16091.8 10430.3 7261.62 6324.75 3838.53 3062.39 2169.67 1888.23 1523.39 1450.99 1109.16 1079.03 735.097 648.231 591.878 481.634 480.476 441.137 423.008 300.623 294.589 122.016
threshold=318.27000000000004 213.23500000000004 432.61500000000007 268.62500000000006 477.83000000000004 367.50500000000005 182.68000000000004 6.4500000000000011 234.31000000000003 -17.125699999999998 0.68230000000000002 307.10500000000008 88.701450000000008 163.30000000000004 36636.528600000012 251.47500000000002 0.98730000000000018 287.47000000000008 224.51000000000002 397.07500000000005 197.84500000000003 17.500000000000004 169.83000000000001 21.500000000000004 337.05000000000007
decision_type=2 2 2 2 2 2 2 2 2 10 10 2 10 2 10 2 8 2 2 2 10 2 8 2 10
left_child=1 6 5 8 -4 14 13 -6 16 -7 12 17 -8 22 -2 23 -3 -5 -18 -11 -15 -17 -1 -10 -19
right_child=2 3 4 11 7 9 10 -9 15 19 -12 -13 -14 20 -16 21 18 24 -20 -21 -22 -23 -24 -25 -26
leaf_value=-1.6004059821868613 0.78562952729613889 -0.53333351265005513 1.6999224200733203 -0.1298423736777535 2.1648213213699652 1.3998035766939707 -0.83898847877781246 2.840392908114139 -0.38126980387319725 0.86618353298332684 -0.70728466334305395 0.3081451295459785 -1.2232695088218006 -1.3477552517977629 0.47309553003596683 -0.21324702978629825 -0.83569021056298498 0.0024911203339835182 -0.61622628779704958 1.098198734794076 -1.1035068572795272 -0.40992868952037997 -1.4050775106997675 -0.54147118117281057 0.12159275235725794
leaf_weight=15.999999999999998 17 22 28 28 17 18 14.999999999999998 15.999999999999998 19 17 19 14.999999999999998 24 17 25 24 22 16.000000000000004 17 19 14.999999999999998 17 27 25 14.999999999999998
leaf_count=16 17 22 28 28 17 18 15 16 19 17 19 15 24 17 25 24 22 16 17 19 15 17 27 25 15
internal_value=-0.0258714 -0.650306 1.37786 -0.32165 2.13242 0.897528 -1.19361 2.49622 -0.504263 1.12782 -0.956472 0.0387165 -1.07677 -1.37622 0.600417 -0.387412 -0.666611 -0.0299598 -0.740976 0.990031 -1.23521 -0.295234 -1.47957 -0.472839 0.0602723
internal_weight=510 353 157 220 61 96 133 33 146 54 58 74 39 75 42 85 61 59 39 36 32 41 43 44 31
internal_count=510 353 157 220 61 96 133 33 146 54 58 74 39 75 42 85 61 59 39 36 32 41 43 44 31
is_linear=0
shrinkage=0.03


Tree=39
num_leaves=27
num_cat=0
split_feature=32 32 32 32 32 32 32 21 32 66 10 32 66 32 38 32 7 32 33 32 77 32 18 32 32 75
split_gain=467519 65894.4 59460.8 15143.4 10520.2 6343.79 5951.94 3736.57 2881.81 2327.09 1778.68 1433.62 1263.19 1043.36 996.952 698.214 693.915 556.988 476.037 471.908 414.966 286.686 283.624 280.617 265.571 114.822
threshold=318.27000000000004 213.23500000000004 427.92500000000007 268.62500000000006 477.83000000000004 367.50500000000005 182.68000000000004 7.5500000000000007 234.31000000000003 -17.125699999999998 22.500000000000004 307.10500000000008 -23.916049999999995 163.30000000000004 0.84905000000000008 247.58500000000001 436.50000000000006 287.47000000000008 0.89165000000000016 223.02000000000001 197.84500000000003 149.08000000000001 10.450000000000001 443.36500000000007 394.66500000000002 337.05000000000007
decision_type=2 2 2 2 2 2 2 2 2 10 8 2 10 2 10 2 2 2 10 2 10 2 2 2 2 10
left_child=1 6 5 8 23 14 13 -6 16 -7 12 17 -8 21 -2 22 -3 -5 -17 -18 -15 -1 -10 -4 -11 -19
right_child=2 3 4 11 7 9 10 -9 15 24 -12 -13 -14 20 -16 18 19 25 -20 -21 -22 -23 -24 -25 -26 -27
leaf_value=-1.5592542284588482 0.74397168076883147 -0.47366095337912295 1.5203771126072267 -0.1259540434954638 2.0535474793697115 1.3579257962974485 -0.89251644134521479 2.721616195298298 -0.37283193189964109 0.82616510397572052 -0.71943248041281216 0.29893149011158859 -1.263138496898045 -1.3074411596930273 0.44763006568213604 -0.22180960339646327 -0.80906811045951577 0.0024166183159730135 -0.41919780482875996 -0.60883255277952242 -1.0705116358151863 -1.3661596728646181 -0.542623467283184 1.7483977673299287 1.0102850744292493 0.11795708654083287
leaf_weight=14.999999999999998 19 15.999999999999998 15.000000000000002 28 14.999999999999998 18 19 18 15.999999999999998 14.999999999999998 23 14.999999999999998 15.999999999999998 17 23 29 22 16.000000000000004 18 23 14.999999999999998 28 22 14.999999999999998 19 14.999999999999998
leaf_count=15 19 16 15 28 15 18 19 18 16 15 23 15 16 17 23 29 22 16 18 23 15 28 22 15 19 15
internal_value=-0.0250959 -0.630847 1.33664 -0.312023 2.04965 0.857914 -1.1579 2.42156 -0.489173 1.0796 -0.927851 0.0375618 -1.06355 -1.33504 0.58245 -0.375819 -0.646663 -0.0290596 -0.297802 -0.707548 -1.19827 -1.43529 -0.471756 1.63716 0.930432 0.0584715
