tree
version=v4
num_class=1
num_tree_per_iteration=1
label_index=0
max_feature_idx=50
objective=regression
feature_names=ooo_rooms available_rooms day_of_week month quarter week_of_year is_weekend retail_rate is_federal_holiday days_to_next_holiday days_from_last_holiday temp_mean_f temp_max_f temp_min_f precipitation_in had_precipitation snowfall_in had_snow windspeed_max_mph weathercode medallia_sample_size medallia_overall_satisfaction medallia_likelihood_to_recommend medallia_likelihood_to_return medallia_value_for_price medallia_hotel_cleanliness pickup_7d pickup_14d pickup_21d pickup_30d pickup_60d total_rooms_on_books avg_booked_rate occ_lag_7d occ_lag_14d occ_lag_28d occ_lag_364d occ_roll_7d occ_roll_28d rev_lag_7d rev_lag_14d rev_lag_28d rev_lag_364d rev_roll_7d rev_roll_28d adr_lag_7d adr_lag_14d adr_lag_28d adr_lag_364d adr_roll_7d adr_roll_28d
feature_infos=[0:74] [73:147] [0:6] [1:12] [1:4] [1:52] [0:1] [169:999] [0:1] [1:60] [1:60] [10.6:94.5] [16.899999999999999:106.3] [1.8999999999999999:83.700000000000003] [0:2.488] [0:1] [0:6.9450000000000003] [0:1] [3.2000000000000002:37.600000000000001] [0:75] [0:57] [4.5999999999999996:10] [4:10] [3.1000000000000001:10] [3:9.3000000000000007] [5:9.9000000000000004] [3:90] [2:90] [0:87] [0:59] [0:54] [38:254] [121.89:710.34000000000003] [0.38940000000000002:1] [0.38940000000000002:1] [0.38940000000000002:1] [0.38940000000000002:1] [0.49340000000000001:0.99219999999999997] [0.49969999999999998:0.96260000000000001] [6955.3100000000004:94041.419999999998] [6955.3100000000004:94041.419999999998] [6955.3100000000004:94041.419999999998] [6955.3100000000004:83829.520000000004] [10707.741400000001:85656.021399999998] [11554.858899999999:66130.449299999993] [115.76000000000001:648.55999999999995] [115.76000000000001:648.55999999999995] [115.76000000000001:648.55999999999995] [152.28:590.35000000000002] [160.90860000000001:603.23289999999997] [181.86580000000001:482.84890000000001]
tree_sizes=1676 1723 1877 2280 1799 1706 2358 1820 1825 2364 2015 2033 1780 2220 1772 1894 2307 2214 2103 1897 2148 2300 1812 1851 1874 1889 1860 2487 1968 1871 2067 2202 2022 2001 2197 2179 2163 2052 1772 2334 2251 1980 1895 2512 2078 2050 2053 2258 2058 1968 2058 2257 2217 2498 2344 2375 2090 2266 1879 2055 2406 2332 2369 2161 2346 2114 2147 2242 2025 2057 2435 2277 2480 2305 2375 2403 1950 2356 2242 2068 2494 2439 2615 2516 2251 2332 2405 2385 2230 2081 2549 2389 2663 2429 2829 2424 2388 2557 2458 2711 2368 2134 2644 2221 2449 2184 2086 2257 2313 2863 2552 2504 2541 2611 2578 2424 2514 2395 2410 2174 2452 2581 2444 2328 2282 2369 2405 2338 2432 2454

Tree=0
num_leaves=18
num_cat=0
split_feature=31 27 31 0 31 31 0 38 26 31 18 9 41 9 31 40 23
split_gain=5.14463 0.66125 0.648931 0.482758 0.413742 0.212044 0.207047 0.0461059 0.0331819 0.032904 0.0315706 0.0229105 0.017609 0.010884 0.0104611 0.00590515 0.00515188
threshold=160.50000000000003 18.500000000000004 142.50000000000003 37.500000000000007 175.50000000000003 121.00000000000001 13.500000000000002 0.77275000000000016 16.500000000000004 185.50000000000003 14.250000000000002 28.500000000000004 35747.630000000012 26.500000000000004 153.50000000000003 28355.405000000002 7.0500000000000007
decision_type=2 2 2 2 2 2 2 10 2 2 2 2 10 2 2 10 2
left_child=1 2 3 5 10 8 -3 -4 -1 13 11 12 -2 16 -9 -7 -6
right_child=4 6 7 -5 9 15 -8 14 -10 -11 -12 -13 -14 -15 -16 -17 -18
leaf_value=0.84649724558301609 0.85587525983371815 0.85413576095335952 0.85609343294821683 0.85476973236278964 0.85893111476694572 0.85137858069500427 0.85829911886482557 0.8533608361814784 0.84911569190233338 0.85985774160886441 0.85833217038219234 0.85769330138204203 0.85696285873682487 0.8596222059113614 0.85479356588393629 0.84999144377005165 0.85794485059923287
leaf_weight=21 25 26 14.999999999999998 19 31 28 18 18 14.999999999999998 138 14.999999999999998 18 28 25 14.999999999999998 22 19
leaf_count=21 25 26 15 19 31 28 18 18 15 138 15 18 28 25 15 22 19
internal_value=0.85636 0.852593 0.85166 0.850333 0.858837 0.849372 0.855873 0.854597 0.847535 0.859548 0.857057 0.856766 0.856422 0.858955 0.853963 0.850733 0.858588
internal_weight=496 197 153 105 299 86 44 48 36 213 86 71 53 75 33 50 50
internal_count=496 197 153 105 299 86 44 48 36 213 86 71 53 75 33 50 50
is_linear=0
shrinkage=1


Tree=1
num_leaves=18
num_cat=0
split_feature=31 50 31 31 32 31 0 0 47 31 31 38 44 29 9 18 23
split_gain=4.84995 0.628637 0.801227 0.532275 0.399691 0.136041 0.064599 0.0420637 0.0416642 0.0305256 0.019857 0.0155799 0.0111593 0.0106034 0.00995649 0.00816891 0.00463178
threshold=157.50000000000003 204.97910000000005 134.50000000000003 175.50000000000003 178.40500000000003 121.00000000000001 6.5000000000000009 9.5000000000000018 288.48000000000008 185.50000000000003 167.50000000000003 0.8196500000000001 27327.893200000002 4.5000000000000009 26.500000000000004 10.450000000000001 7.0500000000000007
decision_type=2 8 2 2 2 2 2 2 10 2 2 10 10 2 2 2 2
left_child=1 4 5 7 -1 15 11 8 12 14 -10 -4 -2 -7 16 -3 -5
right_child=3 2 6 9 -6 13 -8 -9 10 -11 -12 -13 -14 -15 -16 -17 -18
leaf_value=-0.0035370573216908078 0 -0.0098464820252136057 -0.0024861142812227072 0.0024839955114799995 0.0018158456833463428 -0.006824109816105566 -0.001184814398994251 0.0018070858689653206 0 0.0033827377822855938 0.0012936203926113086 -0.0040130882299676237 -0.00097779441442049698 -0.0049800098223038982 0.0031544248599135235 -0.0076706760884123386 0.0015273195167812773
leaf_weight=27 15.999999999999998 17 20 31 23 15.999999999999998 22 17 20 138 27 22 23 18 25 14.999999999999998 19
leaf_count=27 16 17 20 31 23 16 22 17 20 138 27 22 23 18 25 15 19
internal_value=-1.05335e-05 -0.00394349 -0.00504577 0.00222528 -0.0010454 -0.00737687 -0.00261453 0.000437369 0.000148287 0.00308251 0.000763063 -0.00332545 -0.000554214 -0.00590062 0.00250822 -0.00888693 0.00215232
internal_weight=496 180 130 316 50 66 64 103 86 213 47 42 39 34 75 32 50
internal_count=496 180 130 316 50 66 64 103 86 213 47 42 39 34 75 32 50
is_linear=0
shrinkage=0.03


Tree=2
num_leaves=19
num_cat=0
split_feature=31 0 31 31 26 0 44 31 31 0 31 31 42 38 9 0 24 26
split_gain=4.56732 0.56143 0.8505 0.500659 0.137019 0.120149 0.0942778 0.0448416 0.0423409 0.0395373 0.0398239 0.0283011 0.0170826 0.0108647 0.00909212 0.00691849 0.00396902 0.000861595
threshold=157.50000000000003 37.500000000000007 134.50000000000003 175.50000000000003 12.500000000000002 10.500000000000002 23702.370700000003 142.50000000000003 121.00000000000001 9.5000000000000018 164.50000000000003 185.50000000000003 37629.410000000011 0.8438500000000001 26.500000000000004 5.5000000000000009 6.5500000000000007 26.500000000000004
decision_type=2 2 2 2 2 2 10 2 2 2 2 2 8 10 2 2 2 2
left_child=1 2 4 9 -1 7 -6 -4 -8 10 17 14 -12 -14 16 -9 -5 -2
right_child=3 -3 5 11 6 -7 8 15 -10 -11 12 -13 13 -15 -16 -17 -18 -19
leaf_value=-0.0091719986134626737 -0.00035469026648225966 2.3758816607495676e-05 -0.0043803214414097442 0.0025607721199642636 -0.0039534774288493835 0 -0.0083944121508107237 -0.0026944284957838567 -0.0058281551428495471 0.0017530322388426298 -2.6336555624945362e-05 0.0032812922758787963 0.00025569204740733703 0.0014514072349003583 0.0030599809924285572 -0.0015245085943527393 0.0016605270880070278 -0.00097175921861119435
leaf_weight=19 15.000000000000002 28 15.999999999999998 22 18 17 14.999999999999998 28 24 17 19 138 14.999999999999998 22 25 14.999999999999998 28 14.999999999999998
leaf_count=19 15 28 16 22 18 17 15 28 24 17 19 138 15 22 25 15 28 15
internal_value=-1.02779e-05 -0.003827 -0.004546 0.00215932 -0.00679934 -0.00226994 -0.00597482 -0.00290985 -0.00686307 0.000424805 0.00014395 0.00299074 0.000630687 0.00100814 0.00243431 -0.0023234 0.00208877 -0.000714245
internal_weight=496 180 152 316 76 76 57 59 39 103 86 213 56 37 75 43 50 30
internal_count=496 180 152 316 76 76 57 59 39 103 86 213 56 37 75 43 50 30
is_linear=0
shrinkage=0.03


Tree=3
num_leaves=23
num_cat=0
split_feature=27 32 25 40 32 32 11 11 20 48 32 44 38 20 35 9 47 41 41 0 33 39
split_gain=2.4738 0.865671 0.462614 0.352574 0.169388 0.136332 0.11528 0.225526 0.130181 0.109357 0.108898 0.0621651 0.0500638 0.049936 0.0410565 0.0288191 0.0129889 0.0129746 0.0224502 0.0155237 0.00105936 0.000461475
threshold=18.500000000000004 334.02000000000004 8.9500000000000011 47774.530000000006 261.72000000000008 227.89000000000001 44.95000000000001 58.350000000000001 22.500000000000004 179.70000000000002 163.30000000000004 41517.436400000006 0.84625000000000006 16.500000000000004 0.9094000000000001 20.500000000000004 344.20000000000005 32883.375000000007 52456.280000000006 3.5000000000000004 0.97210000000000008 46847.17500000001
decision_type=2 2 2 8 2 2 2 2 2 10 2 10 10 2 8 2 10 10 10 2 10 10
left_child=1 2 3 4 6 13 10 -8 -9 -4 -1 -3 15 -2 -12 16 -7 -14 19 21 -20 -19
right_child=5 11 9 -5 -6 12 7 8 -10 -11 14 -13 17 -15 -16 -17 -18 18 20 -21 -22 -23
leaf_value=-0.0027839131128657084 -0.00031983010812699407 0.00024884025903536234 -0.0077110219447743007 -0.0060460464645734589 0.0011155881820883958 0.0022935817580732091 -0.0056734292577253096 -0.0037388521448171036 -0.00020354731896298246 -0.0040294157572560926 -0.0010309385660830445 0.0028732216996806012 0.0030785786785887267 0.0017822621516655956 0.001058050316767736 0.00018005639098064841 0.0010515234776677226 0.0027141396387993723 0.0022806050717073651 0.0011200136658440622 0.0030617747301456338 0.0017335340367673438
leaf_weight=23 29 14.999999999999998 21 21 14.999999999999998 27 21 17 23 14.999999999999998 19 22 44 14.999999999999998 14.999999999999998 14.999999999999998 19 16.000000000000004 28 26 35 14.999999999999998
leaf_count=23 29 15 21 21 15 27 21 17 23 15 19 22 44 15 15 15 19 16 28 26 35 15
internal_value=-1.01791e-05 -0.00231927 -0.00313964 -0.00240655 -0.00181857 0.00193288 -0.00220457 -0.00312637 -0.0017463 -0.00622634 -0.00118992 0.00185154 0.00223287 0.00036395 -6.50726e-05 0.00143788 0.00181483 0.0025189 0.00229999 0.00178489 0.00274046 0.00229152
internal_weight=496 227 190 154 133 269 118 61 40 36 57 37 225 44 34 61 46 164 120 57 63 31
internal_count=496 227 190 154 133 269 118 61 40 36 57 37 225 44 34 61 46 164 120 57 63 31
is_linear=0
shrinkage=0.03


Tree=4
num_leaves=18
num_cat=0
split_feature=31 27 31 1 31 1 31 13 45 18 31 41 25 18 34 18 25
split_gain=4.11674 0.531201 0.534129 0.389148 0.328105 0.180329 0.173485 0.0587814 0.0293118 0.0267531 0.0251086 0.018817 0.0126224 0.0109443 0.00457627 0.0041911 0.00300372
threshold=160.50000000000003 18.500000000000004 142.50000000000003 108.00000000000001 175.50000000000003 135.50000000000003 121.00000000000001 35.850000000000001 230.75000000000003 14.250000000000002 185.50000000000003 33862.640000000007 8.1500000000000004 8.1500000000000004 0.77540000000000009 10.450000000000001 8.4500000000000011
decision_type=2 2 2 2 2 2 2 2 8 2 2 8 2 2 10 2 2
left_child=1 2 3 -1 9 -3 8 -4 -5 11 16 13 -13 -2 -8 -9 -6
right_child=4 5 7 6 10 -7 14 15 -10 -11 -12 12 -14 -15 -16 -17 -18
leaf_value=-0.0014258976216156649 0.00030812732077850971 0.0018263111568966727 -3.784213157075722e-05 -0.0064612584791310206 0.0025605736583380204 -0.0020589734457662034 -0.0041203506151077686 -0.0016995896016047374 -0.0089255851294818798 0.0017936179497313259 0.0031151391479548648 0.0012791204200360644 8.4413064260013888e-05 -0.00077200314840704094 -0.0054692605390310655 -0.0028861761194625959 0.0018055565233984462
leaf_weight=19 17 18 17 14.999999999999998 48 26 17 16.000000000000004 21 14.999999999999998 138 22 17 14.999999999999998 33 14.999999999999998 27
leaf_count=19 17 18 17 15 48 26 17 16 21 15 138 22 17 15 33 15 27
internal_value=-9.35039e-06 -0.003379 -0.00421536 -0.00541932 0.00220596 -0.000435218 -0.00628282 -0.00154757 -0.00795078 0.00061909 0.00283934 0.000348751 0.000797538 -0.000151796 -0.00504518 -0.00232578 0.00231014
internal_weight=496 197 153 105 299 44 86 48 36 86 213 71 39 32 50 31 75
internal_count=496 197 153 105 299 44 86 48 36 86 213 71 39 32 50 31 75
is_linear=0
shrinkage=0.03


Tree=5
num_leaves=17
num_cat=0
split_feature=31 1 31 31 0 31 31 31 26 31 35 37 31 31 0 38
split_gain=3.62422 0.690722 1.00797 0.288869 0.172714 0.119387 0.112838 0.0637698 0.0509523 0.0284782 0.0277622 0.0246951 0.0221228 0.0164863 0.012788 0.0121751
threshold=160.50000000000003 108.00000000000001 134.50000000000003 178.50000000000003 14.500000000000002 121.00000000000001 101.50000000000001 142.50000000000003 17.500000000000004 170.50000000000003 0.91335000000000011 0.87475000000000014 156.50000000000003 183.50000000000003 3.5000000000000004 0.89660000000000017
decision_type=2 2 2 2 2 2 2 2 2 2 10 10 2 2 2 10
left_child=1 6 5 9 7 8 -1 -4 -3 10 -2 -11 14 15 -9 -5
right_child=3 2 4 13 -6 -7 -8 12 -10 11 -12 -13 -14 -15 -16 -17
leaf_value=-0.00073067035761188411 -0.00040087403043613816 -0.0085286800577107271 -0.0038765969411690632 0.0028410761874346508 0.001101229681673636 -0.0048609150122857544 0.0028280603356450511 -0.0029490195196173524 -0.0058101053986438483 0.00074841024570500476 0.00098781474609441005 0.0023438517966908271 -0.00082479230553557078 0.0030042314694608591 -0.0016485582235873488 0.0016315660398202134
leaf_weight=15.000000000000002 25 27 20 22 14.999999999999998 29 15.999999999999998 18 14.999999999999998 29 25 15.999999999999998 19 156 27 27
leaf_count=15 25 27 20 22 15 29 16 18 15 29 25 16 19 156 27 27
internal_value=9.38157e-05 -0.00301988 -0.00377266 0.00218515 -0.00179392 -0.00650742 0.00105938 -0.00232911 -0.0076015 0.000794982 0.000263794 0.00135095 -0.00181945 0.0028217 -0.00220473 0.00220753
internal_weight=501 201 170 300 99 71 31 84 42 95 50 45 64 205 45 49
internal_count=501 201 170 300 99 71 31 84 42 95 50 45 64 205 45 49
is_linear=0
shrinkage=0.03


Tree=6
num_leaves=24
num_cat=0
split_feature=27 25 32 37 50 26 37 22 38 32 35 13 20 37 32 11 27 0 35 30 39 45 21
split_gain=1.7593 0.758697 0.523738 0.249452 0.17503 0.174426 0.124876 0.111493 0.102686 0.0964204 0.0757551 0.0477706 0.0445285 0.0609381 0.0401619 0.0375302 0.0289198 0.0138356 0.0189401 0.0112768 0.0110136 0.00232938 0.000149029
threshold=18.500000000000004 8.9500000000000011 276.58500000000004 0.6906000000000001 349.10110000000003 19.500000000000004 0.87475000000000014 7.8500000000000005 0.84190000000000009 210.85000000000002 0.82330000000000003 36.850000000000001 7.5000000000000009 0.78595000000000015 236.68000000000004 45.45000000000001 33.500000000000007 2.5000000000000004 0.95845000000000014 3.5000000000000004 53074.005000000012 321.56500000000005 7.7500000000000009
decision_type=2 2 2 10 10 2 10 2 10 2 8 2 2 10 2 2 2 2 8 2 10 10 2
left_child=1 2 3 -1 7 -3 9 10 -4 -2 -5 -12 -11 -14 -8 -9 -15 21 20 -10 -19 -16 -23
right_child=6 5 8 4 -6 -7 14 15 19 12 11 -13 13 16 17 -17 -18 18 -20 -21 -22 22 -24
leaf_value=-0.0053226975479790132 -0.0011934223294118851 -0.0072291348921038256 -0.00043264721076343658 -0.0015353351128215478 -0.004428851689412215 -0.0030404937802609106 0.001063131209384228 -0.0013511671254707268 0.0015410759256473767 0.0026703662274616905 0.0016244678952346795 -0.00036820260950079753 -0.00018125638208439621 0.00090227310074056019 0.0033029958328335846 -0.0036649137255163281 0.0026214022319244975 0.0020078067598849766 0.0026778227787163499 0.0029261923522960545 0.00072446355852951231 0.002772837606565257 0.0019448308385857005
leaf_weight=18 15.999999999999998 24 15.999999999999998 29 15.999999999999998 17 26 16.000000000000004 15.999999999999998 18 18 25 26 27 26 14.999999999999998 17 19 29 21 15.999999999999998 32 18
leaf_count=18 16 24 16 29 16 17 26 16 16 18 18 25 26 27 26 15 17 19 29 21 16 32 18
internal_value=9.07793e-05 -0.00182782 -0.00101877 -0.00200295 -0.00148618 -0.00553474 0.00173784 -0.00101258 0.00149645 0.000897889 -0.000340088 0.000432013 0.00129562 0.000919053 0.00225461 -0.00252313 0.00160276 0.00246472 0.00204008 0.0023706 0.0014658 0.00280101 0.00250697
internal_weight=501 231 190 137 119 41 270 103 53 104 72 43 88 70 166 31 44 140 64 37 35 76 50
internal_count=501 231 190 137 119 41 270 103 53 104 72 43 88 70 166 31 44 140 64 37 35 76 50
is_linear=0
shrinkage=0.03


Tree=7
num_leaves=18
num_cat=0
split_feature=31 1 31 31 0 31 31 31 26 31 35 37 31 31 0 38 50
split_gain=3.26891 0.6303 0.904949 0.258408 0.160674 0.109868 0.104889 0.0576149 0.0425587 0.0256315 0.0250211 0.0217538 0.019955 0.0147688 0.0122405 0.0116077 0.00647689
threshold=160.50000000000003 108.00000000000001 134.50000000000003 178.50000000000003 14.500000000000002 121.00000000000001 101.50000000000001 142.50000000000003 17.500000000000004 170.50000000000003 0.91335000000000011 0.88145000000000018 156.50000000000003 183.50000000000003 3.5000000000000004 0.89660000000000017 302.73855000000009
decision_type=2 2 2 2 2 2 2 2 2 2 10 10 2 2 2 10 10
left_child=1 6 5 9 7 8 -1 -4 -3 10 -2 16 14 15 -9 -5 -11
right_child=3 2 4 13 -6 -7 -8 12 -10 11 -12 -13 -14 -15 -16 -17 -18
leaf_value=-0.00069648597872138404 -0.00037635846241951699 -0.0080957410070019147 -0.0037032781463311494 0.002705735278372862 0.001078519489603779 -0.0045959939165185117 0.0027321712658784098 -0.0028361091418114392 -0.0055528650984811622 0.0012057356105690377 0.00094053195125819297 0.0022709423530672015 -0.00078983990020873966 0.0028509609250770146 -0.0015643902690719654 0.001526947490588629 0.00017454173824319805
leaf_weight=15.000000000000002 25 27 20 22 14.999999999999998 29 15.999999999999998 18 14.999999999999998 15.000000000000002 25 14.999999999999998 19 156 27 27 14.999999999999998
leaf_count=15 25 27 20 22 15 29 16 18 15 15 25 15 19 156 27 27 15
internal_value=8.81398e-05 -0.00286883 -0.00358805 0.00207446 -0.001712 -0.00617979 0.00102638 -0.0022285 -0.00723093 0.000758374 0.000252399 0.00128637 -0.00174169 0.0026767 -0.00210896 0.002089 0.000741204
internal_weight=501 201 170 300 99 71 31 84 42 95 50 45 64 205 45 49 30
internal_count=501 201 170 300 99 71 31 84 42 95 50 45 64 205 45 49 30
is_linear=0
shrinkage=0.03


Tree=8
num_leaves=18
num_cat=0
split_feature=31 1 31 31 0 31 31 31 26 31 36 37 31 12 31 0 38
split_gain=3.07842 0.593385 0.851363 0.242792 0.151519 0.1029 0.0988084 0.0539086 0.0393345 0.0242001 0.0237843 0.0203368 0.018645 0.0156316 0.0135729 0.0113164 0.0107217
threshold=160.50000000000003 108.00000000000001 134.50000000000003 178.50000000000003 14.500000000000002 121.00000000000001 101.50000000000001 142.50000000000003 17.500000000000004 170.50000000000003 0.8962500000000001 0.87475000000000014 156.50000000000003 69.700000000000003 183.50000000000003 3.5000000000000004 0.89660000000000017
decision_type=2 2 2 2 2 2 2 2 2 2 8 10 2 2 2 2 10
left_child=1 6 5 9 7 8 -1 -4 -3 10 -2 -11 15 -12 16 -9 -5
right_child=3 2 4 14 -6 -7 -8 12 -10 11 13 -13 -14 -15 -16 -17 -18
leaf_value=-0.00067566080705767039 -0.00054566028505915727 -0.0078533177174173307 -0.0035924568504763959 0.0026247472772184684 0.001046271399034812 -0.0044583513942930255 0.0026504615144194842 -0.0027512615925304774 -0.0053868326364066507 0.00069520239131573244 2.4679175743432789e-05 0.0021565220084598406 -0.00076620689615255263 0.0014756241710578086 0.0027654595125451062 -0.0015175453222670047 0.0014812237363374943
leaf_weight=15.000000000000002 19 27 20 22 14.999999999999998 29 15.999999999999998 18 14.999999999999998 29 16.000000000000004 15.999999999999998 19 14.999999999999998 156 27 27
leaf_count=15 19 27 20 22 15 29 16 18 15 29 16 16 19 15 156 27 27
internal_value=8.53677e-05 -0.00278407 -0.00348196 0.00201303 -0.00166167 -0.00599605 0.000994242 -0.00216341 -0.00701555 0.000736636 0.000243944 0.0012499 -0.00169096 0.000776304 0.00259689 -0.00204683 0.00202738
internal_weight=501 201 170 300 99 71 31 84 42 95 50 45 64 31 205 45 49
internal_count=501 201 170 300 99 71 31 84 42 95 50 45 64 31 205 45 49
is_linear=0
shrinkage=0.03


Tree=9
num_leaves=24
num_cat=0
split_feature=27 25 32 37 50 26 37 10 23 32 37 34 35 47 28 43 32 0 35 41 10 40 12
split_gain=1.48054 0.641458 0.440418 0.205663 0.148396 0.145809 0.102139 0.0987727 0.082465 0.0820083 0.0809507 0.0564162 0.0533474 0.0472262 0.0455426 0.0426928 0.0446199 0.017313 0.0211963 0.0251587 0.00724564 0.00606568 0.00472966
threshold=18.500000000000004 8.9500000000000011 276.58500000000004 0.6906000000000001 349.10110000000003 20.500000000000004 0.87475000000000014 11.500000000000002 7.4500000000000011 210.85000000000002 0.85380000000000011 0.94195000000000018 0.83095000000000008 233.73500000000004 15.500000000000002 33519.363550000002 276.58500000000004 2.5000000000000004 0.95845000000000014 30085.910000000003 13.500000000000002 51509.840000000004 73.200000000000003
decision_type=2 2 2 10 10 2 10 10 2 2 10 10 10 8 2 10 2 2 8 10 10 10 2
left_child=1 2 3 -1 7 -3 9 -5 11 -2 -4 12 -9 -11 -8 -15 -17 22 19 -19 -12 -18 -16
right_child=6 5 10 4 -6 -7 14 8 -10 13 20 -13 -14 15 17 16 21 18 -20 -21 -22 -23 -24
leaf_value=-0.0048530065443707299 -0.0010931128353994582 -0.0064844788552302999 -0.00025536671761543521 0.0005183750005012534 -0.0040760342881222753 -0.0025494601914157894 0.00056857108659162301 -0.0026388494376519207 -0.0029355764219503918 0.0027147582354389616 0.0014218109900571182 0.00070999797746118315 -0.00016005272361179512 -0.00020325318536385388 0.0018459623136392262 0 0.002420923587688118 0.0022090506690677415 0.0025302418483340223 0.00067089042066812734 0.0026498721630285956 0.0012849870578405006 0.0028510257929811643
leaf_weight=18 15.999999999999998 26 17 29 15.999999999999998 14.999999999999998 19 17 25 15.999999999999998 14.999999999999998 14.999999999999998 17 22 15.999999999999998 14.999999999999998 18 20 31 26 21 17 54
leaf_count=18 16 26 17 29 16 15 19 17 25 16 15 15 17 22 16 15 18 20 31 26 21 17 54
internal_value=8.26791e-05 -0.00167711 -0.000932419 -0.00183532 -0.00136441 -0.00508624 0.00159386 -0.000926863 -0.00151346 0.000831654 0.00137274 -0.000755062 -0.00144556 0.00119907 0.00206196 0.00083978 0.00132843 0.00224453 0.00186025 0.0013739 0.00218247 0.0019146 0.00264419
internal_weight=501 231 190 137 119 41 270 103 74 104 53 49 34 88 166 72 50 147 77 46 36 35 70
internal_count=501 231 190 137 119 41 270 103 74 104 53 49 34 88 166 72 50 147 77 46 36 35 70
is_linear=0
shrinkage=0.03


Tree=10
num_leaves=21
num_cat=0
split_feature=27 37 32 26 25 49 37 29 21 41 32 32 26 42 21 32 18 32 20 25
split_gain=1.69094 0.752146 0.44178 0.205252 0.147199 0.127003 0.122287 0.109799 0.104497 0.0729823 0.0670052 0.0526995 0.045021 0.0307815 0.0284751 0.0228261 0.0192339 0.0119626 0.00972157 0.00816205
threshold=18.500000000000004 0.82625000000000004 280.06000000000006 11.500000000000002 8.9500000000000011 316.55285000000009 0.87515000000000009 7.5000000000000009 7.2500000000000009 17667.110000000004 210.85000000000002 237.08000000000001 35.500000000000007 13463.910000000002 7.7500000000000009 238.75000000000003 7.0500000000000007 342.23500000000007 13.500000000000002 8.7500000000000018
decision_type=2 10 2 2 2 10 10 2 2 8 2 2 2 10 2 2 2 2 2 2
left_child=1 3 5 -1 8 7 10 9 -5 -3 -2 -10 14 -11 -12 -8 -17 -4 -14 -18
right_child=6 2 17 4 -6 -7 15 -9 11 13 12 -13 18 -15 -16 16 19 -19 -20 -21
leaf_value=-0.0069138555575440795 -0.00098506434954418799 -0.0033081976303699643 0.0011830975611424332 -0.0042413483671550683 -0.0051956246760378874 -0.0034154852053543032 0.0011366094600342035 0.00095214551875705072 -0.0023983857522205426 -0.0016647879080164114 0.0011038901676375073 -7.8466207094905654e-05 0.0011607582783475915 0.00011468583161005148 -0.00043246091189825918 0.0012735902709652084 0.0025494564977112015 0.002491602557720241 0.0022316586812006888 0.0015327674713084072
leaf_weight=18 17 17 15.999999999999998 19 26 27 28 19 22 17 20 17 28 14.999999999999998 22 23 90 26 21 17
leaf_count=18 17 17 16 19 26 27 28 19 22 17 20 17 28 15 22 23 90 26 21 17
internal_value=-0.000145118 -0.001979 -0.000513819 -0.00393102 -0.00327027 -0.00165506 0.00149704 -0.000932035 -0.0023776 -0.00169344 0.000697247 -0.00142695 0.00102837 -0.00078498 0.000263906 0.00203385 0.00221506 0.0020308 0.0016521 0.00240273
internal_weight=505 239 137 102 84 95 266 68 58 49 108 39 91 32 42 158 130 42 49 107
internal_count=505 239 137 102 84 95 266 68 58 49 108 39 91 32 42 158 130 42 49 107
is_linear=0
shrinkage=0.03


Tree=11
num_leaves=21
num_cat=0
split_feature=28 32 37 37 25 37 7 32 18 33 24 47 26 32 0 18 33 2 2 25
split_gain=1.60686 0.421557 0.365011 0.292318 0.187255 0.17585 0.154329 0.100554 0.0942141 0.114323 0.107979 0.0498654 0.0486322 0.0391723 0.0524701 0.0208159 0.0203154 0.00597003 0.00510973 0.00277387
threshold=11.500000000000002 360.33500000000009 0.7390000000000001 0.6906000000000001 8.9500000000000011 0.87475000000000014 494.00000000000006 212.46000000000001 8.2500000000000018 0.95845000000000014 7.2500000000000009 237.41500000000002 27.500000000000004 238.75000000000003 7.5000000000000009 7.0500000000000007 0.80070000000000008 2.5000000000000004 4.5000000000000009 8.4500000000000011
decision_type=2 2 10 10 2 10 2 2 2 10 2 10 2 2 2 2 10 2 2 2
left_child=1 3 -2 6 8 7 -1 -4 -5 10 11 -10 -9 14 -7 -15 -14 -17 -18 -19
right_child=2 -3 5 4 -6 13 -8 12 9 -11 -12 -13 16 15 -16 17 18 19 -20 -21
leaf_value=-0.0031071626121933226 -0.0022747703591601172 0.0018729528058268686 -0.0013147188460479685 -0.00010180216745685185 -0.0046835740929055117 -0.00024788466928081206 -0.0075369676309596755 -0.00026467590849390442 0.0004013146972980471 -0.0040876368108858051 -0.0036486014911898735 -0.0016452734226542313 0.00048337456690856172 0.0012354654545247768 0.0020194663563534209 0.0028187995115195388 0.0013008626039180246 0.0023280152946952531 0.0022322485191799434 0.0015880136941903049
leaf_weight=14.999999999999998 26 18 22 27 24 14.999999999999998 17 22 20 22 14.999999999999998 21 24 23 20 42 32 60 17 23
leaf_count=15 26 18 22 27 24 15 17 22 20 22 15 21 24 23 20 42 32 60 17 23
internal_value=-0.000140625 -0.00242662 0.00111015 -0.00291706 -0.002259 0.00140883 -0.00551539 0.000483144 -0.00168857 -0.0022182 -0.00145402 -0.000611124 0.000915745 0.00199218 0.00100598 0.00221485 0.00129196 0.0023825 0.00165652 0.0021421
internal_weight=505 179 326 161 129 300 32 117 105 78 56 41 95 183 35 148 73 125 49 83
internal_count=505 179 326 161 129 300 32 117 105 78 56 41 95 183 35 148 73 125 49 83
is_linear=0
shrinkage=0.03


Tree=12
num_leaves=18
num_cat=0
split_feature=31 1 31 31 31 44 0 31 0 30 31 38 31 31 46 30 49
split_gain=3.00221 0.538779 0.576493 0.291692 0.173829 0.103545 0.080116 0.0726428 0.0475847 0.0268666 0.0244774 0.0380318 0.0209263 0.0133705 0.0126664 0.00719216 0.00294611
threshold=157.50000000000003 108.00000000000001 134.50000000000003 175.50000000000003 95.500000000000014 30281.486600000004 10.500000000000002 105.50000000000001 9.5000000000000018 7.5000000000000009 189.50000000000003 0.93185000000000007 121.00000000000001 144.50000000000003 282.63500000000005 13.500000000000002 312.59785000000005
decision_type=2 2 2 2 2 10 2 2 2 2 2 10 2 2 10 2 10
left_child=1 4 5 8 -1 7 13 -3 9 14 11 15 -7 -4 -2 -5 -16
right_child=3 2 6 10 -6 12 -8 -9 -10 -11 -12 -13 -14 -15 16 -17 -18
leaf_value=-0.0020663996874679658 8.5143212370175083e-05 -0.0062780004467481 -0.003050276134492299 0.002365397394299011 0.0022342890571421525 -0.0076268099157177664 0 -0.0034435194243457356 0.0017498567159071868 0.00085093475037676476 0.0026213323865014837 0.00042148521592161645 -0.0055531121235439154 -0.001890106211440966 -0.00032743838946465567 0.0014308921522588613 -0.0011206280273939188
leaf_weight=14.999999999999998 27 14.999999999999998 24 60 19 22 14.999999999999998 29 17 24 118 15.999999999999998 17 36 16.000000000000004 20 14.999999999999998
leaf_count=15 27 15 24 60 19 22 15 29 17 24 118 16 17 36 16 20 15
internal_value=-0.000136444 -0.0030921 -0.00382981 0.00167202 0.000292625 -0.00556135 -0.00189116 -0.0044499 0.000307747 0 0.00229593 0.00187919 -0.00676957 -0.00238131 -0.00034139 0.00215155 -0.000760736
internal_weight=505 192 158 313 34 83 75 44 99 82 214 96 39 60 58 80 31
internal_count=505 192 158 313 34 83 75 44 99 82 214 96 39 60 58 80 31
is_linear=0
shrinkage=0.03


Tree=13
num_leaves=22
num_cat=0
split_feature=28 32 25 37 37 26 28 32 49 26 19 32 35 26 38 24 18 38 23 25 46
split_gain=1.43391 0.505989 0.405251 0.200352 0.181496 0.137286 0.112496 0.0715205 0.0675677 0.0512431 0.0609689 0.0407406 0.0344006 0.0275116 0.0297837 0.0189235 0.0236349 0.0186959 0.0176116 0.0108168 0.000951394
threshold=13.500000000000002 360.33500000000009 9.4000000000000021 0.6906000000000001 0.87475000000000014 25.500000000000004 3.5000000000000004 258.59000000000009 303.37070000000006 18.500000000000004 58.000000000000007 210.85000000000002 0.83275000000000021 35.500000000000007 0.84595000000000009 7.5500000000000007 7.8500000000000005 0.93735000000000013 6.0500000000000007 8.5500000000000025 249.16500000000002
decision_type=2 2 2 10 10 2 2 2 10 2 2 2 8 2 10 2 2 10 2 2 10
left_child=1 2 3 -1 5 -2 -5 8 9 10 -8 -7 -11 14 -13 16 17 -6 -10 -15 -18
right_child=4 -3 -4 6 15 11 7 -9 18 12 -12 13 -14 19 -16 -17 20 -19 -20 -21 -22
leaf_value=-0.0046995384666789954 -0.0023018673002917897 0.0016963249596281427 -0.0062885834052734515 -0.0034390281876660656 0.0018676378413709839 -0.00063439009711146349 0.0010126977217361681 0.00035600032812098349 -0.0035343573149603067 -0.0028047118698046585 -0.0015356941680204231 -0.00021674576371595887 -0.00067468381462353229 0.0010059084432488456 0.0014016395570518813 0.00071677073042691246 0.0027740445682386148 0.00041383777294428113 -0.0018217878915831301 0.0021116052446027568 0.0021084021101718657
leaf_weight=22 14.999999999999998 29 23 25 23 14.999999999999998 19 21 14.999999999999998 15.999999999999998 14.999999999999998 25 15.999999999999998 28 15.999999999999998 14.999999999999998 22 17 18 20 90
leaf_count=22 15 29 23 25 23 15 19 21 15 16 15 25 16 28 16 15 22 17 18 20 90
internal_value=-0.000132345 -0.00196162 -0.00252813 -0.00199951 0.00126325 0.000352201 -0.00157803 -0.00117656 -0.00151681 -0.000926035 -6.81441e-05 0.000750338 -0.00178921 0.00100079 0.000379216 0.00190315 0.00201009 0.00128851 -0.00264978 0.00149955 0.00225372
internal_weight=505 219 190 167 286 119 145 120 99 66 34 104 32 89 41 167 152 40 33 48 112
internal_count=505 219 190 167 286 119 145 120 99 66 34 104 32 89 41 167 152 40 33 48 112
is_linear=0
shrinkage=0.03


Tree=14
num_leaves=18
num_cat=0
split_feature=31 1 31 31 26 40 0 31 0 31 39 5 31 39 31 25 34
split_gain=2.71415 0.494047 0.521512 0.264481 0.160825 0.0937906 0.0741625 0.0469746 0.0363663 0.027673 0.0484895 0.0265088 0.0199525 0.0194084 0.0112034 0.0105247 0.00645484
threshold=157.50000000000003 108.00000000000001 134.50000000000003 174.50000000000003 19.500000000000004 21323.240000000002 10.500000000000002 112.50000000000001 9.5000000000000018 183.50000000000003 40002.345000000008 18.500000000000004 164.50000000000003 48794.025000000009 144.50000000000003 8.2500000000000018 0.8843000000000002
decision_type=2 2 2 2 2 8 2 2 2 2 10 2 2 10 2 2 10
left_child=1 4 5 8 -1 -3 14 -7 12 10 -5 -9 -2 -12 -4 16 -14
right_child=3 2 6 9 -6 7 -8 11 -10 -11 13 -13 15 -15 -16 -17 -18
leaf_value=-0.0015918335004856709 -0.0006793633581980823 -0.0035877180679472621 -0.0028980716451200931 0.0024382616271815759 0.0025220305510692156 -0.0072409341683098132 0 -0.0039092191343552598 0.0015718348081567109 0.002401857640446016 0 -0.0060647301152935177 0.0011150383301685714 0.0014578388195483746 -0.0018089279062153409 -0.00027350203384741197 0.00016164439994343149
leaf_weight=18 28 25 24 33 15.999999999999998 23 14.999999999999998 15.999999999999998 14.999999999999998 152 18 19 14.999999999999998 18 36 14.999999999999998 19
leaf_count=18 28 25 24 33 16 23 15 16 15 152 18 19 15 18 36 15 19
internal_value=-0.000128323 -0.00293874 -0.00364525 0.00159104 0.00030091 -0.00529262 -0.00179987 -0.00599793 0.000221015 0.00215441 0.00158624 -0.00512913 -2.35132e-05 0.000761304 -0.00227161 0.000320988 0.000627332
internal_weight=505 192 158 313 34 83 75 58 92 221 69 35 77 36 60 49 34
internal_count=505 192 158 313 34 83 75 58 92 221 69 35 77 36 60 49 34
is_linear=0
shrinkage=0.03


Tree=15
num_leaves=19
num_cat=0
split_feature=31 0 31 31 31 40 0 31 44 33 30 11 46 11 31 31 10 10
split_gain=2.30195 0.373296 0.525778 0.212241 0.205109 0.117718 0.10226 0.0694463 0.0524117 0.0266357 0.0242637 0.0133292 0.0118125 0.0117839 0.00836041 0.00669061 0.00542809 0.00947356
threshold=160.50000000000003 41.000000000000007 140.50000000000003 95.500000000000014 179.50000000000003 23447.725000000002 9.5000000000000018 117.50000000000001 23099.371800000004 0.8258000000000002 7.5000000000000009 51.050000000000004 259.99000000000007 72.050000000000011 182.50000000000003 148.50000000000003 16.500000000000004 23.500000000000004
decision_type=2 2 2 2 2 8 2 2 10 10 2 2 10 2 2 2 10 10
left_child=1 2 5 -3 9 8 15 -7 -1 11 13 -2 -9 -11 -6 -4 -16 -18
right_child=4 3 6 -5 14 7 -8 12 -10 10 -12 -13 -14 -15 16 -17 17 -19
leaf_value=-0.0015422967806507976 0.00040808299246965056 -0.0020822461591514583 -0.0022718198100725811 0.0025746607499769849 0.0015705331713357137 -0.0067959456545399529 0.00099033571802933647 -0.0034674142788503766 -0.0042022012121691382 -0.00070038691653895205 0.00088606570274078452 0.0017455547745892613 -0.0051209313597645155 0.00032592291297063082 0.0025640842435121283 -0.001356429468092878 0.0014571292971528539 0.0024385884951643199
leaf_weight=14.999999999999998 14.999999999999998 17 22 18 27 24 14.999999999999998 15.999999999999998 17 24 27 21 21 14.999999999999998 102 35 29 32
leaf_count=15 15 17 22 18 27 24 15 16 17 24 27 21 21 15 102 35 29 32
internal_value=-2.22787e-05 -0.00250443 -0.00310198 0.000270195 0.00167283 -0.00459698 -0.00114826 -0.00540361 -0.00300652 0.000567511 0.000182118 0.00123122 -0.00445203 -0.000267328 0.00225801 -0.00173771 0.00236217 0.00199814
internal_weight=492 200 165 35 292 93 72 61 32 102 66 36 37 39 190 57 163 61
internal_count=492 200 165 35 292 93 72 61 32 102 66 36 37 39 190 57 163 61
is_linear=0
shrinkage=0.03


Tree=16
num_leaves=23
num_cat=0
split_feature=28 26 37 25 32 33 40 26 32 13 28 47 36 19 18 25 2 7 13 50 9 11
split_gain=1.06784 0.278414 0.255258 0.179742 0.12657 0.0991971 0.0979228 0.0933993 0.0914672 0.0897404 0.0760064 0.0483691 0.0273127 0.0244869 0.0223988 0.019272 0.0188871 0.01729 0.0108589 0.0057447 0.00499897 0.00229485
threshold=11.500000000000002 11.500000000000002 0.77555000000000007 8.9500000000000011 275.60500000000008 0.88150000000000006 20328.415000000005 31.500000000000004 274.57500000000005 62.650000000000006 15.500000000000002 249.04500000000004 0.9335500000000001 54.000000000000007 7.8500000000000005 7.6500000000000012 2.5000000000000004 404.00000000000006 41.550000000000004 312.11305000000004 19.500000000000004 63.850000000000001
decision_type=2 2 10 2 2 8 10 2 2 2 2 10 8 2 2 2 2 2 2 10 2 2
left_child=1 5 7 4 6 -1 13 -2 10 15 11 -4 -10 -3 -12 -8 -14 20 -16 -20 -18 -19
right_child=2 3 8 -5 -6 -7 9 -9 12 -11 14 -13 16 -15 18 -17 17 21 19 -21 -22 -23
leaf_value=-0.0027053120554031531 -0.0025544488952070677 0.00022056906679886187 0.00069343271025534814 -0.0036461304893304486 0.00091509706654491262 -0.0063037727104865039 -0.0041271851420681049 0.00043961380283499872 0.00080923852288502856 -0.00044285245526590877 0.00014415656202786828 -0.001478902020902742 0.0025308193673594316 -0.0012280296478594573 0.00084904404806898149 -0.0022422611604497279 0.0013962818404962846 0.0014385289605100863 0.0024689108519459087 0.0012979499418889321 0.00040946486291546761 0.0021601007305932858
leaf_weight=17 22 27 15.999999999999998 25 28 14.999999999999998 16.000000000000004 14.999999999999998 28 17 17 20 44 15.999999999999998 22 14.999999999999998 15.000000000000002 23 14.999999999999998 17 14.999999999999998 47
leaf_count=17 22 27 16 25 28 15 16 15 28 17 17 20 44 16 22 15 15 23 15 17 15 47
internal_value=-2.14657e-05 -0.00189688 0.00101846 -0.00131863 -0.000815733 -0.0044461 -0.00136498 -0.0013012 0.00133164 -0.00230048 0.000620682 -0.000472188 0.00176489 -0.000284401 0.00119587 -0.00326851 0.00193995 0.00166384 0.00149877 0.00189664 0.000954292 0.00194562
internal_weight=492 176 316 144 119 32 91 37 279 48 107 36 172 43 71 31 144 100 54 32 30 70
internal_count=492 176 316 144 119 32 91 37 279 48 107 36 172 43 71 31 144 100 54 32 30 70
is_linear=0
shrinkage=0.03


Tree=17
num_leaves=22
num_cat=0
split_feature=27 37 47 7 24 2 28 37 38 46 47 26 49 0 23 36 18 7 25 20 28
split_gain=1.07407 0.416807 0.174264 0.173451 0.123006 0.0958199 0.0719872 0.0712385 0.0689194 0.0630652 0.0404542 0.0379522 0.0374422 0.0297545 0.0257148 0.0133568 0.0307171 0.0130906 0.00557724 0.0110716 0.00370504
threshold=18.500000000000004 0.77555000000000007 414.65000000000003 564.00000000000011 7.5500000000000007 1.0000000180025095e-35 9.5000000000000018 0.90275000000000005 0.83765000000000012 318.56500000000005 282.23000000000008 34.500000000000007 295.00640000000004 4.5000000000000009 6.4500000000000011 0.93915000000000004 7.4500000000000011 383.00000000000006 7.3500000000000005 17.500000000000004 19.500000000000004
decision_type=2 10 8 2 2 2 2 10 10 10 10 2 10 2 2 10 2 2 2 2 2
left_child=1 3 4 9 5 -3 -6 13 11 -1 -9 14 -13 -7 -2 16 -10 -18 -19 -20 -17
right_child=8 2 -4 -5 6 7 -8 10 15 -11 -12 12 -14 -15 -16 20 17 18 19 -21 -22
leaf_value=-0.0013529636332376754 0.00049681475930020338 -0.0026123350379869876 0.001661616436161271 -0.0055774555091984302 -0.0043083859343960428 -0.0015743901542421563 -0.0011832617955944466 0.0015734424530336564 7.4942389624976652e-05 -0.0038541278284843833 -0.00032533555654982961 6.3240294432722206e-05 0.0020094188470904371 -9.2770277362520397e-05 -0.0011958228284338383 0.0013673179005497006 0.00090581466805154975 0.0023395926315426304 0.0010714651736131323 0.0020015816520571315 0.0023175332290530401
leaf_weight=28 16.000000000000004 18 24 24 15.000000000000002 29 14.999999999999998 23 15.999999999999998 15.999999999999998 15.999999999999998 19 20 25 14.999999999999998 14.999999999999998 29 23 34 34 38
leaf_count=28 16 18 24 24 15 29 15 23 16 16 16 19 20 25 15 15 29 23 34 34 38
internal_value=-2.03003e-05 -0.00150097 -0.000674667 -0.00348196 -0.00108341 -0.00060483 -0.00280031 -0.000198965 0.00130597 -0.00229987 0.000756625 0.000470668 0.00110099 -0.000916927 -0.000274501 0.0016072 0.00141185 0.0015775 0.00177446 0.00155969 0.00207842
internal_weight=492 233 165 68 141 111 30 93 259 44 39 70 39 54 31 189 136 120 91 68 53
internal_count=492 233 165 68 141 111 30 93 259 44 39 70 39 54 31 189 136 120 91 68 53
is_linear=0
shrinkage=0.03


Tree=18
num_leaves=22
num_cat=0
split_feature=28 26 37 24 32 33 26 32 28 32 50 13 11 37 36 2 42 0 7 9 20
split_gain=0.954905 0.255476 0.228219 0.158478 0.0977886 0.0911613 0.0823351 0.0821382 0.0682269 0.0672966 0.0759446 0.0458485 0.0843518 0.0280506 0.0242369 0.0174095 0.0165304 0.0252031 0.0160908 0.00896579 0.00226
threshold=11.500000000000002 11.500000000000002 0.77555000000000007 7.5500000000000007 206.82000000000002 0.88150000000000006 31.500000000000004 274.57500000000005 15.500000000000002 293.48000000000008 333.98290000000003 34.150000000000013 56.750000000000007 0.87285000000000013 0.9335500000000001 2.5000000000000004 23467.515000000003 8.5000000000000018 480.00000000000006 18.500000000000004 17.500000000000004
decision_type=2 2 10 2 2 8 2 2 2 2 10 2 2 10 8 2 10 2 2 2 2
left_child=1 5 6 9 -5 -1 -2 8 13 10 11 -3 -13 -4 -9 -16 17 -10 19 -17 -20
right_child=2 3 7 4 -6 -7 -8 14 16 -11 -12 12 -14 -15 15 18 -18 -19 20 -21 -22
leaf_value=-0.0025611247230441334 -0.0024055627647305831 0.00033149874505193476 -0.0013487750542270907 -0.0040849372614446154 -0.0008479164934336545 -0.006018558054469352 0.00040059112767345487 0.00076488031404351885 0 0.00082348337891150478 -0.0029648891222536361 -0.0028166774021993494 0 0.00027931963291576525 0.0024050442290267193 0.0015112261899879998 0.0017190125399459914 0.0014941415095731144 0.0015769933132881912 0.00049074593663764256 0.0023305043877063394
leaf_weight=17 22 28 17 24 14.999999999999998 14.999999999999998 14.999999999999998 28 23 22 14.999999999999998 17 23 19 44 22 29 19 32 21 25
leaf_count=17 22 28 17 24 15 15 15 28 23 22 15 17 23 19 44 22 29 19 32 21 25
internal_value=-1.94359e-05 -0.00179307 0.000963795 -0.00123863 -0.00288102 -0.00423546 -0.00122844 0.00126006 0.000585236 -0.000613236 -0.00101238 -0.000557776 -0.00121736 -0.000448698 0.00167086 0.00183628 0.00113054 0.000686986 0.00156996 0.00104884 0.00193553
internal_weight=492 176 316 144 39 32 37 279 107 105 83 68 40 36 172 144 71 42 100 43 57
internal_count=492 176 316 144 39 32 37 279 107 105 83 68 40 36 172 144 71 42 100 43 57
is_linear=0
shrinkage=0.03


Tree=19
num_leaves=19
num_cat=0
split_feature=31 0 31 31 31 40 0 31 44 33 30 11 40 46 31 28 50 37
split_gain=1.92595 0.333707 0.444732 0.179741 0.171805 0.0968849 0.0911047 0.0569889 0.0393982 0.02563 0.0185965 0.010527 0.0101364 0.00919588 0.00634561 0.00538295 0.00188946 0.000472362
threshold=160.50000000000003 41.000000000000007 140.50000000000003 95.500000000000014 179.50000000000003 23447.725000000002 9.5000000000000018 117.50000000000001 23099.371800000004 0.8258000000000002 7.5000000000000009 51.050000000000004 41755.245000000003 259.99000000000007 182.50000000000003 8.5000000000000018 306.59785000000005 0.86495000000000011
decision_type=2 2 2 2 2 8 2 2 10 10 2 2 10 10 2 2 10 10
left_child=1 2 5 -3 9 8 15 -7 -1 11 12 -2 -11 -9 -6 -4 -17 -16
right_child=4 3 6 -5 14 7 -8 13 -10 10 -12 -13 -14 -15 17 16 -18 -19
leaf_value=-0.0014772031285438028 0.00041584548309129779 -0.0018262954462385159 -0.00097642780305144368 0.0024550000501801761 0.0014393886106773906 -0.0062397718361410434 0.00096080121668937473 -0.003176669655977008 -0.0038256273975819785 7.7230369550197251e-05 0.00075973887326602106 0.0016320114015798458 -0.00087082501932857963 -0.0047062579172524027 0.0025748740772421758 -0.0022079921534069536 -0.0013302584649323105 0.0020487282796770342
leaf_weight=14.999999999999998 14.999999999999998 17 18 18 27 24 14.999999999999998 15.999999999999998 17 24 27 21 14.999999999999998 21 32 22 17 131
leaf_count=15 15 17 18 18 27 24 15 16 17 24 27 21 15 21 32 22 17 131
internal_value=-1.84414e-05 -0.0022891 -0.00285434 0.000333079 0.0015318 -0.00422974 -0.00105526 -0.00496509 -0.00277563 0.000518518 0.000140839 0.00116816 -0.000249642 -0.00409048 0.00206759 -0.00161247 -0.001866 0.00216198
internal_weight=492 200 165 35 292 93 72 61 32 102 66 36 39 37 190 57 39 163
internal_count=492 200 165 35 292 93 72 61 32 102 66 36 39 37 190 57 39 163
is_linear=0
shrinkage=0.03


Tree=20
num_leaves=22
num_cat=0
split_feature=28 24 37 35 26 10 29 34 28 20 48 10 42 45 2 2 7 49 2 36 38
split_gain=0.819857 0.241913 0.137013 0.117187 0.111919 0.0894792 0.0885004 0.0841002 0.0725366 0.0619721 0.0568294 0.0440623 0.0221995 0.0162997 0.0135165 0.0154971 0.0128009 0.00941731 0.00711019 0.00350803 0.0106924
threshold=11.500000000000002 7.5500000000000007 0.85480000000000012 0.78370000000000017 35.500000000000007 14.500000000000002 2.5000000000000004 0.95635000000000014 7.5000000000000009 9.5000000000000018 259.8300000000001 18.500000000000004 41294.310000000005 259.33500000000009 1.0000000180025095e-35 2.5000000000000004 383.00000000000006 299.55285000000009 4.5000000000000009 0.91725000000000012 0.91870000000000007
decision_type=2 2 10 8 2 10 2 10 2 2 8 8 8 10 2 2 2 10 2 10 10
left_child=1 3 4 5 7 -1 -5 9 -3 -2 -4 12 -8 -6 -12 -16 18 -18 -17 20 -19
right_child=2 8 10 6 13 -7 11 -9 -10 -11 14 -13 -14 -15 15 16 17 19 -20 -21 -22
leaf_value=-0.0034590592589269749 -0.0029908393323421476 -0.0045081579931727615 -0.00017944079202050317 -0.0018492260660190564 0.00042117377949326876 -0.00086009135184466528 3.0469857280040443e-06 0.0010746901702643229 -0.0018537934732280276 -0.00056103467037353443 0.00077872059815986582 -0.00061280919141145783 0.0015917727931396561 0.0017925645488283922 0.002170514781614734 0.00035385627383737822 0.002230866663307816 0.0015613491013482016 0.0013373808740826645 0.0019595058701027215 0.0005802877042887009
leaf_weight=23 15.999999999999998 27 18 22 17 29 14.999999999999998 14.999999999999998 18 28 28 24 23 23 44 20 25 34 17 15.999999999999998 23
leaf_count=23 16 27 18 22 17 29 15 15 18 28 28 24 23 23 44 20 25 34 17 16 23
internal_value=4.85461e-05 -0.00156532 0.00095485 -0.000918738 9.42674e-06 -0.00204067 -0.000205559 -0.000805519 -0.00348294 -0.00148104 0.00136408 0.000354523 0.00100489 0.00124843 0.00150555 0.00161062 0.00141629 0.00161523 0.000847427 0.00138247 0.00119263
internal_weight=505 181 324 136 99 52 84 59 45 44 225 62 38 40 207 179 135 98 37 73 57
internal_count=505 181 324 136 99 52 84 59 45 44 225 62 38 40 207 179 135 98 37 73 57
is_linear=0
shrinkage=0.03


Tree=21
num_leaves=23
num_cat=0
split_feature=27 32 25 27 1 37 42 34 38 36 36 32 11 40 42 26 27 33 43 37 39 47
split_gain=0.76381 0.407219 0.187261 0.132006 0.169511 0.11618 0.0705573 0.0722884 0.0442685 0.0380523 0.0305544 0.026403 0.0176785 0.0138136 0.0109413 0.0111275 0.00605814 0.00519297 0.00666901 0.0127458 0.00734497 0.00399423
threshold=18.500000000000004 286.59500000000008 9.4000000000000021 5.5000000000000009 108.00000000000001 0.8247000000000001 24604.350000000002 0.84085000000000021 0.80180000000000007 0.84045000000000014 0.9587500000000001 213.94000000000003 58.900000000000006 26178.660000000007 31309.160000000003 28.500000000000004 14.500000000000002 0.97230000000000005 49275.428550000004 0.83110000000000006 57537.910000000011 369.4550000000001
decision_type=2 2 2 2 2 10 10 8 10 8 8 2 2 10 8 2 2 10 10 10 10 10
left_child=1 2 3 -1 -5 -3 7 9 10 -6 -2 -10 -9 -11 -13 -16 -7 18 19 -17 -20 -21
right_child=8 5 -4 4 6 16 -8 12 11 13 -12 14 -14 -15 15 17 -18 -19 20 21 -22 -23
leaf_value=-0.0040149894501198694 -0.00077697858650119809 -0.0013364391991763415 -0.0047004026778395339 0.0016206880836425539 0 0.0012252484957468927 -0.00023847509474359094 -0.0040400230547914468 0.00017926111520079899 -0.0012292925589634271 0.00086679986965862194 0.00046974907412605224 -0.0023498831003853655 -0.0026086914606169606 0.0006147824330165095 0.00070362761364292311 0.0021952373522707794 0.0018618766552979528 0.00041981657541642978 0.0021197358874096598 0.0013532144782238864 0.0012003743389804159
leaf_weight=18 15.999999999999998 14.999999999999998 20 15.999999999999998 15.999999999999998 27 28 14.999999999999998 20 25 26 14.999999999999998 22 14.999999999999998 18 15.999999999999998 19 62 19 35 26 15.999999999999998
leaf_count=18 16 15 20 16 16 27 28 15 20 25 26 15 22 15 18 16 19 62 19 35 26 16
internal_value=4.7354e-05 -0.00119504 -0.00193337 -0.00156526 -0.00123111 0.000898425 -0.00162111 -0.00202092 0.00114293 -0.00129222 0.000204747 0.00130982 -0.00308009 -0.00178663 0.00141174 0.00147738 0.00166042 0.00155779 0.00137532 0.00160859 0.000993313 0.00186215
internal_weight=505 236 175 155 137 61 121 93 269 56 42 227 37 40 207 192 46 174 112 67 45 51
internal_count=505 236 175 155 137 61 121 93 269 56 42 227 37 40 207 192 46 174 112 67 45 51
is_linear=0
shrinkage=0.03


Tree=22
num_leaves=19
num_cat=0
split_feature=31 1 31 31 27 31 1 40 39 31 9 31 31 25 47 39 31 2
split_gain=1.69902 0.38461 0.351719 0.180848 0.13224 0.0593148 0.0452407 0.0174229 0.0169098 0.0328604 0.0163083 0.0137038 0.0132498 0.013253 0.00809263 0.00414225 0.00350613 0.000774876
threshold=157.50000000000003 112.50000000000001 134.50000000000003 174.50000000000003 15.500000000000002 112.50000000000001 136.50000000000003 27912.725000000002 40002.345000000008 183.50000000000003 16.500000000000004 148.50000000000003 167.50000000000003 8.3500000000000032 283.31000000000006 41702.510000000009 192.50000000000003 5.5000000000000009
decision_type=2 2 2 2 2 2 2 10 10 2 2 2 2 2 10 10 2 2
left_child=1 4 5 12 -1 -3 -4 -7 17 10 -10 -8 13 15 -14 -2 -11 -5
right_child=3 2 6 8 -6 7 11 -9 9 16 -12 -13 14 -15 -16 -17 -18 -19
leaf_value=-0.0010897120679151989 -6.0319269562134634e-05 -0.0059686350639985529 0 0.0023392753508643498 0.0022754978368883607 -0.0029108172326239566 -0.0023776864253236473 -0.0044667920832437867 0 0.0014062162025761226 0.0013121813595610812 -0.0012461996722730473 0 0.00050661576922126424 0.0010302714483076218 -0.00084845276115349025 0.0020066003782707995 0.0015743567578703442
leaf_weight=27 17 22 14.999999999999998 65 17 20 31 27 17 35 20 26 14.999999999999998 18 20 15.999999999999998 81 15.999999999999998
leaf_count=27 17 22 15 65 17 20 31 27 17 35 20 26 15 18 20 16 81 16
internal_value=4.61296e-05 -0.00223901 -0.00300354 0.00137205 0.000177537 -0.00454449 -0.00150384 -0.00384035 0.00180507 0.00158143 0.000731866 -0.00188941 0.000176051 -0.000107771 0.000631979 -0.000488536 0.00183906 0.00220775
internal_weight=505 185 141 320 44 69 72 47 234 153 37 57 86 51 35 33 116 81
internal_count=505 185 141 320 44 69 72 47 234 153 37 57 86 51 35 33 116 81
is_linear=0
shrinkage=0.03


Tree=23
num_leaves=19
num_cat=0
split_feature=31 0 31 31 26 31 41 40 39 31 9 50 21 25 25 18 31 2
split_gain=1.60045 0.362238 0.330789 0.170227 0.132678 0.0553107 0.0427717 0.0161073 0.015721 0.0307448 0.0153087 0.0132205 0.0202925 0.0114762 0.00775124 0.00606901 0.00311962 0.000512665
threshold=157.50000000000003 34.500000000000007 134.50000000000003 174.50000000000003 20.500000000000004 112.50000000000001 44376.220000000008 25900.220000000005 40002.345000000008 183.50000000000003 16.500000000000004 335.37570000000011 7.7500000000000009 8.4500000000000011 8.3500000000000032 9.9500000000000011 192.50000000000003 5.5000000000000009
decision_type=2 2 2 2 2 2 8 10 10 2 2 10 2 2 2 2 2 2
left_child=1 2 5 11 -3 -1 13 -7 17 10 -10 12 -2 -4 -14 -9 -11 -5
right_child=3 4 6 8 -6 7 -8 15 9 16 -12 -13 14 -15 -16 -17 -18 -19
leaf_value=-0.0057899820419395863 0.0010390457730760105 -0.0012938611327114817 -0.0023802630920062729 0.0022691510277560454 0.0020029950136332734 -0.0026983162253832885 -0.00010231883360532181 -0.0049917239227960271 0 0.0013640899008296738 0.0012729140871350752 -0.00036343505165419915 -0.00054175209139787077 -0.0012881079053724336 0.00036667912381856848 -0.0034014805708315679 0.001946439495256181 0.001527273167603623
leaf_weight=22 27 24 28 65 20 17 18 15.000000000000002 17 35 20 26 15.999999999999998 26 17 14.999999999999998 81 15.999999999999998
leaf_count=22 27 24 28 65 20 17 18 15 17 35 20 26 16 26 17 15 81 16
internal_value=4.47405e-05 -0.00217303 -0.00291501 0.00133171 0.00017123 -0.00440975 -0.00145966 -0.00372633 0.00175185 0.00153478 0.000710616 0.000170778 0.00042736 -0.00188384 -2.85398e-05 -0.0042535 0.00178432 0.00214215
internal_weight=505 185 141 320 44 69 72 47 234 153 37 86 60 54 33 30 116 81
internal_count=505 185 141 320 44 69 72 47 234 153 37 86 60 54 33 30 116 81
is_linear=0
shrinkage=0.03


Tree=24
num_leaves=19
num_cat=0
split_feature=31 0 31 31 31 35 31 31 0 39 31 9 39 41 31 18 9 2
split_gain=1.50878 0.321416 0.323186 0.264813 0.120813 0.052331 0.0457568 0.0293668 0.0256164 0.0146079 0.0287594 0.0143692 0.0102545 0.00632216 0.00276132 0.00238445 0.00133843 0.000272438
threshold=160.50000000000003 17.000000000000004 93.500000000000014 134.50000000000003 174.50000000000003 0.95710000000000017 121.00000000000001 148.50000000000003 36.500000000000007 40002.345000000008 183.50000000000003 16.500000000000004 30085.910000000003 37368.485000000008 192.50000000000003 10.250000000000002 12.500000000000002 5.5000000000000009
decision_type=2 2 2 2 2 8 2 2 2 10 2 2 10 10 2 2 2 2
left_child=1 3 -3 6 12 8 -1 -5 -4 17 11 -11 16 -14 -12 -9 -2 -6
right_child=4 2 5 7 9 -7 -8 15 -10 10 14 -13 13 -15 -16 -17 -18 -19
leaf_value=-0.0056035451148182085 0.00031431948518584725 -0.0035595021028991354 -0.00072457831984144481 -0.0023519096494216967 0.002201128822825076 0.0021314430630712438 -0.0035828564565138451 -0.00068369882481289837 0.0010122057981170292 0 0.0013232255842338732 0.0012348219143352157 -0.00050120774304024244 0.00025228566754450252 0.0018880823366160125 -0.0014148464969351141 0.00096936018240214173 0.0014815977157450445
leaf_weight=23 15.000000000000002 20 15.000000000000002 33 65 20 33 23 14.999999999999998 17 35 20 15.999999999999998 26 81 17 14.999999999999998 15.999999999999998
leaf_count=23 15 20 15 33 65 20 33 23 15 17 35 20 16 26 81 17 15 16
internal_value=4.31461e-05 -0.0019869 -0.000325536 -0.00287631 0.00136835 0.000940344 -0.0044438 -0.0016511 9.41362e-05 0.00170022 0.00148953 0.000690002 0.000268522 0 0.00173122 -0.00103327 0.000692825 0.00207851
internal_weight=505 199 70 129 306 50 56 73 30 234 153 37 72 42 116 40 30 81
internal_count=505 199 70 129 306 50 56 73 30 234 153 37 72 42 116 40 30 81
is_linear=0
shrinkage=0.03


Tree=25
num_leaves=19
num_cat=0
split_feature=31 1 31 31 26 0 31 0 38 31 0 31 31 40 0 33 30 40
split_gain=1.46538 0.269392 0.337138 0.140611 0.126269 0.0750573 0.0410369 0.030795 0.0218457 0.0191305 0.0170791 0.0167502 0.00820763 0.00718246 0.00700232 0.00462 0.00168139 0.000889142
threshold=157.50000000000003 108.00000000000001 134.50000000000003 174.50000000000003 19.500000000000004 10.500000000000002 121.00000000000001 9.5000000000000018 0.94520000000000015 167.50000000000003 28.500000000000004 142.50000000000003 178.50000000000003 29435.855000000003 3.5000000000000004 0.90245000000000009 19.500000000000004 49133.125000000007
decision_type=2 2 2 2 2 2 2 2 10 2 2 2 2 10 2 10 2 10
left_child=1 4 6 7 -1 11 10 9 12 13 -3 -4 -5 -2 -13 -11 -14 -18
right_child=3 2 5 8 -6 -7 -8 -9 -10 15 -12 14 16 -15 -16 -17 17 -19
leaf_value=-0.0014728999724077463 0 -0.0055915064809228176 -0.0026255689996844177 0.0010796905744604787 0.0019794695538022343 0.00048322888474180314 -0.0032059515723819147 0.0014589527847115381 0.00047929823922971125 0.00092298414591046954 -0.0037529090799366515 -0.0019173636300014085 0.0018882981800887729 -0.00078863974686047889 -0.00090524639499312378 6.7190958516646126e-05 0.0017418098188256006 0.00095588980924032202
leaf_weight=20 18 24 18 27 18 15.999999999999998 30 14.999999999999998 17 15.000000000000002 14.999999999999998 17 162 24 25 15.999999999999998 14.999999999999998 17
leaf_count=20 18 24 18 27 18 16 30 15 17 15 15 17 162 24 25 16 15 17
internal_value=5.75879e-05 -0.00208741 -0.002677 0.00126642 0.000123463 -0.00126894 -0.00420414 0.000221781 0.00164624 -1.27228e-05 -0.00492848 -0.00176118 0.0017291 -0.000449435 -0.00135238 0.000530413 0.00181144 0.00137323
internal_weight=509 183 145 326 38 76 69 88 238 73 39 60 221 42 42 31 194 32
internal_count=509 183 145 326 38 76 69 88 238 73 39 60 221 42 42 31 194 32
is_linear=0
shrinkage=0.03


Tree=26
num_leaves=19
num_cat=0
split_feature=31 1 31 31 26 1 37 39 1 38 31 31 39 31 37 1 39 39
split_gain=1.38047 0.253725 0.317153 0.132221 0.118838 0.0708516 0.0465228 0.0361231 0.0289558 0.0204187 0.0180547 0.0155532 0.0148097 0.00756972 0.00677913 0.00645944 0.00315798 0.00696952
threshold=157.50000000000003 108.00000000000001 134.50000000000003 174.50000000000003 19.500000000000004 136.50000000000003 0.6906000000000001 27173.245000000006 137.50000000000003 0.94520000000000015 167.50000000000003 142.50000000000003 39145.975000000013 178.50000000000003 0.84875000000000012 143.50000000000003 42933.230000000003 49611.080000000009
decision_type=2 2 2 2 2 2 8 10 2 10 2 2 10 2 10 2 10 10
left_child=1 4 6 8 -1 -4 -3 -8 -2 13 14 -7 -12 -5 -10 -13 -15 -18
right_child=3 2 5 9 -6 11 7 -9 10 -11 12 15 -14 16 -16 -17 17 -19
leaf_value=-0.0014288231402524094 0.0014153296272719023 -0.0052748620509714076 0.00046877718308644593 0.0010473597209552875 0.0019202499714398812 -0.0025470201108718179 -0.002490638082478932 -0.0044610917477164785 0 0.00046496146825576458 0.0011974597361230402 -0.00087814321217244244 -3.1154989553223766e-05 0.0019781341226766127 -0.00075004291196470831 -0.0018600114079907841 0.00087905343259659188 0.0017029389351611252
leaf_weight=20 14.999999999999998 24 15.999999999999998 27 18 18 25 20 17 17 15.000000000000002 25 15.999999999999998 87 25 17 20 87
leaf_count=20 15 24 16 27 18 18 25 20 17 17 15 25 16 87 25 17 20 87
internal_value=5.59256e-05 -0.00202591 -0.00259811 0.0012293 0.000118597 -0.00123157 -0.00407959 -0.00340367 0.00021569 0.00159765 -1.1077e-05 -0.00170998 0.000515998 0.00167787 -0.000435931 -0.00131298 0.0017576 0.00156344
internal_weight=509 183 145 326 38 76 69 45 88 238 73 60 31 221 42 42 194 107
internal_count=509 183 145 326 38 76 69 45 88 238 73 60 31 221 42 42 194 107
is_linear=0
shrinkage=0.03


Tree=27
num_leaves=25
num_cat=0
split_feature=28 25 37 26 37 20 10 2 10 20 9 12 39 9 40 38 0 2 22 20 33 22 47 5
split_gain=0.535985 0.188255 0.0952351 0.113056 0.0943689 0.0889577 0.0673358 0.0558494 0.0463836 0.0368708 0.0271741 0.0274411 0.025951 0.0253684 0.0193158 0.0153442 0.0146511 0.0147761 0.0143588 0.0179352 0.0130637 0.00325588 0.00254162 0.000259335
threshold=11.500000000000002 8.9500000000000011 0.87170000000000003 34.500000000000007 0.6906000000000001 13.500000000000002 9.5000000000000018 3.5000000000000004 16.500000000000004 14.500000000000002 6.5000000000000009 82.050000000000011 26643.990000000002 19.500000000000004 24222.585000000003 0.94335000000000013 2.5000000000000004 1.0000000180025095e-35 7.9500000000000011 11.500000000000002 0.95635000000000014 7.2500000000000009 265.67000000000002 25.500000000000004
decision_type=2 2 10 2 10 2 10 2 10 2 2 2 8 2 10 10 2 2 2 2 10 2 10 2
left_child=1 4 3 5 -1 7 9 -2 -8 13 -10 14 -3 -6 -12 16 23 -18 19 -5 21 -19 -22 -4
right_child=2 12 15 18 6 -7 8 -9 10 -11 11 -13 -14 -15 -16 -17 17 20 -20 -21 22 -23 -24 -25
leaf_value=-0.0027959835696158798 -0.0023420470944228592 -0.00230787951412589 0.0013357665563109745 0 6.6612886839380854e-05 0.00084382536692783196 -0.002237408437519049 -0.00020580861947917361 0.00046867647455801003 -0.00065100439428168483 -0.0005155611061723129 2.1008166431935117e-05 -0.0044377425298144256 0.0018891638747580422 -0.0021643715036098908 0.00036354515245374364 0.00017726461953065524 0.00035089434843483841 0.0018485916276851037 0.0012210476377195966 0.0021146462446827428 0.0011069172220706839 0.0012606513569938305 0.0018771737113575078
leaf_weight=19 26 15.000000000000002 32 15.999999999999998 16.000000000000004 23 22 22 14.999999999999998 19 14.999999999999998 14.999999999999998 14.999999999999998 14.999999999999998 17 22 19 21 19 26 14.999999999999998 14.999999999999998 28 42
leaf_count=19 26 15 32 16 16 23 22 22 15 19 15 15 15 15 17 22 19 21 19 26 15 15 28 42
internal_value=5.41609e-05 -0.00124181 0.000786331 0.000151545 -0.000802293 -0.000648814 -0.000507478 -0.00139539 -0.00103066 0.000341647 -0.000576825 -0.00094252 -0.00342834 0.000998424 -0.0014403 0.00121037 0.00130983 0.0010261 0.00110745 0.000734697 0.00121103 0.000708611 0.00159551 0.00166437
internal_weight=509 183 326 132 153 71 134 48 84 50 62 47 30 31 32 194 172 98 61 42 79 36 43 74
internal_count=509 183 326 132 153 71 134 48 84 50 62 47 30 31 32 194 172 98 61 42 79 36 43 74
is_linear=0
shrinkage=0.03


Tree=28
num_leaves=20
num_cat=0
split_feature=31 1 31 31 26 31 1 1 1 38 31 39 50 39 31 39 40 21 7
split_gain=1.25156 0.231503 0.28979 0.120792 0.109291 0.0707266 0.0638602 0.0265772 0.0193823 0.0180267 0.0164364 0.0138372 0.00920737 0.00744755 0.0194464 0.017099 0.00699227 0.00663334 0.00418413
threshold=157.50000000000003 108.00000000000001 140.50000000000003 174.50000000000003 19.500000000000004 121.00000000000001 139.50000000000003 137.50000000000003 138.50000000000003 0.94520000000000015 167.50000000000003 39145.975000000013 219.85215000000002 39614.215000000004 183.50000000000003 46847.17500000001 29435.855000000003 7.7500000000000009 447.50000000000006
decision_type=2 2 2 2 2 2 2 2 2 10 2 10 10 10 2 10 10 2 2
left_child=1 4 5 7 -1 12 -4 -2 -7 13 16 -12 -3 -5 15 -15 -9 -10 -8
right_child=3 2 6 9 -6 8 18 10 17 -11 11 -13 -14 14 -16 -17 -18 -19 -20
leaf_value=-0.0013644631127095281 0.0013504591491382777 -0.003560903192160533 0.00070597841651547598 0.0018673829768610078 0.0018467627096291721 -0.0015916809305994216 -0.0019257552338124981 0 -0.0038867917396994524 0.00044907504807382032 0.0011456820290950292 -4.1014536533604807e-05 -0.0051364388566255068 0 0.0016303987644031253 0.0012982940687027971 -0.00075684075986312029 -0.0025119129272075146 -0.001014848186345589
leaf_weight=20 14.999999999999998 14.999999999999998 17 90 18 14.999999999999998 17 18 14.999999999999998 17 15.000000000000002 15.999999999999998 24 14.999999999999998 97 19 24 19 23
leaf_count=20 15 15 17 90 18 15 17 18 15 17 15 16 24 15 97 19 24 19 23
internal_value=5.29162e-05 -0.00192919 -0.0024758 0.0011703 0.00011765 -0.00355964 -0.000774574 0.000200681 -0.0027177 0.00152239 -1.58031e-05 0.000485805 -0.00457421 0.00159805 0.00140092 0.000700764 -0.000421847 -0.00316735 -0.00144136
internal_weight=509 183 145 326 38 88 57 88 49 238 73 31 39 221 131 34 42 34 40
internal_count=509 183 145 326 38 88 57 88 49 238 73 31 39 221 131 34 42 34 40
is_linear=0
shrinkage=0.03


Tree=29
num_leaves=19
num_cat=0
split_feature=31 40 31 44 31 31 41 49 20 31 2 7 45 49 47 9 48 40
split_gain=1.179 0.199457 0.192916 0.23703 0.121107 0.113688 0.0408868 0.020596 0.0145546 0.0141489 0.020898 0.00904677 0.00865679 0.00978034 0.00602115 0.00482169 0.0041904 0.00153655
threshold=157.50000000000003 15306.585000000001 103.50000000000001 19108.666400000006 142.50000000000003 174.50000000000003 12547.825000000003 329.89500000000004 13.500000000000002 183.50000000000003 3.5000000000000004 544.50000000000011 288.91000000000003 266.77500000000003 304.26500000000004 10.500000000000002 453.81000000000006 41755.245000000003
decision_type=2 8 2 10 2 2 10 10 2 2 2 2 10 10 10 2 10 10
left_child=1 6 -3 -4 12 7 -1 8 -2 10 17 -10 13 -5 -6 -12 -11 -7
right_child=5 2 3 4 14 9 -8 -9 11 16 15 -13 -14 -15 -16 -17 -18 -19
leaf_value=0.00089959328728062753 -2.6557592356902851e-05 -0.0047019918920565224 0.0016266314507124824 -0.0036188757530996726 -0.001441969923017656 0.001832139859879445 -0.0010872900266000113 -0.00056954009217672599 0.0012370846476284644 0.001733130046755071 0 0.00019628898538321342 -0.0040433924216923753 -0.0022509790499999696 -0.00052975426638318646 0.00078521122501149876 0.0010230889260662054 0.0010234961664594979
leaf_weight=22 26 27 14.999999999999998 15.999999999999998 28 25 15.999999999999998 22 23 142 14.999999999999998 17 19 23 17 21 20 14.999999999999998
leaf_count=22 26 27 15 16 28 25 16 22 23 142 15 17 19 23 17 21 20 15
internal_value=5.10056e-05 -0.0018727 -0.00237975 -0.00183391 -0.00235298 0.0011356 2.32596e-05 0.000194337 0.000471911 0.00147721 0.00107753 0.000832997 -0.00327295 -0.00285449 -0.00113162 0.00048953 0.00165507 0.00156801
internal_weight=509 183 145 118 103 326 38 88 66 238 76 40 58 39 45 36 162 40
internal_count=509 183 145 118 103 326 38 88 66 238 76 40 58 39 45 36 162 40
is_linear=0
shrinkage=0.03


Tree=30
num_leaves=21
num_cat=0
split_feature=31 44 31 31 31 44 31 39 31 9 47 49 33 0 43 43 37 10 40 12
split_gain=1.08218 0.238021 0.293721 0.2002 0.0724399 0.0636714 0.0402602 0.0274534 0.0312229 0.0199684 0.0246142 0.0156023 0.0126604 0.00933084 0.0062405 0.00727726 0.00473165 0.00247091 0.0026433 0.0018851
threshold=160.50000000000003 23099.371800000004 92.500000000000014 140.50000000000003 182.50000000000003 18369.936400000002 121.00000000000001 39614.215000000004 167.50000000000003 15.500000000000002 383.9550000000001 189.48215000000002 0.96475000000000011 5.5000000000000009 30210.026450000005 36121.137150000002 0.88055000000000005 16.500000000000004 49874.595000000008 80.450000000000017
decision_type=2 8 2 2 2 10 2 10 2 2 10 10 10 2 10 10 10 10 10 2
left_child=1 2 -1 6 7 11 -3 8 -2 10 -9 -4 -11 -5 -8 -16 -10 18 -6 -19
right_child=4 3 5 13 17 -7 14 9 16 12 -12 -13 -14 -15 15 -17 -18 19 -20 -21
leaf_value=-0.0035533031563120565 0 -0.0044727381237553579 0.0022079985254557333 -0.0014881772772653156 0.0019000763609937699 -0.00058034647632204434 -0.0035507652852858336 -0.001218536483628727 0.0011010048806800996 4.644459553473573e-06 0.00042426772208333609 0.00082771300010987218 0.0011843994442065516 -0.00063956558423119893 -0.0016414663565044974 -0.002979298243734324 0.0019814829745731393 0.0014966753998943737 0.0013426637178389463 0.00089558843629222772
leaf_weight=19 19 27 15.999999999999998 36 66 21 15.999999999999998 16.000000000000004 32 19 14.999999999999998 24 19 30 15.000000000000002 15.999999999999998 17 41 39 25
leaf_count=19 19 27 16 36 66 21 16 16 32 19 15 24 19 30 15 16 17 41 39 25
internal_value=-5.59466e-06 -0.00161522 -0.000288093 -0.00236249 0.00113934 0.000706447 -0.00344361 0.000606862 0.00103882 0.000159001 -0.000375919 0.00141935 0.000634725 -0.00112593 -0.0028164 -0.00238396 0.00143877 0.00155688 0.00170805 0.00129255
internal_weight=528 220 80 140 308 61 74 137 68 69 31 40 38 66 47 31 49 171 105 66
internal_count=528 220 80 140 308 61 74 137 68 69 31 40 38 66 47 31 49 171 105 66
is_linear=0
shrinkage=0.03


Tree=31
num_leaves=22
num_cat=0
split_feature=31 50 31 31 1 31 31 41 38 31 27 37 0 35 40 24 10 31 10 34 40
split_gain=1.0199 0.231542 0.236351 0.114121 0.0774963 0.0680121 0.0617494 0.0287409 0.0245702 0.0238057 0.0161921 0.0124132 0.0130058 0.0115465 0.00820758 0.00817534 0.00803075 0.00946372 0.00216236 0.00543865 0.00232096
threshold=160.50000000000003 204.97910000000005 140.50000000000003 93.500000000000014 115.50000000000001 182.50000000000003 121.00000000000001 21171.625000000004 0.93395000000000017 167.50000000000003 9.5000000000000018 0.80440000000000011 4.5000000000000009 0.88770000000000004 28839.005000000005 6.2500000000000009 30.500000000000004 153.50000000000003 16.500000000000004 0.99275000000000013 49874.595000000008
decision_type=2 8 2 2 2 2 2 10 10 2 2 10 2 10 10 2 10 2 10 10 10
left_child=1 3 6 -1 -5 8 10 -4 9 14 -3 -11 15 -8 -2 -13 17 -9 20 -20 -7
right_child=5 2 7 4 -6 18 13 16 -10 11 -12 12 -14 -15 -16 -17 -18 -19 19 -21 -22
leaf_value=-0.0021923514630071048 0.00053511078353426665 -0.0052162200783457714 0.00013122978111050116 0.0016611264173728654 -0.00087878736023242778 0.0018431172137100035 -0.0029940839533310198 -0.0013003139734870479 -0.00027951510783069493 0.00018927620984156426 -0.0034366102059583117 0.00016830275335029597 0.0017243008894501828 -0.001757354784774596 -0.00045218955900247802 0.0011792151597627126 -0.0018718372704870886 -0.00022751671340420979 0.0014278524745170538 0.00056269401801979017 0.0013024353892864388
leaf_weight=15.999999999999998 15.000000000000002 15.999999999999998 15.999999999999998 30 15.999999999999998 66 27 25 22 17 20 17 30 21 14.999999999999998 21 17 15.999999999999998 51 14.999999999999998 39
leaf_count=16 15 16 16 30 16 66 27 25 22 17 20 17 30 21 15 21 17 16 51 15 39
internal_value=-5.18355e-06 -0.00156789 -0.00217741 0 0.00074511 0.00110624 -0.00327313 -0.000911993 0.000589705 0.000769078 -0.00427529 0.00102568 0.00121245 -0.00248662 0 0.000767202 -0.00122548 -0.000918989 0.00151101 0.00125451 0.00165729
internal_weight=528 220 158 62 46 308 84 74 137 115 36 85 68 48 30 38 58 41 171 66 105
internal_count=528 220 158 62 46 308 84 74 137 115 36 85 68 48 30 38 58 41 171 66 105
is_linear=0
shrinkage=0.03


Tree=32
num_leaves=21
num_cat=0
split_feature=31 50 31 31 1 31 31 39 31 1 29 27 27 35 38 38 37 39 34 10
split_gain=0.961306 0.218027 0.222402 0.107322 0.072998 0.0639044 0.0578193 0.0247866 0.0282049 0.0192343 0.0184994 0.0148269 0.0128267 0.0106236 0.00751533 0.00578217 0.0042517 0.00190582 0.00113816 0.00221656
threshold=160.50000000000003 204.97910000000005 140.50000000000003 93.500000000000014 115.50000000000001 182.50000000000003 121.00000000000001 39614.215000000004 167.50000000000003 138.50000000000003 10.500000000000002 9.5000000000000018 14.500000000000002 0.88770000000000004 0.8438500000000001 0.92000000000000015 0.88055000000000005 33509.285000000011 0.99275000000000013 16.500000000000004
decision_type=2 8 2 2 2 2 2 10 2 2 2 2 2 10 10 10 10 10 10 10
left_child=1 3 6 -1 -5 7 11 8 -2 -4 -9 -3 -11 -8 -12 -16 -10 -7 -19 -20
right_child=5 2 9 4 -6 17 13 10 16 12 14 -13 -14 -15 15 -17 -18 18 19 -21
leaf_value=-0.0021267858043173761 0 -0.0050602210194708027 0 0.0016113755423048767 -0.00085250589369891959 0.0018540696107002205 -0.0029044274924677591 -0.00061676699664502393 0.0010377606846008584 -0.00052915801910382362 0 -0.0033337690003049049 -0.0015546408827513817 -0.0017047593617400332 0.0011698269429747186 0.0002268852564421567 0.0018834416180455785 0.0014732134535364698 0.0012946150030884204 0.00054586928995307602
leaf_weight=15.999999999999998 19 15.999999999999998 15.999999999999998 30 15.999999999999998 32 27 19 32 25 17 20 33 21 15.999999999999998 17 17 101 23 14.999999999999998
leaf_count=16 19 16 16 30 16 32 27 19 32 25 17 20 33 21 16 17 17 101 23 15
internal_value=-4.9709e-06 -0.00152221 -0.00211367 0 0.000721805 0.00107397 -0.00317678 0.000572704 0.000983236 -0.000885307 0.00014598 -0.00414864 -0.0011393 -0.00241311 0.00046612 0.000730533 0.00136336 0.00146651 0.00136587 0.00103958
internal_weight=528 220 158 62 46 308 84 137 68 74 69 36 58 48 50 33 49 171 139 38
internal_count=528 220 158 62 46 308 84 137 68 74 69 36 58 48 50 33 49 171 139 38
is_linear=0
shrinkage=0.03


Tree=33
num_leaves=21
num_cat=0
split_feature=31 44 31 31 31 44 31 39 31 38 9 47 13 9 25 9 10 34 40 39
split_gain=0.906006 0.204738 0.252177 0.167889 0.0600662 0.0532693 0.0316656 0.0233496 0.0261075 0.019366 0.0182336 0.022602 0.0184006 0.00802375 0.00707806 0.00449859 0.00180505 0.00450017 0.00202459 0.00025439
threshold=160.50000000000003 23099.371800000004 92.500000000000014 140.50000000000003 182.50000000000003 18369.936400000002 121.00000000000001 40002.345000000008 167.50000000000003 0.84975000000000012 15.500000000000002 383.9550000000001 60.550000000000004 30.500000000000004 8.7500000000000018 16.500000000000004 16.500000000000004 0.99275000000000013 49874.595000000008 27551.555000000004
decision_type=2 8 2 2 2 10 2 10 2 10 2 10 2 2 2 2 10 10 10 10
left_child=1 2 -1 6 7 9 -3 8 -2 -4 11 -9 -12 15 -8 -5 18 -18 -6 -10
right_child=4 3 5 13 16 -7 14 10 19 -11 12 -13 -14 -15 -16 -17 17 -19 -20 -21
leaf_value=-0.0032725030993382758 0 -0.0040894070452220342 0.0019493861425490607 -0.00089187574067605779 0.0017402106765826869 -0.00049709498348608251 -0.0030147912534063352 -0.001179655419888897 0.00097588412624371372 0.00047974409194988222 0 0.00039106786733746919 0.0013246959222267623 -0.00041251251007200327 -0.0018870029881537897 -0.0017323497430546076 0.001339115210116479 0.00052954759204719968 0.0012213124752058987 0.0015547257358379904
leaf_weight=19 19 27 22 27 66 21 28 16.000000000000004 24 18 20 14.999999999999998 17 20 19 19 51 14.999999999999998 39 26
leaf_count=19 19 27 22 27 66 21 28 16 24 18 20 15 17 20 19 19 51 15 39 26
internal_value=-4.76942e-06 -0.0014778 -0.000245618 -0.00217085 0.00104259 0.000674521 -0.00316179 0.00055605 0.000948688 0.00132692 0.000135191 -0.000371913 0.000600476 -0.00103554 -0.00259325 -0.00127311 0.00142335 0.00117837 0.00156243 0.0013081
internal_weight=528 220 80 140 308 61 74 137 69 40 68 31 37 66 47 46 171 66 105 50
internal_count=528 220 80 140 308 61 74 137 69 40 68 31 37 66 47 46 171 66 105 50
is_linear=0
shrinkage=0.03


Tree=34
num_leaves=22
num_cat=0
split_feature=31 50 31 0 31 26 41 27 38 0 31 39 9 31 40 45 37 30 45 13 0
split_gain=0.853856 0.194567 0.199236 0.0990453 0.0564421 0.0387418 0.0339574 0.0273986 0.0220589 0.0200223 0.0197571 0.0144314 0.0140796 0.0116278 0.00756577 0.00645666 0.00635932 0.00422207 0.00170865 0.0016345 0.000739696
threshold=160.50000000000003 204.97910000000005 134.50000000000003 34.500000000000007 182.50000000000003 12.500000000000002 21171.625000000004 17.500000000000004 0.93395000000000017 7.5000000000000009 167.50000000000003 40002.345000000008 15.500000000000002 148.50000000000003 28839.005000000005 268.18500000000006 0.88055000000000005 10.500000000000002 420.82500000000005 57.800000000000004 4.5000000000000009
decision_type=2 8 2 2 2 2 10 2 10 2 2 10 2 2 10 10 10 2 10 2 2
left_child=1 3 5 -1 8 -3 -4 -5 10 -7 14 16 -13 19 -2 -15 20 -6 -19 -8 -12
right_child=4 2 6 7 17 9 13 -9 -10 -11 11 12 -14 15 -16 -17 -18 18 -20 -21 -22
leaf_value=-0.0014672753534106882 0.0005203378601989822 -0.0044969810345980125 9.6416265356881508e-05 0.00022097643958974859 0.0015214781462785077 -0.0033024204892908187 -0.0012805059331112373 0.0019764855840673475 -0.00028224348565753621 -0.0018399884042703881 0.00060928357975377186 -5.9041761917861416e-05 0.0010294337682728472 -0.0014480255367396787 -0.00042624690233454402 -0.00049874614851345706 0.0019430827846954825 0.0013278365371982926 0.00074215612192775175 -0.0022103333502798994 0.0012754639455324587
leaf_weight=25 15.000000000000002 19 17 22 116 28 15.999999999999998 14.999999999999998 22 22 17 19 19 14.999999999999998 14.999999999999998 25 14.999999999999998 27 28 15.999999999999998 14.999999999999998
leaf_count=25 15 19 17 22 116 28 16 15 22 22 17 19 19 15 15 25 15 27 28 16 15
internal_value=-4.4886e-06 -0.00143458 -0.00199331 0 0.0010122 -0.00321321 -0.00102943 0.000974862 0.000539993 -0.0026914 0.000710382 0.000944308 0.000446412 -0.00131595 0 -0.000893542 0.00131408 0.00138148 0.00105786 -0.00179494 0.00096986
internal_weight=528 220 158 62 308 69 89 37 137 50 115 85 38 72 30 40 47 171 55 32 32
internal_count=528 220 158 62 308 69 89 37 137 50 115 85 38 72 30 40 47 171 55 32 32
is_linear=0
shrinkage=0.03


Tree=35
num_leaves=22
num_cat=0
split_feature=31 0 31 31 0 31 0 9 37 10 5 28 35 40 2 31 2 3 9 2 2
split_gain=0.836071 0.201326 0.184618 0.0576092 0.052394 0.0459333 0.0317514 0.0177696 0.0145986 0.014018 0.0162347 0.0127888 0.00918712 0.00472583 0.00422709 0.00871349 0.00487913 0.0035335 0.00336884 0.00192002 7.6127e-05
threshold=160.50000000000003 58.500000000000007 142.50000000000003 170.50000000000003 33.500000000000007 121.00000000000001 7.5000000000000009 6.5000000000000009 0.85000000000000009 24.500000000000004 23.500000000000004 8.5000000000000018 0.96590000000000009 29655.085000000003 3.5000000000000004 179.50000000000003 4.5000000000000009 3.5000000000000004 22.500000000000004 1.0000000180025095e-35 2.5000000000000004
decision_type=2 2 2 2 2 2 2 2 10 10 2 2 10 10 2 2 2 2 2 2 2
left_child=1 2 4 12 5 17 11 9 -7 10 -5 -4 13 -2 19 -16 -17 -1 -13 -9 -21
right_child=3 -3 6 7 -6 8 -8 14 -10 -11 -12 18 -14 -15 15 16 -18 -19 -20 20 -22
leaf_value=-0.0031145281244403492 0.00024854734470368514 0.0011430794253557467 -0.00017362168460232245 0.0009099176014887349 -0.0011826666170371048 -0.0018619096052004383 0.00044721381720448807 0.0010346037060942614 -0.0030870482229988254 0.0012916985622322755 -0.00028879313629089635 -0.0016746357372069312 0.00072339634184734282 -0.00039758781208598643 0.00035620099333959204 0.00072639775562316098 0.0014949192773513885 -0.0045292620151956503 -0.00075419231286996419 0.0018414664363049951 0.0013312072604161978
leaf_weight=15.000000000000002 14.999999999999998 23 17 20 24 38 19 21 21 25 18 18 15.999999999999998 24 15.999999999999998 20 47 15.999999999999998 14.999999999999998 49 33
leaf_count=15 15 23 17 20 24 38 19 21 21 25 18 18 16 24 16 20 47 16 15 49 33
internal_value=1.15347e-05 -0.00146086 -0.00179655 0.00101428 -0.00254134 -0.00288613 -0.000543354 0.00120901 -0.00232562 0.000719876 0.000303052 -0.000949811 0.000105162 -0.000110662 0.00136639 0.00112724 0.00128859 -0.00389914 -0.00130341 0.0015439 0.00165534
internal_weight=510 206 183 304 114 90 69 249 59 63 38 50 55 39 186 83 67 31 33 103 82
internal_count=510 206 183 304 114 90 69 249 59 63 38 50 55 39 186 83 67 31 33 103 82
is_linear=0
shrinkage=0.03


Tree=36
num_leaves=22
num_cat=0
split_feature=31 1 31 31 45 18 1 26 9 38 26 28 37 35 40 2 31 2 9 18 2
split_gain=0.788157 0.189792 0.173725 0.0542232 0.0498371 0.036462 0.0300114 0.0179118 0.0166789 0.0160396 0.0129436 0.0119774 0.00926005 0.00863504 0.00445787 0.00383308 0.00810503 0.00446542 0.0030439 0.00247093 0.00166698
threshold=160.50000000000003 88.500000000000014 142.50000000000003 170.50000000000003 175.29500000000002 12.550000000000002 139.50000000000003 17.500000000000004 6.5000000000000009 0.91280000000000017 24.500000000000004 8.5000000000000018 0.86200000000000021 0.96590000000000009 29655.085000000003 3.5000000000000004 179.50000000000003 4.5000000000000009 22.500000000000004 8.5500000000000025 1.0000000180025095e-35
decision_type=2 2 2 2 8 2 2 2 2 10 2 2 10 10 10 2 2 2 2 2 2
left_child=1 -1 4 13 -3 10 -4 -7 9 12 19 -8 -5 14 -2 20 -17 -18 -13 -6 -10
right_child=3 2 6 8 5 7 11 -9 15 -11 -12 18 -14 -15 -16 16 17 -19 -20 -21 -22
leaf_value=0.0011088614293056943 0.00024111568132582491 -0.001025988914845666 0.00043383262120187281 0.00041051149365536161 -0.0044798196688838974 -0.0027048290033070809 -0.0001684283202819941 -0.0012631735374659936 0.0010036393203783664 0 -0.0023720101058204595 -0.0016245358236475235 0.0014462831067676479 0.00070176209096805512 -0.00038568498662105619 0.00034554822283370471 0.00070466016556259398 0.001450119354107935 -0.0007316417187805043 -0.0031771414228311677 0.0016062824868714571
leaf_weight=23 14.999999999999998 21 19 19 14.999999999999998 22 17 21 21 20 15.999999999999998 18 24 15.999999999999998 24 15.999999999999998 20 47 14.999999999999998 19 82
leaf_count=23 15 21 19 19 15 22 17 21 21 20 16 18 24 16 24 16 20 47 15 19 82
internal_value=1.12606e-05 -0.00141823 -0.00174426 0.000984938 -0.00246686 -0.00277537 -0.000527752 -0.00203789 0.00117388 0.000698325 -0.00337695 -0.000923192 0.00102447 0.000102023 -0.000106195 0.00132666 0.00109455 0.00125066 -0.00126578 -0.00380164 0.00149852
internal_weight=510 206 183 304 114 93 69 43 249 63 50 50 43 55 39 186 83 67 33 34 103
internal_count=510 206 183 304 114 93 69 43 249 63 50 50 43 55 39 186 83 67 33 34 103
is_linear=0
shrinkage=0.03


Tree=37
num_leaves=21
num_cat=0
split_feature=31 1 31 31 45 0 7 31 9 38 28 37 35 40 30 31 45 31 35 10
split_gain=0.743165 0.179001 0.172666 0.0510348 0.0437709 0.0314422 0.0175938 0.0170459 0.0155943 0.0151286 0.0117871 0.00861451 0.00811592 0.00420527 0.0032629 0.00649002 0.00358459 0.00197306 0.00186233 0.000600261
threshold=160.50000000000003 90.000000000000014 140.50000000000003 170.50000000000003 175.29500000000002 7.5000000000000009 524.00000000000011 117.50000000000001 6.5000000000000009 0.91280000000000017 8.5000000000000018 0.86200000000000021 0.96590000000000009 29655.085000000003 10.500000000000002 193.50000000000003 393.01500000000004 175.50000000000003 0.82005000000000006 7.5000000000000009
decision_type=2 2 2 2 8 2 2 2 2 10 2 10 10 10 2 2 10 2 10 10
left_child=1 -1 4 12 -3 10 7 -6 9 11 -4 -5 13 -2 17 16 -16 -10 -8 -19
right_child=3 2 5 8 6 -7 18 -9 14 -11 -12 -13 -14 -15 15 -17 -18 19 -20 -21
leaf_value=0.00091092541779886618 0.00023390624211154306 -0.0010086034208992779 -0.00026744789005393054 0.00039822847789564117 -0.0029975810524181276 0.00042085180719067728 -0.0038938020360399419 -0.0016539480826041062 0.00084046520713356235 0 -0.0012946244649796317 0.0014029848283416205 0.00068077480746868326 -0.00037413848784757998 0.00096755419600990094 0.0013851359759951473 0.00016684716457237756 0.0011529991694056952 -0.0027583365142345427 0.0016128539474390786
leaf_weight=26 14.999999999999998 18 20 19 23 19 19 27 17 20 35 24 15.999999999999998 24 15.000000000000002 27 15.999999999999998 35 19 76
leaf_count=26 15 18 20 19 23 19 19 27 17 20 35 24 16 24 15 27 16 35 19 76
internal_value=1.08935e-05 -0.00137711 -0.0017161 0.000956456 -0.00249658 -0.00057693 -0.00278315 -0.00230437 0.00113978 0.000678098 -0.000948936 0.000994844 9.89772e-05 -0.000101863 0.00128787 0.0009941 0.000603529 0.00140883 -0.00336986 0.00148195
internal_weight=510 206 180 304 106 74 88 50 249 63 55 43 55 39 186 58 31 128 38 111
internal_count=510 206 180 304 106 74 88 50 249 63 55 43 55 39 186 58 31 128 38 111
is_linear=0
shrinkage=0.03


Tree=38
num_leaves=18
num_cat=0
split_feature=31 0 31 31 0 31 41 50 37 41 31 2 31 34 34 2 50
split_gain=0.700595 0.169374 0.154666 0.0480819 0.0471217 0.0396311 0.0273939 0.0192022 0.0125228 0.0115847 0.00928337 0.00645832 0.0112541 0.00723575 0.00524537 0.00416375 0.000894972
threshold=160.50000000000003 58.500000000000007 142.50000000000003 175.50000000000003 33.500000000000007 121.00000000000001 22266.940000000002 343.96645000000007 0.85000000000000009 43798.555000000008 167.50000000000003 2.5000000000000004 185.50000000000003 0.89910000000000012 0.83095000000000008 1.0000000180025095e-35 306.59785000000005
decision_type=2 2 2 2 2 2 10 10 10 10 2 2 2 10 10 2 10
left_child=1 2 4 7 5 14 -4 10 -7 16 -2 15 13 -13 -1 -5 -8
right_child=3 -3 6 11 -6 8 9 -9 -10 -11 -12 12 -14 -15 -16 -17 -18
leaf_value=-0.0028485159673423402 0.00014976381801714778 0.0010483992562392915 0.00045647788877983331 0.0009229299995206923 -0.0010364874641327747 -0.0016932202204994605 -0.0015679828342409228 -0.00036240553497308921 -0.002840571512696012 -0.00017664447859457627 0.0009714548827001626 0 0.0012116533523878847 0.00085584665232669814 -0.0042870900747783948 0.0016151607189063019 -0.00082077332425458337
leaf_weight=16.000000000000004 29 23 18 24 24 38 14.999999999999998 25 21 19 31 18 91 29 14.999999999999998 57 17
leaf_count=16 29 23 18 24 24 38 15 25 21 19 31 18 91 29 15 57 17
internal_value=1.08151e-05 -0.00133676 -0.00164494 0.000928981 -0.00232694 -0.00265364 -0.000495554 0.000299072 -0.00212906 -0.000861066 0.000599739 0.00116649 0.00100094 0.000560214 -0.00359869 0.00142926 -0.00121973
internal_weight=510 206 183 304 114 90 69 85 59 51 60 219 138 47 31 81 32
internal_count=510 206 183 304 114 90 69 85 59 51 60 219 138 47 31 81 32
is_linear=0
shrinkage=0.03


Tree=39
num_leaves=23
num_cat=0
split_feature=31 1 31 31 45 41 2 31 1 2 31 34 13 32 47 33 33 2 5 40 33 36
split_gain=0.660618 0.187378 0.0920036 0.0800475 0.0395936 0.0275238 0.0165591 0.0330609 0.0131198 0.0103337 0.0197291 0.0105816 0.00658423 0.0090825 0.00600134 0.00404245 0.00397705 0.00288899 0.00241225 0.00171697 0.00145324 0.000220878
threshold=154.50000000000003 90.000000000000014 140.50000000000003 170.50000000000003 175.29500000000002 22266.940000000002 3.5000000000000004 121.00000000000001 138.50000000000003 3.5000000000000004 184.50000000000003 0.92000000000000004 59.800000000000004 268.62500000000006 293.06000000000006 0.94500000000000017 0.81270000000000009 4.5000000000000009 31.500000000000004 33829.745000000003 0.78370000000000017 0.98730000000000018
decision_type=2 2 2 2 8 10 2 2 2 2 2 10 2 2 10 10 10 2 2 10 10 8
left_child=1 -1 4 8 -3 -4 7 -6 -2 12 11 -11 21 -14 16 -16 -10 -12 -13 -7 -9 -5
right_child=3 2 5 9 6 19 -8 20 14 10 17 18 13 -15 15 -17 -18 -19 -20 -21 -22 -23
leaf_value=0.00085946157121505296 0.00073494678576233789 -0.00093349376907494736 0.00022730732793597693 0.0011131213069814224 -0.0037056051579794445 -0.0016092999435441432 -0.0018179969466693569 -0.0015521109682133422 0 -0.00025895644101166281 0.00066816665807000342 0.00096286066950134841 0.00050028743467208725 0.0013374145617429567 0.00045317136784675099 -0.00021457663101400942 -0.00075514578607695118 0.0013227226020660059 0.00022885242371860134 -0.00078722798387372039 -0.0025551458747587468 0.0016796704416398762
leaf_weight=26 17 18 15.999999999999998 22 31 15.000000000000002 26 15.000000000000002 14.999999999999998 15.999999999999998 20 15.000000000000002 29 35 15.000000000000002 14.999999999999998 20 49 14.999999999999998 15.999999999999998 15.999999999999998 48
leaf_count=26 17 18 16 22 31 15 26 15 15 16 20 15 29 35 15 15 20 49 15 16 16 48
internal_value=1.03774e-05 -0.00145465 -0.00185785 0.000807272 -0.00235395 -0.000705775 -0.00262677 -0.00294002 0 0.00107495 0.000826209 0.000299219 0.00127685 0.000982197 -0.00019986 6.95791e-05 -0.000473373 0.00115534 0.000646765 -0.00123526 -0.0021214 0.00152395
internal_weight=510 179 153 331 106 47 88 62 82 249 115 46 134 64 65 30 35 69 30 31 31 70
internal_count=510 179 153 331 106 47 88 62 82 249 115 46 134 64 65 30 35 69 30 31 31 70
is_linear=0
shrinkage=0.03


Tree=40
num_leaves=23
num_cat=0
split_feature=31 44 31 31 31 34 39 39 10 9 38 37 12 27 30 7 5 18 3 32 7 9
split_gain=0.579806 0.178214 0.125921 0.0781686 0.0661504 0.0240871 0.0235144 0.0187377 0.017461 0.010867 0.00902681 0.00850777 0.00909919 0.0080561 0.00333435 0.00372568 0.00311955 0.00417301 0.00281332 0.00233376 0.00209593 2.61233e-05
threshold=157.50000000000003 23099.371800000004 92.500000000000014 134.50000000000003 175.50000000000003 0.94285000000000008 30085.910000000003 17391.675000000007 22.500000000000004 11.500000000000002 0.94495000000000007 0.94055000000000011 60.20000000000001 13.500000000000002 13.500000000000002 485.00000000000006 38.500000000000007 12.950000000000001 9.5000000000000018 235.64000000000001 464.00000000000006 20.500000000000004
decision_type=2 10 2 2 2 8 10 10 10 2 10 10 2 2 2 2 2 2 2 2 2 2
left_child=1 2 -1 8 6 7 9 -4 18 -2 14 12 -8 -5 16 -16 17 21 -3 -15 -19 -6
right_child=4 3 5 13 10 -7 11 -9 -10 -11 -12 -13 -14 19 15 -17 -18 20 -20 -21 -22 -23
leaf_value=-0.0023032191585847708 2.9403443360848678e-05 -0.0027569711325145956 -0.00051228257566342283 -0.00070822489589109528 0.0010788015892084595 0.0016502793779091854 0 0.00087161629140851719 -0.001949189226552313 0.0011287613662359769 0.00035946023044294845 0.00021350804626496923 -0.00088779676988556236 -0.0020008338402921905 0.00039291462155320014 0.0011092777648919383 0.0017005598393385994 0.001052689067148995 -0.0039708093491899604 -0.0011143293155459904 0.00036293747816802392 0.0014852452666207188
leaf_weight=17 17 21 15.999999999999998 26 55 15.999999999999998 14.999999999999998 18 21 23 20 20 23 15.999999999999998 21 24 25 15.999999999999998 14.999999999999998 19 18 41
leaf_count=17 17 21 16 26 55 16 15 18 21 23 20 20 23 16 21 24 25 16 15 19 18 41
internal_value=1.68685e-05 -0.00131526 -5.6262e-05 -0.00201708 0.000796648 0.000679271 0.000130697 0.000176521 -0.00283655 0.000699607 0.00108639 -0.00023608 -0.000512097 -0.00122507 0.00115147 0.000809078 0.00124091 0.00114036 -0.00330915 -0.00156466 0.000732648 0.00126869
internal_weight=503 185 67 118 318 50 98 34 57 40 220 58 38 61 200 45 155 130 36 35 34 96
internal_count=503 185 67 118 318 50 98 34 57 40 220 58 38 61 200 45 155 130 36 35 34 96
is_linear=0
shrinkage=0.03


Tree=41
num_leaves=20
num_cat=0
split_feature=31 50 31 31 32 31 40 12 50 37 38 43 35 25 30 39 5 32 31
split_gain=0.547353 0.187503 0.122682 0.0651839 0.0532662 0.0244226 0.0240934 0.0208873 0.0104812 0.0108119 0.00842639 0.00688704 0.00529868 0.00353058 0.00527426 0.00138323 0.00112927 0.000717844 9.28667e-05
threshold=156.50000000000003 204.97910000000005 121.00000000000001 175.50000000000003 188.28500000000003 134.50000000000003 28929.265000000003 51.45000000000001 328.48980000000006 0.91980000000000006 0.94495000000000007 35158.092900000011 0.8781000000000001 8.4500000000000011 10.500000000000002 44210.020000000011 25.500000000000004 232.05000000000004 184.50000000000003
decision_type=2 10 2 2 2 2 10 2 10 10 10 10 10 2 2 10 2 2 2
left_child=1 4 -3 6 -1 12 11 -7 9 -8 13 -2 -4 16 15 -15 18 -9 -5
right_child=3 2 5 10 -6 7 8 17 -10 -11 -12 -13 -14 14 -16 -17 -18 -19 -20
leaf_value=-0.00061792761393583879 0.0011623272301783184 -0.0035806551330907332 -0.0024169198013081839 0.00059763185784359959 0.0013003291495128206 0 -0.00028433439171758791 -0.0016009910175884801 -0.00068242696491061146 0.00072727808937278764 0.00034870331814312872 0.00019574214055686313 -0.0013111742958426473 0.0012761401521231891 0.00023124812127343404 0.00064331773220285067 0.0013703758143825476 -0.00097424533387476745 0.0011128527785382288
leaf_weight=29 19 31 22 15.999999999999998 23 14.999999999999998 24 19 26 14.999999999999998 20 17 14.999999999999998 23 15.999999999999998 20 83 28 42
leaf_count=29 19 31 22 16 23 15 24 19 26 15 20 17 15 23 16 20 83 28 42
internal_value=1.6675e-05 -0.00129434 -0.00190432 0.000764752 0.000202148 -0.00136272 0.000116871 -0.000950063 -0.000210145 6.67681e-05 0.00105528 0.000748398 -0.0020115 0.00111833 0.00083023 0.00101774 0.00122791 -0.00126092 0.0009972
internal_weight=503 182 130 321 52 99 101 62 65 39 220 36 37 200 59 43 141 47 58
internal_count=503 182 130 321 52 99 101 62 65 39 220 36 37 200 59 43 141 47 58
is_linear=0
shrinkage=0.03


Tree=42
num_leaves=19
num_cat=0
split_feature=31 50 31 31 0 32 44 0 31 39 46 30 31 39 22 7 7 31
split_gain=0.516047 0.176647 0.11511 0.0614294 0.0518681 0.0498374 0.0348913 0.0225253 0.0166258 0.0164201 0.00779008 0.00712962 0.00465338 0.0125499 0.0113833 0.0008663 0.000725515 0.000360973
threshold=156.50000000000003 204.97910000000005 121.00000000000001 175.50000000000003 58.500000000000007 184.10500000000005 25301.644650000006 9.5000000000000018 134.50000000000003 24032.065000000006 265.3300000000001 6.5000000000000009 183.50000000000003 40249.225000000013 7.1500000000000012 644.00000000000011 594.00000000000011 105.50000000000001
decision_type=2 10 2 2 2 2 10 2 2 10 10 2 2 10 2 2 2 2
left_child=1 4 17 7 5 -1 -4 9 -8 -2 -11 -12 13 -5 -15 16 -14 -3
right_child=3 2 6 12 -6 -7 8 -9 -10 10 11 -13 15 14 -16 -17 -18 -19
leaf_value=-0.001568050206254476 0.00075749738627139507 -0.004040926109714761 0 0.0011966223219310602 0.0015151761402053513 0.00069261906790399103 -0.0021829079033959891 0.0010800895022635973 -0.0011747273132312369 0.00017283828809426532 -0.00080813150224556395 0 0.0010918960177439415 0.00077953933805524546 -0.00026130250608703229 0.0014327208784119241 0.00055447001080570176 -0.0028369716791627562
leaf_weight=18 15.999999999999998 15.000000000000002 15.999999999999998 31 18 15.999999999999998 31 18 52 18 29 20 104 20 14.999999999999998 35 14.999999999999998 15.999999999999998
leaf_count=18 16 15 16 31 18 16 31 18 52 18 29 20 104 20 15 35 15 16
internal_value=1.63685e-05 -0.00125652 -0.0018486 0.000742822 0.000195238 -0.000460698 -0.00132319 0.000113381 -0.00157043 -7.87288e-05 -0.000301212 -0.000505932 0.00102488 0.000739626 0.000290932 0.00113712 0.00103701 -0.00347341
internal_weight=503 182 130 321 52 34 99 101 83 83 67 49 220 66 35 154 119 31
internal_count=503 182 130 321 52 34 99 101 83 83 67 49 220 66 35 154 119 31
is_linear=0
shrinkage=0.03


Tree=43
num_leaves=25
num_cat=0
split_feature=27 37 32 50 26 41 26 38 26 18 33 37 10 44 32 39 22 26 30 38 38 32 22 18
split_gain=0.242817 0.12272 0.0683697 0.0604609 0.0367056 0.0324334 0.0190599 0.0147149 0.0139143 0.0137367 0.0166971 0.0102274 0.0137166 0.0236619 0.011162 0.0159025 0.00924658 0.00892115 0.0088162 0.0077556 0.0174886 0.00452845 0.00397571 0.00208723
threshold=18.500000000000004 0.6906000000000001 283.26500000000004 334.48785000000004 11.500000000000002 40619.310000000005 17.500000000000004 0.84190000000000009 18.500000000000004 7.5500000000000007 0.93125000000000013 0.92165000000000008 4.5000000000000009 25301.644650000006 394.66500000000002 32541.920000000002 7.8500000000000005 34.500000000000007 13.500000000000002 0.80445000000000011 0.87955000000000017 275.60500000000008 7.1500000000000012 11.050000000000002
decision_type=2 8 2 10 2 8 2 10 2 2 10 10 10 10 2 10 2 2 2 10 10 2 2 2
left_child=1 6 3 4 -3 8 -1 -4 16 10 -2 12 -11 -14 15 -15 -6 -17 -16 -10 -21 -13 -23 -9
right_child=9 2 7 -5 5 -7 -8 23 19 11 -12 21 13 14 18 17 -18 -19 -20 20 -22 22 -24 -25
leaf_value=-0.0030440404597581838 -0.00059130434313558306 -0.001801660616489195 -4.2812157128202284e-05 -0.0019856077562121141 0.00044972406929455223 0.0010727738527785305 -0.001401050503739863 0.00053452138588807273 -8.1447179930476437e-05 -0.00017789645848016657 0.00058439976570599848 0.00048812025943831608 0.0014707405720399459 0.00067802822390739263 0.0013108331717323726 -0.00085226200448861175 -0.00046131004158992718 9.8543723470696771e-05 0.00018335887985891874 -0.0016685415871462001 -0.0001549694764441764 0.0013613813692719347 0.00071710663314729437 0.0013152326880474621
leaf_weight=19 17 14.999999999999998 18 28 20 14.999999999999998 17 16.000000000000004 14.999999999999998 18 28 23 26 26 18 15.000000000000002 20 15.999999999999998 14.999999999999998 18 14.999999999999998 42 28 14.999999999999998
leaf_count=19 17 15 18 28 20 15 17 16 15 18 28 23 26 26 18 15 20 16 15 18 15 42 28 15
internal_value=1.59277e-05 -0.000696169 -0.000389505 -0.000719436 -0.000405568 -0.000186922 -0.00231281 0.000562703 -0.000419166 0.000626217 0.000106785 0.000722535 0.000529202 0.000651879 0.000397977 0.000112493 0 -0.000313846 0.000844783 -0.000763273 -0.00102722 0.000984547 0.00112578 0.000962104
internal_weight=503 231 195 146 118 103 36 49 88 272 45 227 134 116 90 57 40 31 33 48 33 93 70 31
internal_count=503 231 195 146 118 103 36 49 88 272 45 227 134 116 90 57 40 31 33 48 33 93 70 31
is_linear=0
shrinkage=0.03


Tree=44
num_leaves=21
num_cat=0
split_feature=31 50 31 31 26 44 40 31 34 40 34 38 44 44 44 31 37 30 7 34
split_gain=0.466838 0.162102 0.104957 0.055565 0.0511986 0.0321557 0.0217359 0.0146456 0.0121942 0.0167731 0.00997392 0.00762797 0.00624569 0.00452109 0.00807947 0.00859822 0.00438079 0.00349534 0.00498095 0.000484164
threshold=156.50000000000003 204.97910000000005 121.00000000000001 175.50000000000003 23.500000000000004 25301.644650000006 28929.265000000003 134.50000000000003 0.86450000000000016 57123.090000000004 0.90845000000000009 0.94520000000000015 32065.524650000003 49172.42715000001 44053.832500000011 189.50000000000003 0.88145000000000018 11.500000000000002 544.50000000000011 0.94285000000000008
decision_type=2 10 2 2 2 10 10 2 10 10 8 10 10 10 10 2 10 2 2 10
left_child=1 4 10 6 -1 -4 12 -7 -8 16 -3 13 -2 14 17 -16 -10 -5 -19 -9
right_child=3 2 5 11 -6 7 8 19 9 -11 -12 -13 -14 -15 15 -17 -18 18 -20 -21
leaf_value=-0.00067560238098659381 0.001102042695448741 -0.002446321263674188 0 0.0012380335808388498 0.001193863942906885 -0.0020763768173826199 -0.00089447483226460253 -0.0012716177989562118 0 -0.00071104302644576665 -0.004026026523837419 0.00026087387126981384 0.0001767310075041267 0.0013915951948781254 0 0.00080202138778623117 0.000805934790008327 0.00025410754510673628 0.0011341145126449344 -0.00068552057337120317
leaf_weight=27 19 15.000000000000002 15.999999999999998 75 25 31 17 36 15.000000000000002 17 15.999999999999998 18 17 42 14.999999999999998 36 15.999999999999998 18 15.999999999999998 15.999999999999998
leaf_count=27 19 15 16 75 25 31 17 36 15 17 16 18 17 42 15 36 16 18 16 16
internal_value=1.54439e-05 -0.00119508 -0.00176237 0.000706537 0.000194645 -0.00125958 0.000107078 -0.00149688 -0.000202721 1.17341e-05 -0.00331513 0.00097484 0.00070755 0.00103096 0.000926511 0.000550137 0.000456912 0.00108852 0.000713339 -0.00112093
internal_weight=503 182 130 321 52 99 101 83 65 48 31 220 36 202 160 51 31 109 34 52
internal_count=503 182 130 321 52 99 101 83 65 48 31 220 36 202 160 51 31 109 34 52
is_linear=0
shrinkage=0.03


Tree=45
num_leaves=21
num_cat=0
split_feature=31 0 31 31 31 31 0 5 38 31 33 40 30 40 31 40 31 38 21 43
split_gain=0.419373 0.162623 0.118072 0.0896398 0.0543357 0.0363484 0.0231357 0.0138752 0.0132721 0.0109021 0.00970496 0.00696507 0.0089974 0.00471298 0.0096995 0.0041942 0.00348593 0.00251026 0.00126579 0.000550748
threshold=157.50000000000003 25.500000000000004 92.500000000000014 134.50000000000003 178.50000000000003 109.00000000000001 9.5000000000000018 43.500000000000007 0.77355000000000007 144.50000000000003 0.74735000000000007 28929.265000000003 6.5000000000000009 41687.810000000005 186.50000000000003 54513.505000000012 121.00000000000001 0.85040000000000016 7.4500000000000011 39874.960750000006
decision_type=2 2 2 2 2 2 2 2 10 2 10 10 2 10 2 10 2 10 2 10
left_child=1 3 -3 7 6 -4 10 16 -5 -10 -2 -12 -13 18 15 -15 -1 -11 -6 -16
right_child=4 2 5 8 13 -7 -8 -9 9 17 11 12 -14 14 19 -17 -18 -19 -20 -21
leaf_value=-0.002687240992194024 0.00059136407900406537 -0.0019871540481465992 0.00033458142581122306 -0.00017381844337534098 0.0014789387621374913 0.0022387414314200943 0.0011826309674210494 -0.0034442043562264032 -0.001850258581056273 -0.0010748586493027562 0.00025106134789609378 -0.00079856485875885025 0 0 0.0014459062089919605 0.00073148198017349269 -0.0016750688250065494 -0.00030719374433357848 0.0010099533816461039 0.00093046889828465038
leaf_weight=15.999999999999998 20 14.999999999999998 26 21 43 15.999999999999998 18 17 17 15.000000000000002 22 23 27 18 17 14.999999999999998 23 14.999999999999998 47 72
leaf_count=16 20 15 26 21 43 16 18 17 17 15 22 23 27 18 17 15 23 15 47 72
internal_value=0.000106557 -0.00104518 0.000258387 -0.00165635 0.000758679 0.00109745 0.000200475 -0.00255958 -0.000889136 -0.00117634 0 -0.00015463 -0.000363177 0.00104112 0.000873278 0.000359777 -0.00213164 -0.000742093 0.00125138 0.00104652
internal_weight=503 181 57 124 322 42 110 56 68 47 92 72 50 212 122 33 39 30 90 89
internal_count=503 181 57 124 322 42 110 56 68 47 92 72 50 212 122 33 39 30 90 89
is_linear=0
shrinkage=0.03


Tree=46
num_leaves=21
num_cat=0
split_feature=31 0 31 31 31 31 0 3 38 31 31 44 39 39 31 11 31 38 49 49
split_gain=0.395638 0.153495 0.111222 0.0841475 0.0511169 0.0341011 0.0217496 0.0127691 0.0124597 0.0101035 0.00928997 0.00641507 0.00560431 0.00535778 0.010534 0.00993562 0.00307543 0.00229056 5.97168e-05 0.000809081
threshold=157.50000000000003 25.500000000000004 92.500000000000014 134.50000000000003 178.50000000000003 109.00000000000001 9.5000000000000018 9.5000000000000018 0.77355000000000007 144.50000000000003 167.50000000000003 36736.263000000014 39145.975000000013 40002.345000000008 186.50000000000003 69.050000000000011 121.00000000000001 0.85040000000000016 315.93710000000004 448.42215000000004
decision_type=2 2 2 2 2 2 2 2 10 2 2 10 10 10 2 2 2 10 10 10
left_child=1 3 -3 7 6 -4 10 16 -5 -10 11 -2 -12 -6 15 -15 -1 -11 -16 -20
right_child=4 2 5 8 13 -7 -8 -9 9 17 12 -13 -14 14 18 -17 -18 -19 19 -21
leaf_value=-0.0026068749216115361 0 -0.0019277375193925391 0.00032456322438164026 -0.00016861627954600328 0.001261634755961384 0.0021717884670072627 0.0011472503148494003 -0.0033411812782287594 -0.0017949136626248484 -0.0010427200302877693 0.00060224724342366174 -0.00067655045670602894 0 0.00084125506918320198 0.0013458007451748548 -0.00013718264508191669 -0.0016249257647543498 -0.00029800856058977767 0.00077751841937551255 0.0012568030206305428
leaf_weight=15.999999999999998 20 14.999999999999998 26 21 76 15.999999999999998 18 17 17 15.000000000000002 25 22 25 17 21 15.999999999999998 23 14.999999999999998 62 20
leaf_count=16 20 15 26 21 76 16 18 17 17 15 25 22 25 17 21 16 23 15 62 20
internal_value=0.000103415 -0.00101515 0.000250651 -0.00160897 0.000736892 0.00106569 0.000194949 -0.0024846 -0.00086452 -0.00114307 0 -0.000320492 0.000284175 0.0010109 0.000859351 0.000321985 -0.00206901 -0.000721397 0.00101672 0.000913393
internal_weight=503 181 57 124 322 42 110 56 68 47 92 42 50 212 136 33 39 30 103 82
internal_count=503 181 57 124 322 42 110 56 68 47 92 42 50 212 136 33 39 30 103 82
is_linear=0
shrinkage=0.03


Tree=47
num_leaves=23
num_cat=0
split_feature=31 0 31 0 31 0 46 37 45 21 33 47 42 10 45 31 33 49 49 33 11 13
split_gain=0.373128 0.145886 0.124696 0.0505341 0.0480868 0.0204605 0.0193324 0.0146674 0.0170571 0.00940112 0.00871538 0.00783235 0.0088013 0.00512649 0.00426765 0.00558452 0.00196923 0.00190953 0.00390832 0.00111933 0.00105717 0.000535989
threshold=157.50000000000003 41.000000000000007 134.50000000000003 10.500000000000002 178.50000000000003 9.5000000000000018 175.81000000000003 0.86200000000000021 264.94500000000005 7.9500000000000011 0.74735000000000007 288.48000000000008 30112.155000000002 21.500000000000004 318.56500000000005 186.50000000000003 0.9719000000000001 338.48000000000008 413.55500000000006 0.99315000000000009 38.550000000000004 59.550000000000004
decision_type=2 2 2 2 2 2 10 8 8 2 10 10 8 10 10 2 10 10 10 10 2 2
left_child=1 2 7 9 5 10 -3 8 20 -4 -2 12 -12 -13 21 -16 17 -17 -19 -18 -1 -6
right_child=4 6 3 -5 14 -7 -8 -9 -10 -11 11 13 -14 -15 15 16 19 18 -20 -21 -22 -23
leaf_value=-0.0024706076482694556 0.00056105175043950938 0.0016582629089498967 -0.0011913328632313399 0.00097351165945319641 0.0013585638584475111 0.0011129281488234315 2.6327201050777366e-05 -0.001320388647397672 -0.0033116336612831667 -0.00028452972485517946 0 -0.00014167490365341341 -0.00096575340234928504 0.00053125280462194488 0.00036195322191551096 0.0010557961832633638 0.0013794147822310434 1.1295675117510091e-05 0.00081326814325049861 0.00072323885430852243 -0.0015739725269001163 0.00093766372631391584
leaf_weight=14.999999999999998 20 15.000000000000002 38 15.999999999999998 49 18 14.999999999999998 19 21 21 18 20 17 17 29 17 27 15.000000000000002 14.999999999999998 17 21 43
leaf_count=15 20 15 38 16 49 18 15 19 21 21 18 20 17 17 29 17 27 15 15 17 21 43
