tree
version=v4
num_class=1
num_tree_per_iteration=1
label_index=0
max_feature_idx=78
objective=regression
feature_names=ooo_rooms available_rooms day_of_week month quarter week_of_year is_weekend retail_rate is_federal_holiday days_to_next_holiday days_from_last_holiday temp_mean_f temp_max_f temp_min_f precipitation_in had_precipitation snowfall_in had_snow windspeed_max_mph weathercode medallia_sample_size medallia_overall_satisfaction medallia_likelihood_to_recommend medallia_likelihood_to_return medallia_value_for_price medallia_hotel_cleanliness pickup_7d pickup_14d pickup_21d pickup_30d pickup_60d total_rooms_on_books avg_booked_rate occ_lag_7d occ_lag_14d occ_lag_28d occ_lag_364d occ_roll_7d occ_roll_28d rev_lag_7d rev_lag_14d rev_lag_28d rev_lag_364d rev_roll_7d rev_roll_28d adr_lag_7d adr_lag_14d adr_lag_28d adr_lag_364d adr_roll_7d adr_roll_28d comp_occ_lag_7d comp_occ_lag_28d comp_occ_roll_7d comp_occ_roll_28d comp_adr_lag_7d comp_adr_lag_28d comp_adr_roll_7d comp_adr_roll_28d comp_revpar_lag_7d comp_revpar_lag_28d comp_revpar_roll_7d comp_revpar_roll_28d mpi_lag_7d mpi_lag_28d mpi_roll_7d mpi_roll_28d ari_lag_7d ari_lag_28d ari_roll_7d ari_roll_28d rgi_lag_7d rgi_lag_28d rgi_roll_7d rgi_roll_28d adr_gap_vs_comp_lag_7d adr_gap_vs_comp_lag_28d adr_gap_vs_comp_roll_7d adr_gap_vs_comp_roll_28d
feature_infos=[0:74] [73:147] [0:6] [1:12] [1:4] [1:52] [0:1] [169:999] [0:1] [1:60] [1:60] [10.6:94.5] [16.899999999999999:106.3] [1.8999999999999999:83.700000000000003] [0:2.488] [0:1] [0:6.9450000000000003] [0:1] [3.2000000000000002:37.600000000000001] [0:75] [0:57] [4.5999999999999996:10] [4:10] [3.1000000000000001:10] [3:9.3000000000000007] [5:9.9000000000000004] [3:90] [2:90] [0:87] [0:59] [0:54] [38:254] [121.89:710.34000000000003] [0.38940000000000002:1] [0.38940000000000002:1] [0.38940000000000002:1] [0.38940000000000002:1] [0.49340000000000001:0.99219999999999997] [0.49969999999999998:0.96260000000000001] [6955.3100000000004:94041.419999999998] [6955.3100000000004:94041.419999999998] [6955.3100000000004:94041.419999999998] [6955.3100000000004:83829.520000000004] [10707.741400000001:85656.021399999998] [11554.858899999999:66130.449299999993] [115.76000000000001:648.55999999999995] [115.76000000000001:648.55999999999995] [115.76000000000001:648.55999999999995] [152.28:590.35000000000002] [160.90860000000001:603.23289999999997] [181.86580000000001:482.84890000000001] [0.44019999999999998:0.99470000000000003] [0.44019999999999998:0.99470000000000003] [0.59550000000000003:0.9728] [0.62829999999999997:0.95789999999999997] [182.28:605.08000000000004] [182.28:602.58000000000004] [198.66139999999999:582.78999999999996] [202.0667:487.37180000000001] [80.239999999999995:593.08000000000004] [80.239999999999995:593.08000000000004] [119.67:561.40859999999998] [128.53110000000001:465.76179999999999] [55.670000000000002:142.63999999999999] [55.670000000000002:142.63999999999999] [63.5886:112.52] [80.221400000000003:107.2993] [62.490000000000002:128.53] [62.490000000000002:128.53] [78.6357:107.1271] [83.060000000000002:101.13930000000001] [43.329999999999998:138.16] [43.329999999999998:138.16] [53.5914:109.45140000000001] [73.726799999999997:99.678200000000004] [-226.78999999999999:238.58000000000001] [-226.78999999999999:238.58000000000001] [-69.491399999999999:34.188600000000001] [-52.879600000000003:21.48]
tree_sizes=2255 2434 2166 2327 2358 2369 2330 2168 2397 2186 2508 2679 2599 2584 2620 2213 2324 2433 2186 2411 2270 2222 2170 2290 2387 2620 2544 2285 2748 2387 2584 2555 2541 2569 2554 2384 2379 2356 2416 2407 2511 2435 2437 2800 2634 2364 2405 2483 2379 2526 2513 2456 2412 2500 2477 2540 2669 2540 2623 2525 2374 2522 2658 2497 2297 2557 2563 2496 2678 2528 2628 2521 2767 2530 2488 2420 2343 2462 2555 2485 2400 2493 2602 2547 2495 2802 2624 2647 2447 2539 2579 2676 2743 2665 2662 2508 2516 2424 2455 2423 2450 2416 2695 2550 2436 2644 2553 2460 2691 2626 2437 2520 2376 2587 2662 2539 2677 2558 2616 2680 2232 2462 2512 2499 2345 2777 2430 2576 2668 2555 2747 2490 2663 2639 2903

Tree=0
num_leaves=25
num_cat=0
split_feature=32 32 32 32 32 32 32 32 32 32 32 32 10 32 32 32 57 32 57 32 32 32 32 75
split_gain=5.03575e+06 640599 625369 182564 94327.1 75127.6 60066.1 26103 18735.6 16516.5 12849.8 11301.9 8862.3 5932.61 3396.38 2934.38 2401.68 2241.01 1628.29 1358.97 1210.51 940.101 709.856 577.852
threshold=323.54000000000002 213.23500000000004 438.83500000000004 268.62500000000006 506.9550000000001 388.37500000000006 178.40500000000003 246.30500000000004 477.83000000000004 293.48000000000008 356.92000000000002 419.69000000000005 20.500000000000004 164.46000000000004 234.31000000000003 280.06000000000006 351.17215000000004 200.78500000000003 317.34070000000003 254.02500000000001 369.54500000000007 222.24500000000003 150.19000000000003 -19.444999999999997
decision_type=2 2 2 2 2 2 2 2 2 2 2 2 8 2 2 2 10 2 10 2 2 2 2 10
left_child=1 6 5 7 8 10 13 14 -4 15 -2 -7 17 22 16 -5 21 -8 -16 -9 -12 -3 -1 -21
right_child=2 3 4 9 -6 11 12 19 -10 -11 20 -13 -14 -15 18 -17 -18 -19 -20 23 -22 -23 -24 -25
leaf_value=309.19855550749389 315.77539262646701 311.7010411203683 319.52572025052609 313.54233633984569 322.75615331773059 317.57245341589083 310.41004905859654 312.73079236461086 320.94700931574238 314.78941588397169 316.49712129671536 318.58740412671563 311.36945701775051 310.1055656615784 312.1256820948613 314.05440989360676 312.30967604136157 310.95865948093694 312.5662621575874 313.22644022719413 316.92484094769696 312.00406113989817 309.60655277284195 312.95704662134256
leaf_weight=17 23 23 22 15.999999999999998 19 26 20 14.999999999999998 15.999999999999998 29 15.999999999999998 18 29 21 15.999999999999998 27 14.999999999999998 14.999999999999998 17 15.000000000000002 15.999999999999998 24 25 15.999999999999998
leaf_count=17 23 23 22 16 19 26 20 15 16 29 16 18 29 21 16 27 15 15 17 15 16 24 25 16
internal_value=314.049 312.002 318.511 313.008 321.014 317.067 310.316 312.38 320.133 314.237 316.324 317.992 310.968 309.656 312.096 313.864 311.962 310.64 312.35 312.969 316.715 311.853 309.436 313.086
internal_weight=496 340 156 213 57 99 127 141 38 72 55 44 64 63 95 43 62 35 33 46 32 47 42 31
internal_count=496 340 156 213 57 99 127 141 38 72 55 44 64 63 95 43 62 35 33 46 32 47 42 31
is_linear=0
shrinkage=1


Tree=1
num_leaves=26
num_cat=0
split_feature=32 32 32 32 32 32 32 32 32 32 32 10 32 32 32 32 32 57 32 57 32 32 32 32 75
split_gain=4.73895e+06 614425 575530 180231 99645 59742.5 56524.3 24562.8 17262.4 15594.4 14735.5 8341.9 6219.72 5582.47 3195.35 2761.48 2633.52 2259.17 2107.79 1532.26 1278.83 1134.82 884.494 668.721 543.696
threshold=329.19500000000005 213.23500000000004 452.49500000000006 268.62500000000006 397.07500000000005 517.97500000000014 178.40500000000003 246.30500000000004 293.48000000000008 422.04000000000002 362.14000000000004 20.500000000000004 490.39000000000004 164.46000000000004 234.31000000000003 280.06000000000006 309.9550000000001 351.17215000000004 200.78500000000003 317.34070000000003 254.02500000000001 378.34000000000009 222.24500000000003 150.19000000000003 -19.444999999999997
decision_type=2 2 2 2 2 2 2 2 2 2 2 8 2 2 2 2 2 10 2 10 2 2 2 2 10
left_child=1 6 4 7 10 12 13 14 15 -6 -2 18 -4 23 17 -5 -10 22 -8 -16 -9 -12 -3 -1 -22
right_child=2 3 5 8 9 -7 11 20 16 -11 21 -13 -14 -15 19 -17 -18 -19 -20 -21 24 -23 -24 -25 -26
leaf_value=-4.6490948414732634 1.8805553314998718 -2.2214107958613662 5.9331408691406233 -0.43524739443698768 3.6356206195857244 8.8162678117213442 -3.4737919574842184 -1.2225287463419461 0.51601748710454876 4.7544369137813396 2.6410804186369239 -2.5430335767420966 6.9287315354391783 -3.7691499114772764 -1.8095343673563449 0.061509396454763499 1.0724624619528511 -1.6310535460057054 -2.9416740554353327 -1.3821227588821368 -0.74170091800119364 3.0586724579769906 -1.9274562754799569 -4.2531781809915321 -1.0030331392377336
leaf_weight=17 27 23 15.000000000000002 15.999999999999998 22 14.999999999999998 20 14.999999999999998 15.000000000000002 26 18 29 15.999999999999998 21 15.999999999999998 27 15.999999999999998 14.999999999999998 14.999999999999998 17 15.000000000000002 14.999999999999998 24 25 15.999999999999998
leaf_count=17 27 23 15 16 22 15 20 15 15 26 18 29 16 21 16 27 16 15 15 17 15 15 24 25 16
internal_value=0.0566578 -1.91107 4.42575 -0.933388 3.22627 7.23535 -3.56516 -1.56246 0.265479 4.24599 2.4076 -2.93208 6.45737 -4.20544 -1.83819 -0.123586 0.804528 -1.96792 -3.25031 -1.59182 -0.991603 2.83528 -2.07355 -4.4188 -0.878028
internal_weight=496 342 154 215 108 46 127 141 74 48 60 64 31 63 95 43 31 62 35 33 46 33 47 42 31
internal_count=496 342 154 215 108 46 127 141 74 48 60 64 31 63 95 43 31 62 35 33 46 33 47 42 31
is_linear=0
shrinkage=0.03


Tree=2
num_leaves=24
num_cat=0
split_feature=32 32 32 32 32 32 32 32 32 32 32 32 10 32 32 32 65 49 32 55 32 32 62
split_gain=4.45971e+06 567255 554639 161651 78928 72208.5 53191.2 23113.5 20122.4 14615.3 12980.7 9904.27 7852.04 5252.98 3006.21 2598.76 2096.69 2090.32 1203.42 955.489 655.193 629.951 564.716
threshold=323.54000000000002 213.23500000000004 440.81500000000005 268.62500000000006 517.97500000000014 391.86000000000007 178.40500000000003 246.30500000000004 477.83000000000004 293.48000000000008 362.14000000000004 419.69000000000005 20.500000000000004 164.46000000000004 234.31000000000003 280.06000000000006 98.440000000000012 318.78860000000003 254.02500000000001 277.91000000000003 222.24500000000003 150.19000000000003 303.87610000000001
decision_type=2 2 2 2 2 2 2 2 2 2 2 2 8 2 2 2 10 10 2 10 2 2 10
left_child=1 6 5 7 8 10 13 14 -4 15 -2 -7 16 21 17 -5 -8 20 -9 -16 -3 -1 -20
right_child=2 3 4 9 -6 11 12 18 -10 -11 -12 -13 -14 -15 19 -17 -18 -19 22 -21 -22 -23 -24
leaf_value=-4.5100305873837279 1.7818485902139527 -2.169095788081298 5.2523957409941939 -0.42223064957378065 8.5526587765715831 3.4177119164456511 -2.894775378789928 -1.1859747050846137 6.6614677341679966 0.7510040536722915 2.6884845679803475 4.3674060743526919 -2.4668739888754234 -3.6563440361838437 -1.6992442047034604 0.059667531196544436 -3.4171847131455046 -1.6431148836321368 -0.98731374620203127 -1.3530500276381787 -1.8930053283256476 -4.1258376472153344 -0.72193069671916066
leaf_weight=17 29 21 20 15.999999999999998 14.999999999999998 23 18 14.999999999999998 20 29 29 20 29 21 18 27 17 20 15.000000000000002 14.999999999999998 21 25 15.999999999999998
leaf_count=17 29 21 20 16 15 23 18 15 20 29 29 20 29 21 18 27 17 20 15 15 21 25 16
internal_value=0.0549736 -1.87189 4.25381 -0.925306 6.67745 2.93135 -3.45847 -1.51572 5.96441 0.231143 2.23712 3.86402 -2.84433 -4.07958 -1.78319 -0.119891 -3.15307 -1.90902 -0.961954 -1.54421 -2.0335 -4.28656 -0.851773
internal_weight=496 340 156 213 55 101 127 141 40 72 58 43 64 63 95 43 35 62 46 33 42 42 31
internal_count=496 340 156 213 55 101 127 141 40 72 58 43 64 63 95 43 35 62 46 33 42 42 31
is_linear=0
shrinkage=0.03


Tree=3
num_leaves=25
num_cat=0
split_feature=32 32 32 32 32 32 32 32 32 32 32 32 65 32 57 32 32 32 58 32 61 50 57 32
split_gain=4.19717e+06 544027 510417 159524 88095.9 52771.8 50143.3 21759.5 16675.5 15248.3 10627.9 8502.97 6129.27 5471.52 3820.1 2522.82 2445.63 2444.6 1520.65 1358.97 1032.77 951.836 769.247 593.422
threshold=329.19500000000005 213.23500000000004 452.49500000000006 268.62500000000006 391.86000000000007 517.97500000000014 185.06500000000003 248.88500000000002 422.04000000000002 293.48000000000008 362.14000000000004 164.46000000000004 96.821450000000013 490.39000000000004 317.34070000000003 234.31000000000003 280.06000000000006 309.9550000000001 237.59020000000004 224.51000000000002 252.84285000000003 328.48980000000006 351.17215000000004 150.19000000000003
decision_type=2 2 2 2 2 2 2 2 2 2 2 2 10 2 10 2 2 2 10 2 8 10 10 2
left_child=1 6 4 7 10 13 11 14 -6 16 -2 23 20 -4 19 22 -5 -11 -13 -3 -8 -9 -16 -1
right_child=2 3 5 9 8 -7 12 21 -10 17 -12 18 -14 -15 15 -17 -18 -19 -20 -21 -22 -23 -24 -25
leaf_value=-4.3751266130464161 1.7708863078908867 -2.1001942516146155 5.5874546251265294 -0.40960320303373243 3.3711171307993935 8.2969312456200672 -2.6019597196711066 -0.99121726852691106 4.4721343912135616 0.4781331292260127 2.6079688624055373 -3.7269728204974295 -3.1198192530919968 6.5222953782126165 -1.8677087889002797 -1.2697452768338782 0.057880812376710056 1.0140753223740053 -3.2219750577267083 -1.7555842498411613 -2.2328839233905655 -0.68222376395697604 -1.5331547794785609 -4.0023095264549022
leaf_weight=17 27 20 15.000000000000002 15.999999999999998 26 14.999999999999998 18 25 26 15.000000000000002 29 15.000000000000002 18 15.999999999999998 15.000000000000002 22 27 15.999999999999998 15.999999999999998 29 18 14.999999999999998 14.999999999999998 25
leaf_count=17 27 20 15 16 26 15 18 25 26 15 29 15 18 16 15 22 27 16 16 29 18 15 15 25
internal_value=0.053325 -1.79851 4.16509 -0.878538 3.03549 6.81098 -3.35496 -1.47037 3.92542 0.249357 2.20634 -3.86943 -2.65652 6.07973 -1.70505 -1.5213 -0.116306 0.755984 -3.47199 -1.89827 -2.42082 -0.876379 -1.70331 -4.15827
internal_weight=496 342 154 215 108 46 127 141 52 74 56 73 54 31 101 52 43 31 31 49 36 40 30 42
internal_count=496 342 154 215 108 46 127 141 52 74 56 73 54 31 101 52 43 31 31 49 36 40 30 42
is_linear=0
shrinkage=0.03


Tree=4
num_leaves=26
num_cat=0
split_feature=32 32 32 32 32 32 32 32 32 32 32 32 32 65 32 32 49 32 58 32 61 55 32 32 75
split_gain=3.9498e+06 511010 487872 132650 74364.1 64329.2 47187 20480.3 14651.5 12762.6 10772.8 8705.59 7998.95 5767.74 2670.01 2301.53 1866.12 1557.01 1430.91 1085.56 971.667 870.978 588.572 558.997 478.578
threshold=321.00500000000005 438.83500000000004 213.23500000000004 268.62500000000006 506.9550000000001 388.37500000000006 185.06500000000003 246.30500000000004 477.83000000000004 353.58000000000004 293.48000000000008 419.69000000000005 164.46000000000004 96.821450000000013 234.31000000000003 280.06000000000006 318.78860000000003 367.50500000000005 237.59020000000004 254.02500000000001 252.84285000000003 277.91000000000003 222.24500000000003 150.19000000000003 -19.444999999999997
decision_type=2 2 2 2 2 2 2 2 2 2 2 2 2 10 2 2 10 2 10 2 8 10 2 2 10
left_child=2 5 6 7 8 9 12 14 -3 -2 15 -7 23 20 16 -5 22 -11 -14 -9 -8 -16 -4 -1 -21
right_child=1 4 3 10 -6 11 13 19 -10 17 -12 -13 18 -15 21 -17 -18 -19 -20 24 -22 -23 -24 -25 -26
leaf_value=-4.2442578590370692 1.4605449310766125 4.9037451545559625 -2.0426466906042395 -0.39735338990933422 7.7699141663078235 3.1718881711758482 -2.5241171721144067 -1.1178081319815296 6.1609151166398943 2.1483946062462773 0.6601323624055353 4.0632709416524193 -3.6155351972104692 -3.0264839413291527 -1.600731424136175 0.056147593512662901 -1.5455615196323156 2.5875157795322239 -3.1256169884227147 -0.67287245436760257 -2.1660829335896921 -1.2707537765756398 -1.7813754163728472 -3.8824799808342294 -0.91758172258038373
leaf_weight=17 23 22 21 15.999999999999998 19 26 18 14.999999999999998 15.999999999999998 17 26 18 15.000000000000002 18 18 27 20 18 15.999999999999998 15.000000000000002 18 14.999999999999998 21 25 15.999999999999998
leaf_count=17 23 22 21 16 19 26 18 15 16 17 26 18 15 18 18 27 20 18 16 15 18 15 21 25 16
internal_value=0.0517255 3.94849 -1.78712 -0.899074 6.22314 2.67492 -3.25459 -1.42637 5.44052 2.01556 0.178678 3.54078 -3.75366 -2.57704 -1.67815 -0.112828 -1.79673 2.37764 -3.36816 -0.905102 -2.34839 -1.45294 -1.91432 -4.03382 -0.800497
internal_weight=496 159 337 210 57 102 127 141 38 58 69 44 73 54 95 43 62 35 31 46 36 33 42 42 31
internal_count=496 159 337 210 57 102 127 141 38 58 69 44 73 54 95 43 62 35 31 46 36 33 42 42 31
is_linear=0
shrinkage=0.03


Tree=5
num_leaves=26
num_cat=0
split_feature=32 32 32 32 32 32 32 32 32 32 32 32 32 32 65 1 32 32 32 32 50 32 33 44 32
split_gain=3.42807e+06 474427 415282 90744.9 75904.3 74622.4 57650.3 15112 12723.2 11727.3 9469.25 8345.38 7585.56 5737.29 5171.88 3222.47 1577.9 1305.52 1102.44 1027.99 957.186 850.747 771.595 574.093 434.907
threshold=318.27000000000004 224.51000000000002 432.61500000000007 506.9550000000001 268.62500000000006 182.68000000000004 378.34000000000009 464.5800000000001 246.30500000000004 201.90500000000003 342.23500000000007 415.2050000000001 293.48000000000008 168.84500000000003 95.196400000000025 133.50000000000003 278.95500000000004 360.33500000000009 234.31000000000003 397.07500000000005 328.48980000000006 213.23500000000004 0.76950000000000018 44053.832500000011 153.76500000000001
decision_type=2 2 2 2 2 2 2 2 2 2 2 2 2 2 10 2 2 2 2 2 10 2 10 10 2
left_child=1 5 6 7 8 13 10 -4 18 14 -2 19 16 24 -7 -11 -6 -12 -3 -8 22 -17 -10 -18 -1
right_child=2 4 3 -5 12 9 11 -9 20 15 17 -13 -14 -15 -16 21 23 -19 -20 -21 -22 -23 -24 -25 -26
leaf_value=-4.062609099200241 1.2038698378233152 -1.6418435184684341 4.3799501459973111 7.7551787377037478 -0.3917877390228699 -2.4094225289888471 2.7728456119949465 5.5975167641199732 -0.77031042130682548 -2.4830112835179978 1.8528441911361542 3.8243039910147121 0.47903680022675088 -3.2376937797717615 -3.1916909995876095 -2.1301831146011923 -0.16222075725314625 2.2521204178690057 -1.354910249299724 3.1687574423513101 -0.67791928751168506 -1.835787126918039 -1.063959727489443 0.092002751465417074 -3.7370887746830737
leaf_weight=20 15.999999999999998 25 20 14.999999999999998 15.999999999999998 15.999999999999998 18 20 14.999999999999998 15.999999999999998 14.999999999999998 15.999999999999998 27 20 17 20 14.999999999999998 21 29 17 21 25 20 17 24
leaf_count=20 16 25 20 15 16 16 18 20 15 16 15 16 27 20 17 20 15 21 29 17 21 25 20 17 24
internal_value=-0.00587315 -1.69011 3.64978 5.75416 -0.658704 -2.89717 2.52382 4.995 -1.16029 -2.35667 1.81782 3.24114 0.0772215 -3.68854 -2.81667 -2.10568 -0.149032 2.0886 -1.48917 2.96943 -0.842083 -1.96888 -0.939431 -0.0271849 -3.88953
internal_weight=501 343 158 55 185 158 103 40 110 94 52 51 75 64 33 61 48 36 54 35 56 45 35 32 44
internal_count=501 343 158 55 185 158 103 40 110 94 52 51 75 64 33 61 48 36 54 35 56 45 35 32 44
is_linear=0
shrinkage=0.03


Tree=6
num_leaves=26
num_cat=0
split_feature=32 32 32 32 32 32 32 32 32 32 32 32 65 32 32 32 41 32 32 58 18 42 32 32 45
split_gain=3.22602e+06 446486 390804 90589.5 85406.9 54253.5 49649.8 18650 14295.4 8910.67 7853.82 7138.23 6102.81 5433.83 2724.34 1489.46 1308.44 1227.94 967.223 922.722 830.913 741.411 647.033 555.813 354.164
threshold=318.27000000000004 217.30500000000004 432.61500000000007 268.62500000000006 506.9550000000001 378.34000000000009 182.68000000000004 246.30500000000004 467.35000000000008 342.23500000000007 415.2050000000001 293.48000000000008 98.440000000000012 171.79500000000004 230.78 280.06000000000006 15256.190000000001 360.33500000000009 397.07500000000005 368.24250000000006 11.050000000000002 41294.310000000005 153.76500000000001 206.82000000000002 261.69000000000005
decision_type=2 2 2 2 2 2 2 2 2 2 2 2 10 2 2 2 10 2 2 10 2 8 2 2 10
left_child=1 6 5 7 8 9 13 14 -4 -2 18 15 16 22 24 -5 -8 -11 -7 21 -16 -9 -1 -18 -3
right_child=2 3 4 11 -6 10 12 19 -10 17 -12 -13 -14 -15 20 -17 23 -19 -20 -21 -22 -23 -24 -25 -26
leaf_value=-3.9410348076951172 1.1678662793881427 -1.8257604451817788 4.3303051936548851 -0.35065999802641973 7.5232964053740128 2.6898907318537915 -2.4721238594411687 -0.75878634895865371 5.5277536037590487 1.7974435252446272 3.7099324506242697 0.46469225201721326 -2.8285366310547886 -3.0869299441698357 -1.1621626677148762 -0.0091311434942350517 -2.2486830152584312 2.1847172723983075 3.0739735810847577 -0.62807990860030094 -1.4750973297651866 -1.0284298264653309 -3.6054443111172882 -1.9518607152065384 -1.6088280057567317
leaf_weight=20 15.999999999999998 19 23 19 14.999999999999998 18 15.999999999999998 19 17 14.999999999999998 15.999999999999998 27 24 17 14.999999999999998 29 17 21 17 17 20 20 27 15.999999999999998 21
leaf_count=20 16 19 23 19 15 18 16 19 17 15 16 27 24 17 15 29 17 21 17 17 20 20 27 16 21
internal_value=-0.00568455 -1.63953 3.5406 -0.756527 5.58202 2.44832 -2.96649 -1.2324 4.84552 1.76344 3.1442 0.0749046 -2.42814 -3.57814 -1.54187 -0.144575 -2.22932 2.02611 2.88061 -0.81689 -1.34287 -0.898243 -3.75232 -2.10799 -1.71406
internal_weight=501 343 158 206 55 103 137 131 40 52 51 75 73 64 75 48 49 36 35 56 35 39 47 33 40
internal_count=501 343 158 206 55 103 137 131 40 52 51 75 73 64 75 48 49 36 35 56 35 39 47 33 40
is_linear=0
shrinkage=0.03


Tree=7
num_leaves=24
num_cat=0
split_feature=32 32 32 32 32 32 32 32 32 32 32 32 32 65 55 1 58 32 50 32 32 32 42
split_gain=3.03588e+06 420299 368174 70250.6 67214.7 66036.8 60473.2 12099.3 11671.7 10619 10430.5 6038.92 5111.71 4696.24 3257.02 2903.99 1617.38 1225.94 1059.26 970.769 736.282 609.121 465.514
threshold=318.27000000000004 224.51000000000002 443.36500000000007 388.37500000000006 271.26000000000005 182.68000000000004 506.9550000000001 246.30500000000004 353.58000000000004 201.90500000000003 415.2050000000001 296.04500000000002 171.79500000000004 95.196400000000025 456.38000000000005 133.50000000000003 357.79750000000007 367.50500000000005 349.88945000000007 234.31000000000003 213.23500000000004 153.76500000000001 45639.430000000008
decision_type=2 2 2 2 2 2 2 2 2 2 2 2 2 10 10 2 10 2 10 2 2 2 8
left_child=1 5 3 8 7 12 14 19 -2 13 -5 16 21 -7 -4 -11 -6 -10 22 -3 -17 -1 -9
right_child=2 4 6 10 11 9 -8 18 17 15 -12 -13 -14 -15 -16 20 -18 -19 -20 -21 -22 -23 -24
leaf_value=-3.8230985615794491 1.2773570574183266 -1.5440351328592814 4.5534073849294652 2.8873922554622511 -0.27022285056993395 -2.2680264610219223 7.2983473220774489 -0.754211118529443 1.9351001804385366 -2.3373521309255438 3.7531433111326247 0.51027614350221584 -2.9945936016183441 -3.0128679569725412 5.2970199392325048 -1.9999802233156123 0.071791191729071405 2.3163486364654768 -0.56558055378566263 -1.2746804785933634 -1.7254922183830581 -3.4974809267957192 -0.96046278928634399
leaf_weight=20 23 25 15.000000000000002 27 23 15.999999999999998 14.999999999999998 22 17 15.999999999999998 26 22 17 17 14.999999999999998 20 27 20 15.999999999999998 29 25 27 21
leaf_count=20 23 25 15 27 23 16 15 22 17 16 26 22 17 17 15 20 27 20 16 29 25 27 21
internal_value=-0.00550403 -1.59047 3.43469 2.51887 -0.619686 -2.72659 5.72901 -1.07598 1.81319 -2.21813 3.31527 0.0966676 -3.47105 -2.65576 4.93346 -1.97937 -0.0856181 2.14407 -0.777793 -1.40072 -1.8496 -3.63999 -0.855972
internal_weight=501 343 158 113 185 158 45 113 60 94 53 72 64 33 30 61 50 37 59 54 45 47 43
internal_count=501 343 158 113 185 158 45 113 60 94 53 72 64 33 30 61 50 37 59 54 45 47 43
is_linear=0
shrinkage=0.03


Tree=8
num_leaves=26
num_cat=0
split_feature=32 32 32 32 32 32 32 32 32 32 32 65 32 32 32 32 66 50 18 33 44 32 55 65 41
split_gain=2.85693e+06 395534 347506 87966.2 80239.9 43927.9 34732.5 16480 14064.6 12181.1 6348.39 5458.36 4816.36 2416.69 1799.09 1368.1 1236.65 807.251 778.658 722.415 496.064 451.556 451.545 442.832 442.519
threshold=318.27000000000004 217.30500000000004 464.5800000000001 391.86000000000007 268.62500000000006 182.68000000000004 506.9550000000001 246.30500000000004 422.04000000000002 353.58000000000004 293.48000000000008 98.440000000000012 168.84500000000003 230.78 374.4550000000001 278.95500000000004 88.351950000000002 328.48980000000006 11.050000000000002 0.76950000000000018 44053.832500000011 403.96500000000009 271.56500000000005 100.24290000000001 23169.220000000005
decision_type=2 2 2 2 2 2 2 2 2 2 2 10 2 2 2 2 10 10 2 10 10 2 10 10 10
left_child=1 5 3 9 7 12 -4 13 21 -2 15 16 23 22 -11 -6 -7 19 -15 -9 -17 -5 -3 -1 -18
right_child=2 4 6 8 10 11 -8 17 -10 14 -12 -13 -14 18 -16 20 24 -19 -20 -21 -22 -23 -24 -25 -26
leaf_value=-3.3339412965489381 1.239119439776704 -1.7457492982746918 5.1192400970839493 2.7573186485315864 -0.36230435326277649 -1.8688705296670236 7.080124292722175 -0.6953983507124688 3.8686008731378689 1.9332587964222485 0.438308103371019 -2.6640315849320055 -2.9542295962973424 -1.0887633197568976 2.3714267324287199 -0.14833769947191408 -2.3545339694869853 -0.61830613260880785 -1.3907945845073595 -0.97860765033826569 0.08797740153553199 3.092142191028278 -1.5107775878906249 -3.6576807391746109 -2.0699354781391466
leaf_weight=14.999999999999998 23 17 20 15.000000000000002 15.999999999999998 17 14.999999999999998 14.999999999999998 30 24 27 24 20 14.999999999999998 15.999999999999998 14.999999999999998 15.999999999999998 21 20 20 17 14.999999999999998 23 29 15.999999999999998
leaf_count=15 23 17 20 15 16 17 15 15 30 24 27 24 20 15 16 15 16 21 20 20 17 15 23 29 16
internal_value=-0.00533058 -1.54288 3.33193 2.57953 -0.711779 -2.79183 5.96856 -1.15964 3.40198 1.79415 0.0707166 -2.28544 -3.36716 -1.45056 2.11131 -0.136263 -2.09745 -0.769049 -1.26313 -0.85844 -0.0228071 2.92965 -1.61273 -3.55126 -2.21573
internal_weight=501 343 158 123 206 137 35 131 60 63 75 73 64 75 40 48 49 56 35 35 32 30 40 44 32
internal_count=501 343 158 123 206 137 35 131 60 63 75 73 64 75 40 48 49 56 35 35 32 30 40 44 32
is_linear=0
shrinkage=0.03


Tree=9
num_leaves=24
num_cat=0
split_feature=32 32 32 32 32 32 32 32 32 32 32 32 32 65 0 54 50 50 32 33 32 32 32
split_gain=2.68852e+06 372339 327035 82779 59519.3 58440.7 32690.6 13229.9 11463.2 10686.2 9672.61 5390.45 4557.48 4232.46 2607.31 1748.5 1436.48 950.522 855.07 763.426 640.208 573.279 424.673
threshold=318.27000000000004 224.51000000000002 464.5800000000001 391.86000000000007 271.26000000000005 182.68000000000004 506.9550000000001 422.04000000000002 353.58000000000004 246.30500000000004 201.90500000000003 296.04500000000002 171.79500000000004 95.196400000000025 13.500000000000002 0.91350000000000009 328.95015000000006 349.88945000000007 234.31000000000003 0.76950000000000018 213.23500000000004 153.76500000000001 403.96500000000009
decision_type=2 2 2 2 2 2 2 2 2 2 2 2 2 10 2 10 10 10 2 10 2 2 2
left_child=1 5 3 8 9 12 -4 22 -2 18 13 16 21 -7 20 -10 -6 19 -3 -11 -12 -1 -5
right_child=2 4 6 7 11 10 -8 -9 15 17 14 -13 -14 -15 -16 -17 -18 -19 -20 -21 -22 -23 -24
leaf_value=-3.6006880770181473 1.2020265105903278 -1.4521091155092161 4.9660458883918128 2.6748738447930718 -0.2622442536775757 -2.137356152400792 6.8684261446220924 3.7527359978648862 1.8729750752597738 -0.65273760407254955 -1.8775013691053128 0.48188312943289879 -2.8166522709015878 -2.8441496111290894 -2.1989675204553336 2.3041115862409645 0.061373966020696301 -0.53113160213577404 -1.1992205797415387 -0.91507007827301934 -1.6211059652545494 -3.2898719271450072 2.9996859893291892
leaf_weight=20 23 25 20 15.000000000000002 22 15.999999999999998 14.999999999999998 30 24 18 20 22 17 17 15.999999999999998 15.999999999999998 28 15.999999999999998 29 25 25 27 14.999999999999998
leaf_count=20 23 25 20 15 22 16 15 30 24 18 20 22 17 17 16 16 28 16 29 25 25 27 15
internal_value=-0.00516949 -1.49671 3.23223 2.50233 -0.582987 -2.56604 5.79003 3.30016 1.74046 -1.01236 -2.08771 0.0911114 -3.26638 -2.50526 -1.85994 2.04813 -0.0811078 -0.732127 -1.31756 -0.806177 -1.73705 -3.42585 2.84205
internal_weight=501 343 158 123 185 158 35 60 63 113 94 72 64 33 61 40 50 59 54 43 45 47 30
internal_count=501 343 158 123 185 158 35 60 63 113 94 72 64 33 61 40 50 59 54 43 45 47 30
is_linear=0
shrinkage=0.03


Tree=10
num_leaves=27
num_cat=0
split_feature=32 32 32 32 32 32 32 32 32 32 32 32 32 32 5 50 58 32 33 32 61 36 52 59 32 28
split_gain=2.6716e+06 401449 346198 84536 68904.8 40554.4 37839.4 9051.29 8985.77 8932.99 7521.44 6231.03 5015.94 3649.12 1838.17 1817.38 1583.97 1370.37 1210.51 1176.76 1162.44 922.536 514.329 322.015 321.689 115.108
threshold=330.66000000000003 232.05000000000004 445.79500000000002 191.84 278.95500000000004 391.86000000000007 517.97500000000014 303.91000000000003 170.76000000000002 213.23500000000004 251.47500000000002 422.04000000000002 486.30500000000001 356.92000000000002 8.5000000000000018 328.95015000000006 343.11980000000005 150.19000000000003 0.72400000000000009 374.4550000000001 306.97290000000004 0.70730000000000015 0.88635000000000008 224.62000000000003 223.02000000000001 18.500000000000004
decision_type=2 2 2 2 2 2 2 2 2 2 2 2 2 2 2 10 10 2 10 2 10 10 8 10 2 2
left_child=1 3 5 8 10 13 12 16 17 21 18 -7 -4 -2 -10 25 -6 -1 -3 -15 24 23 -20 -5 -11 -12
right_child=2 4 6 9 7 11 -8 -9 14 20 15 -13 -14 19 -16 -17 -18 -19 22 -21 -22 -23 -24 -25 -26 -27
leaf_value=-3.5920447718540083 1.4178333451027094 -0.90697186051128054 4.4171703502619373 -2.0570184354692969 -0.15254126031822132 2.7726682178546671 6.6338991101396392 0.77349328130643002 -2.9313325505557644 -1.7253079240540057 -0.80723976033866596 3.5499909359940856 5.2600493300963782 1.8294616689288952 -2.4355938695342259 -0.36122508668090497 0.21881408014519077 -3.1884346567717157 -1.3564630276856184 2.19455268931166 -1.3132798490749569 -1.8783636219550437 -1.1002697796687901 -2.3195365282229807 -1.5082369678106333 -0.67818287410344535
leaf_weight=15.999999999999998 14.999999999999998 15.999999999999998 15.999999999999998 16.000000000000004 15.999999999999998 27 17 28 14.999999999999998 18 14.999999999999998 15.999999999999998 15.999999999999998 23 18 18 29 35 17 15.999999999999998 19 17 15.999999999999998 14.999999999999998 18 17
leaf_count=16 15 16 16 16 16 27 17 28 15 18 15 16 16 23 18 18 29 35 17 16 19 17 16 15 18 17
internal_value=-0.00329579 -1.39483 3.41764 -2.35677 -0.348604 2.37727 5.47259 0.35051 -3.06354 -1.77915 -0.864044 3.06573 4.84621 1.8267 -2.66507 -0.604098 0.0867206 -3.31848 -1.12838 1.9819 -1.51474 -2.08019 -1.23415 -2.18762 -1.61906 -0.73989
internal_weight=505 359 146 187 172 97 49 73 84 103 99 43 32 54 33 50 45 51 49 39 55 48 33 31 36 32
internal_count=505 359 146 187 172 97 49 73 84 103 99 43 32 54 33 50 45 51 49 39 55 48 33 31 36 32
is_linear=0
shrinkage=0.03


Tree=11
num_leaves=29
num_cat=0
split_feature=32 32 32 32 32 32 32 32 32 32 32 32 32 32 5 50 32 33 32 61 54 63 65 36 32 32 25 0
split_gain=2.51415e+06 377780 325806 79547.2 64843.4 38161.7 35607.8 8550.26 8453.07 8407.08 7078.16 5865.41 4719.94 3433.44 1730 1710.3 1290.9 1139.06 1107.63 1093.84 1085.98 1079.07 906.739 1103.5 445.853 302.572 164.186 75.0538
threshold=330.66000000000003 232.05000000000004 445.79500000000002 191.84 278.95500000000004 391.86000000000007 517.97500000000014 296.04500000000002 170.76000000000002 213.23500000000004 251.47500000000002 422.04000000000002 486.30500000000001 356.92000000000002 8.5000000000000018 328.95015000000006 150.19000000000003 0.72400000000000009 374.4550000000001 306.97290000000004 0.91075000000000006 91.65000000000002 87.949300000000008 0.63695000000000002 238.75000000000003 223.02000000000001 8.3500000000000032 25.500000000000004
decision_type=2 2 2 2 2 2 2 2 2 2 2 2 2 2 2 10 2 10 2 10 10 10 10 10 2 2 2 2
left_child=1 3 5 8 10 13 12 20 16 22 17 -7 -4 -2 -10 26 -1 -3 -15 25 -6 -9 -5 -24 -19 -11 -12 -18
right_child=2 4 6 9 7 11 -8 21 14 19 15 -13 -14 18 -16 -17 27 24 -20 -21 -22 -23 23 -25 -26 -27 -28 -29
leaf_value=-3.4846190607659171 1.3754396499431014 -0.87984746273432923 4.2850681255019705 -1.7994760948003723 -0.12213873680866812 2.6896418184008919 6.4354658074253104 0.85346280962507293 -2.8436847532151939 -1.6736920711274292 -0.79533105362293333 3.4438229626807098 5.1027396856290146 1.774696893588581 -2.3627284684537848 -0.35041835163108526 -2.9663183881173172 -1.3117808700516775 2.1289212506730979 -1.2739848658043567 0.20546328054410273 0.51928291132325233 -2.3092404859311113 -1.924675606199024 -1.071728079252154 -1.4631152026739147 -0.64710341232613022 -3.2177847504825534
leaf_weight=15.999999999999998 14.999999999999998 15.999999999999998 15.999999999999998 14.999999999999998 21 27 17 15.999999999999998 14.999999999999998 18 14.999999999999998 15.999999999999998 15.999999999999998 23 18 18 18 17 15.999999999999998 19 15.999999999999998 20 15.999999999999998 17 15.999999999999998 18 17 17
leaf_count=16 15 16 16 15 21 27 17 16 15 18 15 16 16 23 18 18 18 17 16 19 16 20 16 17 16 18 17 17
internal_value=-0.0031952 -1.3531 3.3154 -2.28625 -0.338185 2.30614 5.30891 0.340012 -2.97185 -1.72593 -0.838203 2.97398 4.70127 1.77205 -2.58536 -0.586032 -3.21913 -1.09463 1.9226 -1.46942 0.0195726 0.668827 -2.01798 -2.11439 -1.19723 -1.57062 -0.717764 -3.09292
internal_weight=505 359 146 187 172 97 49 73 84 103 99 43 32 54 33 50 51 49 39 55 37 36 48 33 33 36 32 35
internal_count=505 359 146 187 172 97 49 73 84 103 99 43 32 54 33 50 51 49 39 55 37 36 48 33 33 36 32 35
is_linear=0
shrinkage=0.03


Tree=12
num_leaves=28
num_cat=0
split_feature=32 32 32 32 32 32 32 32 32 32 32 32 32 32 5 50 58 32 32 24 50 36 18 32 59 25 0
split_gain=2.36598e+06 355519 306615 74859.8 61022.8 35910.2 33507.8 8091.7 7954.44 7912.1 6661.01 5521.23 4441.4 3230.5 1628.18 1609.53 1405.39 1214.75 1042.55 1004.8 989.589 841.125 732.219 457.538 296.004 154.464 70.4035
threshold=330.66000000000003 232.05000000000004 445.79500000000002 191.84 278.95500000000004 391.86000000000007 517.97500000000014 303.91000000000003 170.76000000000002 213.23500000000004 251.47500000000002 422.04000000000002 486.30500000000001 356.92000000000002 8.5000000000000018 328.95015000000006 343.11980000000005 150.19000000000003 374.4550000000001 6.0500000000000007 336.54305000000005 0.70730000000000015 10.950000000000001 223.02000000000001 224.62000000000003 8.3500000000000032 25.500000000000004
decision_type=2 2 2 2 2 2 2 2 2 2 2 2 2 2 2 10 10 2 2 2 10 10 2 2 10 2 2
left_child=1 3 5 8 10 13 12 16 17 21 19 -7 -4 -2 -10 25 -6 -1 -15 -3 23 24 -21 -11 -5 -12 -19
right_child=2 4 6 9 7 11 -8 -9 14 20 15 -13 -14 18 -16 -17 -18 26 -20 22 -22 -23 -24 -25 -26 -27 -28
leaf_value=-3.3804061518874122 1.3343135666451185 -0.8770217127284845 4.1569164867935884 -1.9357329951491309 -0.14493887148170828 2.6091017949074335 6.2429679141226391 0.72977536752262218 -2.7586576300839645 -1.6316850010245791 -0.77155039055402874 3.3408301009418806 4.9501341974846662 1.7215714831569449 -2.2920430178655482 -0.33993491520842017 0.20485468742974652 -2.8775753082528999 2.0652525700364159 -1.0074043170003792 -1.204772941361234 -1.7654881919793719 -1.3140940785630841 -1.4006797468743357 -2.1854665671313716 -0.62774724126910886 -3.1215343674466758
leaf_weight=15.999999999999998 14.999999999999998 18 15.999999999999998 16.000000000000004 15.999999999999998 27 17 28 14.999999999999998 18 14.999999999999998 15.999999999999998 15.999999999999998 23 18 18 29 18 15.999999999999998 15.000000000000002 14.999999999999998 17 15.999999999999998 22 14.999999999999998 17 17
leaf_count=16 15 18 16 16 16 27 17 28 15 18 15 16 16 23 18 18 29 18 16 15 15 17 16 22 15 17 17
internal_value=-0.00310488 -1.31263 3.21622 -2.21787 -0.328071 2.23713 5.15013 0.329842 -2.88296 -1.67431 -0.813136 2.88497 4.56068 1.71904 -2.50804 -0.568506 0.0804275 -3.12284 1.86507 -1.06189 -1.42546 -1.95763 -1.16761 -1.50658 -2.05994 -0.6963 -3.0004
internal_weight=505 359 146 187 172 97 49 73 84 103 99 43 32 54 33 50 45 51 39 49 55 48 31 40 31 32 35
internal_count=505 359 146 187 172 97 49 73 84 103 99 43 32 54 33 50 45 51 39 49 55 48 31 40 31 32 35
is_linear=0
shrinkage=0.03


Tree=13
num_leaves=28
num_cat=0
split_feature=32 32 32 32 32 32 32 32 32 32 32 32 32 32 44 3 50 32 33 63 32 61 65 48 52 32 0
split_gain=2.22655e+06 334566 288555 70448.6 57558.3 33791.6 31531.7 9985.55 7485.21 7446.33 5197.25 4218.06 4179.27 3039.55 1527.85 1526.99 1144.32 1143.08 1035.3 999.357 981.292 980.081 855.898 1120.91 456.241 267.223 66.0313
threshold=330.66000000000003 232.05000000000004 445.79500000000002 191.84 272.56500000000005 391.86000000000007 517.97500000000014 296.04500000000002 170.76000000000002 213.23500000000004 422.04000000000002 251.47500000000002 486.30500000000001 356.92000000000002 42966.628250000002 2.5000000000000004 328.48980000000006 150.19000000000003 0.72400000000000009 91.65000000000002 374.4550000000001 306.97290000000004 87.949300000000008 264.20500000000004 0.88635000000000008 223.02000000000001 25.500000000000004
decision_type=2 2 2 2 2 2 2 2 2 2 2 2 2 2 10 2 10 2 10 10 2 10 10 8 8 2 2
left_child=1 3 5 8 11 13 12 14 17 22 -7 18 -4 -2 -6 -10 -13 -1 -3 -9 -15 25 -5 -24 -20 -11 -19
right_child=2 4 6 9 7 10 -8 19 15 21 -12 16 -14 20 -16 -17 -18 26 24 -21 -22 -23 23 -25 -26 -27 -28
leaf_value=-3.279309872065749 1.29441714150565 -0.82551381868736751 4.032597513644494 -1.6881539465818689 -0.20901029160638174 2.5309733398211858 6.0562281239976619 0.80807594441921904 -2.6348478077389195 -1.5755149892030331 3.2409174610744009 -0.74311956097265919 4.8020927985360684 1.6700363496792807 0.13639969718688996 -2.1827954324614565 -0.41539025487186743 -2.7914871942831869 -1.2426878471038907 0.48661711357478188 2.0034879866270261 -1.1979109474242202 -1.791872012414665 -2.174902445326103 -1.0023597061299832 -1.3774393296175715 -3.0281629286064082
leaf_weight=15.999999999999998 14.999999999999998 15.999999999999998 15.999999999999998 14.999999999999998 23 27 17 15.999999999999998 18 18 15.999999999999998 25 15.999999999999998 23 23 14.999999999999998 15.999999999999998 18 17 20 15.999999999999998 19 15.999999999999998 17 15.999999999999998 18 17
leaf_count=16 15 16 16 15 23 27 17 16 18 18 16 25 16 23 23 15 16 18 17 20 16 19 16 17 16 18 17
internal_value=-0.00301914 -1.27337 3.12001 -2.15153 -0.318266 2.17019 4.9961 0.256601 -2.79673 -1.62423 2.79863 -0.841903 4.42428 1.66761 -0.0363121 -2.43303 -0.615923 -3.02943 -1.03014 0.630452 1.80927 -1.38282 -1.89909 -1.99223 -1.1279 -1.47857 -2.91064
internal_weight=505 359 146 187 172 97 49 82 84 103 43 90 32 54 46 33 41 51 49 36 39 55 48 33 33 36 35
internal_count=505 359 146 187 172 97 49 82 84 103 43 90 32 54 46 33 41 51 49 36 39 55 48 33 33 36 35
is_linear=0
shrinkage=0.03


Tree=14
num_leaves=28
num_cat=0
split_feature=32 32 32 32 32 32 32 32 32 32 32 32 32 32 5 58 72 58 32 72 32 65 54 11 32 33 0
split_gain=2.09534e+06 314860 271559 69887.5 50777.9 31797.9 29672 7689.45 7213.22 7043.76 5058.87 4892.26 3932.61 2859.89 1460.4 1407.34 1120.91 1091.45 1075.63 1008.84 923.629 805.183 979.593 640.009 478.207 208.231 61.9216
threshold=330.66000000000003 234.31000000000003 445.79500000000002 191.84 278.95500000000004 391.86000000000007 517.97500000000014 213.23500000000004 301.27500000000003 170.76000000000002 251.47500000000002 422.04000000000002 486.30500000000001 356.92000000000002 8.5000000000000018 368.24250000000006 98.925000000000026 343.11980000000005 150.19000000000003 77.685000000000016 374.4550000000001 87.949300000000008 0.87895000000000012 62.850000000000001 223.02000000000001 0.80635000000000001 25.500000000000004
decision_type=2 2 2 2 2 2 2 2 2 2 2 2 2 2 2 10 10 10 2 8 2 10 10 2 2 10 2
left_child=1 3 5 9 10 13 12 21 17 18 19 -7 -4 -2 -11 25 24 -6 -1 -3 -15 -5 -23 -10 -9 -12 -20
right_child=2 4 6 7 8 11 -8 16 23 14 15 -13 -14 20 -16 -17 -18 -19 26 -21 -22 22 -24 -25 -26 -27 -28
leaf_value=-3.181237142687646 1.2557136441227605 -0.77216218371723966 3.9119964228835054 -1.6376775707358933 -0.13435347238433695 2.4551846409372828 5.8750741246019285 -1.5255492448687851 0.80766844042907882 -2.5973900282343361 -0.56188062027839325 3.1439928486191224 4.6584787871458815 1.6200439393546213 -2.1559157044471466 -0.31255192274571858 -1.0931969890404383 0.17792487311054728 -2.7079746286492599 -1.0831284644804806 1.9435706079786066 -2.0941515415857372 -1.7324184998166916 0.52523577290911994 -1.3067214636888331 -0.72201932584810125 -2.9375845059481533
leaf_weight=15.999999999999998 14.999999999999998 14.999999999999998 15.999999999999998 14.999999999999998 15.999999999999998 27 17 20 15.000000000000002 14.999999999999998 14.999999999999998 15.999999999999998 15.999999999999998 23 18 17 14.999999999999998 27 18 29 15.999999999999998 18 14.999999999999998 14.999999999999998 25 18 17
leaf_count=16 15 15 16 15 16 27 17 20 15 15 15 16 16 23 18 17 15 27 18 29 16 18 15 15 25 18 17
internal_value=-0.00293227 -1.23528 3.02667 -2.06371 -0.28249 2.10525 4.84667 -1.55761 0.310995 -2.71308 -0.743325 2.71487 4.29197 1.61772 -2.36026 -0.535879 -1.3285 0.0616723 -2.93882 -0.978148 1.75513 -1.8423 -1.93264 0.667611 -1.4056 -0.650235 -2.82357
internal_weight=505 359 146 192 167 97 49 108 73 84 94 43 32 54 33 50 60 43 51 44 39 48 33 30 45 33 35
internal_count=505 359 146 192 167 97 49 108 73 84 94 43 32 54 33 50 60 43 51 44 39 48 33 30 45 33 35
is_linear=0
shrinkage=0.03


Tree=15
num_leaves=24
num_cat=0
split_feature=32 32 32 32 32 32 74 32 32 32 32 32 57 9 62 23 33 32 12 38 32 75 32
split_gain=2.05003e+06 308555 212132 90903.3 54225.1 24004.9 13863.7 11178.3 8934.6 5762.82 5512.72 4839.36 2604.24 2445.4 1544.11 1409.06 1304.17 1030.75 635.708 634.372 554.9 490.503 447.479
threshold=342.23500000000007 213.23500000000004 473.59500000000008 271.26000000000005 403.96500000000009 170.76000000000002 93.704650000000015 296.04500000000002 246.30500000000004 201.90500000000003 374.4550000000001 432.61500000000007 317.34070000000003 13.500000000000002 326.93895000000003 5.7000000000000002 0.90430000000000021 184.10500000000005 75.550000000000011 0.86760000000000015 150.19000000000003 -8.0599999999999987 227.89000000000001
decision_type=2 2 2 2 2 2 10 2 2 2 2 2 10 2 10 2 10 2 2 10 2 10 2
left_child=1 5 4 8 10 20 -4 14 12 13 21 -6 22 -7 -5 -14 -9 -15 -10 -13 -1 -2 -3
right_child=2 3 6 7 11 9 -8 16 18 -11 -12 19 15 17 -16 -17 -18 -19 -20 -21 -22 -23 -24
leaf_value=-3.0709501662209768 1.3294258482670069 -1.4729318507472773 4.503797744370563 -0.24462102828987767 2.7283619305876647 -2.5459967839606454 5.7781573486328117 0.81684032512899718 -0.57962231279300891 -1.6724704268591239 2.0672320909200446 3.1381598042332839 -0.79587642847934603 -2.2766204320604553 0.095628045932975358 -1.163674576353884 0.4606902733438088 -1.9213363654709767 -0.81442701788820382 3.5209710579274969 -2.781706906480558 1.6005982418630607 -1.2613044090042569
leaf_weight=15.999999999999998 15.000000000000002 20 18 23 22 15.999999999999998 15.999999999999998 17 27 27 27 15.000000000000002 15.999999999999998 15.999999999999998 25 25 21 21 18 15.999999999999998 35 14.999999999999998 25
leaf_count=16 15 20 18 23 22 16 16 17 27 27 27 15 16 16 25 25 21 21 18 16 35 15 25
internal_value=0.030527 -1.21516 3.04033 -0.520866 2.39822 -2.36461 5.11114 0.236875 -1.01823 -2.03738 1.75317 3.08962 -1.19763 -2.22149 -0.0674616 -1.02132 0.620924 -2.07788 -0.674377 3.34114 -2.8754 1.4675 -1.35692
internal_weight=492 348 144 217 110 131 34 86 131 80 57 53 86 53 48 41 38 37 45 31 51 30 45
internal_count=492 348 144 217 110 131 34 86 131 80 57 53 86 53 48 41 38 37 45 31 51 30 45
is_linear=0
shrinkage=0.03


Tree=16
num_leaves=25
num_cat=0
split_feature=32 32 32 32 32 32 32 32 32 32 32 32 57 65 47 58 31 54 33 25 76 32 32 39
split_gain=1.92919e+06 290361 199633 85543.8 51030.7 22586.7 12895.8 10519.4 8407.66 5424.11 5186.11 4555.31 2450.5 2369.49 1704.81 1476.63 1354.86 1297.38 1227.31 642.71 629.523 522.925 421.064 168.366
threshold=342.23500000000007 213.23500000000004 473.59500000000008 271.26000000000005 403.96500000000009 170.76000000000002 512.6350000000001 296.04500000000002 246.30500000000004 201.90500000000003 374.4550000000001 432.61500000000007 317.34070000000003 88.167150000000007 247.89500000000001 357.79750000000007 138.50000000000003 0.9195000000000001 0.90430000000000021 7.8500000000000005 -15.065 150.19000000000003 227.89000000000001 31055.450000000004
decision_type=2 2 2 2 2 2 2 2 2 2 2 2 10 10 10 10 2 10 10 2 10 2 2 10
left_child=1 5 4 8 10 21 -4 15 12 13 19 -6 22 -7 -14 -5 -15 -13 -9 -2 23 -1 -3 -10
right_child=2 3 6 7 11 9 -8 18 20 -11 -12 17 14 16 -16 -17 -18 -19 -20 -21 -22 -23 -24 -25
leaf_value=-2.9791085701345281 1.5719389890753148 -1.4288540892945858 4.3721238628186674 -0.24607524459864813 2.6466966424020777 -1.81699152442704 5.6019047874379373 0.79240696428807944 -0.49643199046188791 -1.6223890631035822 2.0053297291753913 2.9944003245204778 -0.75618584909746711 -2.4513949377358366 -1.1549322352736506 0.087523782495802505 -2.0512684032404533 3.4624876418069146 0.44690239721364972 1.2704764417477223 -0.81504057763026794 -2.6983748109738595 -1.2235407974334533 -0.64656108437978543
leaf_weight=15.999999999999998 15.000000000000002 20 18 22 22 14.999999999999998 15.999999999999998 17 15.000000000000002 27 27 15.000000000000002 17 22 24 26 15.999999999999998 15.999999999999998 21 14.999999999999998 14.999999999999998 35 25 14.999999999999998
leaf_count=16 15 20 18 22 22 15 16 17 15 27 27 15 17 22 24 26 16 16 21 15 15 35 25 15
internal_value=0.0296275 -1.17879 2.94938 -0.505275 2.32647 -2.29384 4.95826 0.229789 -0.987751 -1.97641 1.70071 2.9972 -1.16179 -2.15504 -0.990757 -0.0654415 -2.28588 3.24123 0.602348 1.42362 -0.654193 -2.78931 -1.31631 -0.572497
internal_weight=492 348 144 217 110 131 34 86 131 80 57 53 86 53 41 48 38 31 38 30 45 51 45 30
internal_count=492 348 144 217 110 131 34 86 131 80 57 53 86 53 41 48 38 31 38 30 45 51 45 30
is_linear=0
shrinkage=0.03


Tree=17
num_leaves=26
num_cat=0
split_feature=32 32 32 32 32 32 74 32 32 32 32 32 57 9 47 58 54 64 32 25 76 32 32 67 34
split_gain=1.81548e+06 273238 187871 80501.3 48024.5 21252.5 12679.9 9899.4 7911.11 5105.19 4878.85 4287.92 2305.83 2302.9 1604 1389.56 1220.48 1023.67 955.426 604.713 592.369 492.784 396.204 213.619 107.487
threshold=342.23500000000007 213.23500000000004 473.59500000000008 271.26000000000005 403.96500000000009 170.76000000000002 93.704650000000015 296.04500000000002 246.30500000000004 201.90500000000003 374.4550000000001 432.61500000000007 317.34070000000003 13.500000000000002 247.89500000000001 357.79750000000007 0.9195000000000001 96.015000000000015 184.10500000000005 7.8500000000000005 -15.065 150.19000000000003 227.89000000000001 95.455000000000013 0.73620000000000008
decision_type=2 2 2 2 2 2 10 2 2 2 2 2 10 2 10 10 10 10 2 2 10 2 2 10 10
left_child=1 5 4 8 10 21 -4 15 12 13 19 -6 22 -7 -14 -5 -13 -9 -15 -2 23 -1 -3 -10 -23
right_child=2 3 6 7 11 9 -8 17 20 -11 -12 16 14 18 -16 -17 -18 -19 -20 -21 -22 24 -24 -25 -26
leaf_value=-2.890013670163734 1.5249374805336375 -1.3860953664422926 4.2300819764705242 -0.23870972607411492 2.5674758537448183 -2.4045868547386098 5.447013874945239 0.71753769725358407 -0.47101757493129981 -1.5738073555599079 1.9452810353051713 2.9048667689732137 -0.73356678288703081 -2.1422087824456044 -1.120356289948842 0.084903111146644991 3.3589366649021613 0.39940508985073758 -1.8016908702714425 1.2324887789602692 -0.79067059337894774 -2.7439724650335466 -1.1869078370054325 -0.63779963978105203 -2.5160327757266985
leaf_weight=15.999999999999998 15.000000000000002 20 18 22 22 15.999999999999998 15.999999999999998 22 15.000000000000002 27 27 15.000000000000002 17 15.999999999999998 24 26 15.999999999999998 15.999999999999998 21 14.999999999999998 14.999999999999998 14.999999999999998 25 14.999999999999998 20
leaf_count=16 15 20 18 22 22 16 16 22 15 27 27 15 17 16 24 26 16 16 21 15 15 15 25 15 20
internal_value=0.0287531 -1.14351 2.86115 -0.490155 2.25687 -2.22518 4.80996 0.222915 -0.958195 -1.91727 1.64982 2.90754 -1.12701 -2.09057 -0.961106 -0.0634823 3.14431 0.584327 -1.95167 1.38106 -0.634635 -2.7058 -1.27691 -0.555381 -2.61754
internal_weight=492 348 144 217 110 131 34 86 131 80 57 53 86 53 41 48 31 38 37 30 45 51 45 30 35
internal_count=492 348 144 217 110 131 34 86 131 80 57 53 86 53 41 48 31 38 37 30 45 51 45 30 35
is_linear=0
shrinkage=0.03


Tree=18
num_leaves=24
num_cat=0
split_feature=32 32 32 32 32 32 74 32 32 32 32 54 24 65 32 64 31 64 37 12 25 18 38
split_gain=1.70848e+06 257135 176802 75755.9 45195.4 20001.1 11933.4 9326.18 7443.89 4805.13 4589.78 4091.19 2357.86 2209.04 1671.77 1492.72 1279.62 1046.81 1007.79 589.635 568.957 519 507.013
threshold=342.23500000000007 213.23500000000004 473.59500000000008 271.26000000000005 403.96500000000009 170.76000000000002 93.704650000000015 293.48000000000008 246.30500000000004 201.90500000000003 374.4550000000001 0.9195000000000001 6.0500000000000007 88.167150000000007 432.61500000000007 96.995000000000019 138.50000000000003 99.545000000000016 0.92875000000000008 75.550000000000011 7.8500000000000005 11.550000000000002 0.77205000000000013
decision_type=2 2 2 2 2 2 10 2 2 2 2 10 2 10 2 10 2 10 10 2 2 2 10
left_child=1 5 4 8 10 22 -4 18 12 13 20 14 -3 -7 -6 -9 -15 21 -5 -10 -2 -14 -1
right_child=2 3 6 7 11 9 -8 15 19 -11 -12 -13 17 16 -16 -17 -18 -19 -20 -21 -22 -23 -24
leaf_value=-2.7362802385136402 1.4793413596929503 -0.79375962715449289 4.1035309649438405 -0.2368290524187936 2.3230856110328841 -1.7024712810326255 5.2841124119268388 0.68833092706063825 -0.52461777759347505 -1.5266804057348677 1.8870304642146705 3.1346860217841219 -0.95893483980434147 -2.3141802200005976 2.8180102792530755 0.33693246429719714 -1.9273687901006678 -1.3411914696961083 0.058100925392991914 -0.75031084689407124 1.1956369669968108 -1.1820390085073618 -2.4835222329493458
leaf_weight=28 15.000000000000002 19 18 23 15.000000000000002 14.999999999999998 15.999999999999998 23 27 27 27 23 19 22 14.999999999999998 21 15.999999999999998 24 19 18 14.999999999999998 24 23
leaf_count=28 15 19 18 23 15 15 16 23 27 27 27 23 19 22 15 21 16 24 19 18 15 24 23
internal_value=0.0278955 -1.1093 2.77556 -0.475488 2.18935 -2.15861 4.66609 0.216245 -0.929523 -1.8599 1.60045 2.82057 -1.09328 -2.02803 2.57487 0.521225 -2.1541 -1.17755 -0.103462 -0.615661 1.33976 -1.08472 -2.62486
internal_weight=492 348 144 217 110 131 34 86 131 80 57 53 86 53 30 44 38 67 42 45 30 43 51
internal_count=492 348 144 217 110 131 34 86 131 80 57 53 86 53 30 44 38 67 42 45 30 43 51
is_linear=0
shrinkage=0.03


Tree=19
num_leaves=26
num_cat=0
split_feature=32 32 32 32 32 32 32 32 32 32 32 32 24 9 32 54 33 64 32 76 25 18 32 32 34
split_gain=1.60778e+06 241972 166386 71289.1 42532.4 18819.4 11447.5 8792.23 7004.85 4522.58 4317.84 3871.6 2218.6 2167.96 1304.18 1106.84 1099.4 984.888 885.034 555.433 535.312 488.203 477.442 108.487 105.958
threshold=342.23500000000007 213.23500000000004 473.59500000000008 271.26000000000005 403.96500000000009 170.76000000000002 512.6350000000001 296.04500000000002 246.30500000000004 201.90500000000003 374.4550000000001 432.61500000000007 6.0500000000000007 13.500000000000002 287.47000000000008 0.9195000000000001 0.90430000000000021 99.545000000000016 184.10500000000005 -15.065 7.8500000000000005 11.550000000000002 150.19000000000003 258.59000000000009 0.73620000000000008
decision_type=2 2 2 2 2 2 2 2 2 2 2 2 2 2 2 10 10 10 2 10 2 2 2 2 10
left_child=1 5 4 8 10 22 -4 14 12 13 20 -6 -3 -7 -5 -13 -9 21 -15 23 -2 -14 -1 -10 -24
right_child=2 3 6 7 11 9 -8 16 19 -11 -12 15 17 18 -16 -17 -18 -19 -20 -21 -22 -23 24 -25 -26
leaf_value=-2.7241129994615214 1.4351085381492028 -0.77000934000090349 3.9760685472144974 -0.20382116087109933 2.4133621464943396 -2.2712330884131315 5.1313657158111852 0.73018626277397802 -0.58086765935650675 -1.4809646562727894 1.830524184249906 2.7337508455701038 -0.93024230296217547 -2.0156761725595063 0.1096910851504527 3.1647348621404059 0.40335510093072807 -1.3010393716094399 -1.6893413206630534 -0.7481938337408427 1.1598870309721989 -1.1466515640607744 -2.5816226399063669 -0.45847430283049007 -2.3645291875901067
leaf_weight=15.999999999999998 15.000000000000002 19 18 26 22 15.999999999999998 15.999999999999998 17 15.000000000000002 27 27 15.000000000000002 19 15.999999999999998 22 15.999999999999998 21 24 21 14.999999999999998 14.999999999999998 24 14.999999999999998 14.999999999999998 20
leaf_count=16 15 19 18 26 22 16 16 17 15 27 27 15 19 16 22 16 21 24 21 15 15 24 15 15 20
internal_value=0.0270731 -1.0761 2.69253 -0.461257 2.12385 -2.094 4.52652 0.209773 -0.901703 -1.80425 1.55256 2.73618 -1.06056 -1.96736 -0.0601322 2.96098 0.550376 -1.1423 -1.83303 -0.597234 1.29971 -1.05226 -2.54627 -0.520586 -2.46116
internal_weight=492 348 144 217 110 131 34 86 131 80 57 53 86 53 48 31 38 67 37 45 30 43 51 30 35
internal_count=492 348 144 217 110 131 34 86 131 80 57 53 86 53 48 31 38 67 37 45 30 43 51 30 35
is_linear=0
shrinkage=0.03


Tree=20
num_leaves=25
num_cat=0
split_feature=32 32 32 32 32 32 32 32 32 32 32 32 43 9 20 50 23 20 32 32 33 32 50 37
split_gain=1.53718e+06 207236 197632 57134.9 29940.9 28285 10526.8 10340.3 6922.67 5012.59 4577.48 4050.13 2560.74 2438.52 2036.39 1812.5 1604.87 1447.88 823.603 767.215 656.773 459.409 452.711 365.617
threshold=318.27000000000004 438.83500000000004 204.02500000000001 268.62500000000006 381.92500000000001 517.97500000000014 246.30500000000004 168.84500000000003 477.83000000000004 295.56500000000005 353.58000000000004 415.2050000000001 21588.985700000001 8.5000000000000018 20.500000000000004 207.18945000000005 5.4000000000000012 17.500000000000004 223.02000000000001 280.74000000000007 0.76950000000000018 149.08000000000001 321.73575000000005 0.85225000000000006
decision_type=2 2 2 2 2 2 2 2 2 2 2 2 10 2 2 8 2 2 2 2 10 2 10 10
left_child=2 4 7 6 10 8 12 21 -3 19 -2 -6 -4 -9 16 -15 -14 -12 -16 -5 -8 -1 -22 -18
right_child=1 5 3 9 11 -7 20 13 -10 -11 17 -13 14 15 18 -17 23 -19 -20 -21 22 -23 -24 -25
leaf_value=-2.6644235508461738 0.8924642201421662 3.0460718001800324 -1.4431849226840707 -0.21871289367630473 1.9729216181108116 4.9363128148729549 -0.39761140807513706 -2.2061623881499437 3.8425294606985778 0.43630758673387027 1.5723122125256828 2.554789565317054 -0.63867481481249078 -2.0224882142329927 -1.3285092139056347 -1.5790271451209474 -0.90937339004205198 1.1898326752564619 -1.049153337292454 0.029326373626189516 -0.74801378129724616 -2.4091124020797041 -0.5092129822030812 -1.1055256416130594
leaf_weight=18 24 22 14.999999999999998 21 27 15.999999999999998 18 17 21 26 24 20 15.999999999999998 14.999999999999998 19 23 22 15.999999999999998 23 24 15.000000000000002 30 14.999999999999998 18
leaf_count=18 24 22 15 21 27 16 18 17 21 26 24 20 16 15 19 23 22 16 23 24 15 30 15 18
internal_value=0.0894957 2.41256 -1.08955 -0.603791 1.64765 3.84897 -0.916351 -2.18285 3.43909 0.105098 1.2237 2.22301 -1.07453 -1.89742 -1.01738 -1.75654 -0.896702 1.42103 -1.17699 -0.0865063 -0.543208 -2.50756 -0.629709 -0.998949
internal_weight=505 170 335 232 111 59 161 103 43 71 64 47 113 55 98 38 56 40 42 45 48 48 30 40
internal_count=505 170 335 232 111 59 161 103 43 71 64 47 113 55 98 38 56 40 42 45 48 48 30 40
is_linear=0
shrinkage=0.03


Tree=21
num_leaves=25
num_cat=0
split_feature=32 32 32 32 32 32 32 32 32 32 32 32 65 0 60 32 9 20 44 63 32 45 32 34
split_gain=1.44656e+06 195023 185978 53775.3 28174.6 26621.2 9728.9 9210.64 6514.35 5248.13 4307.66 3811.7 3366.92 2246.18 1475.32 1419.77 1403.22 1343.24 1273.45 1170.26 1076.37 434.521 432.599 363.132
threshold=318.27000000000004 438.83500000000004 204.02500000000001 256.90500000000003 381.92500000000001 517.97500000000014 168.84500000000003 287.47000000000008 477.83000000000004 234.31000000000003 353.58000000000004 415.2050000000001 88.919250000000019 14.500000000000002 257.31500000000005 303.91000000000003 18.500000000000004 13.500000000000002 38138.731950000009 99.710000000000022 272.56500000000005 247.89500000000001 149.08000000000001 0.83915000000000006
decision_type=2 2 2 2 2 2 2 2 2 2 2 2 10 2 8 2 2 2 10 10 2 10 2 10
left_child=2 4 6 9 10 8 22 18 -3 13 -2 -6 -8 17 -14 -9 -12 -4 -5 23 -20 -19 -1 -11
right_child=1 5 3 7 11 -7 12 15 -10 19 16 -13 14 -15 -16 -17 -18 21 20 -21 -22 -23 -24 -25
leaf_value=-2.5847122116300203 0.86574595776516294 2.9548969024865803 -0.88615596200055613 -0.51582772185026371 1.913843349379224 4.7886848578051975 -1.4627689668174102 0.14656833843556707 3.7275273853582891 -0.74371345429908564 1.5704750950129953 2.4783369989942137 -1.834396922851055 -1.4606569978327451 -2.2412367593251985 0.50217466108260611 1.2014341515656606 -1.2809710122739839 -0.35069190348770252 -0.94624342593459876 -0.026008726043785069 -1.0575433403675951 -2.3369592732002649 -0.55208235793226346
leaf_weight=18 24 22 28 17 27 15.999999999999998 15.999999999999998 25 21 19 19 20 24 14.999999999999998 14.999999999999998 17 21 18 20 18 17 19 30 19
leaf_count=18 24 22 28 17 27 16 16 25 21 19 19 20 24 15 15 17 21 18 20 18 17 19 30 19
internal_value=0.086814 2.34036 -1.05695 -0.585729 1.59833 3.73381 -2.11753 -0.0420205 3.33615 -0.969356 1.18707 2.15646 -1.84066 -1.12569 -1.99358 0.290966 1.37851 -1.04731 -0.301067 -0.745185 -0.20179 -1.16786 -2.43249 -0.648789
internal_weight=505 170 335 232 111 59 103 96 43 136 64 47 55 80 39 42 40 65 54 56 37 37 48 38
internal_count=505 170 335 232 111 59 103 96 43 136 64 47 55 80 39 42 40 65 54 56 37 37 48 38
is_linear=0
shrinkage=0.03


Tree=22
num_leaves=24
num_cat=0
split_feature=32 32 32 32 32 32 32 32 32 32 32 65 43 32 32 20 60 32 20 50 45 38 27
split_gain=1.36128e+06 183529 175012 50682.8 26512.4 25055.2 11280 9153.75 6130.1 4053.8 3587.3 3168 3111.14 2438.82 1706.87 1616.93 1388.78 1336.1 1335.4 545.901 477.272 439.193 424.719
threshold=318.27000000000004 438.83500000000004 204.02500000000001 251.47500000000002 381.92500000000001 517.97500000000014 287.47000000000008 168.84500000000003 477.83000000000004 353.58000000000004 415.2050000000001 88.919250000000019 21499.881400000002 234.31000000000003 272.56500000000005 13.500000000000002 257.31500000000005 303.91000000000003 17.500000000000004 328.48980000000006 247.89500000000001 0.77205000000000013 14.500000000000002
decision_type=2 2 2 2 2 2 2 2 2 2 2 10 10 2 2 2 8 2 2 10 10 10 2
left_child=2 4 7 12 9 8 14 21 -3 -2 -6 -9 -4 15 19 -14 -13 -8 -11 -5 -17 -1 -15
right_child=1 5 3 6 10 -7 17 11 -10 18 -12 16 13 22 -16 20 -18 -19 -20 -21 -22 -23 -24
leaf_value=-2.4621095476132884 0.83982758283119441 2.8664509613659912 -1.3997371354213981 -0.53754460289016104 1.8565341722414364 4.6454718673563447 0.14218006433484082 -1.4190225889972437 3.6159672035344133 1.4823676775894641 2.4041723035398563 -1.7794794291220681 -0.85775312964291495 -0.60420450837905215 -0.12951966695051131 -1.2600443797208825 -2.1742230396967788 0.48715360030400784 1.1155589829204238 -0.3269231434058667 -1.0418549590455624 -2.2223568196421279 -0.82065648221629817
leaf_weight=27 24 22 14.999999999999998 26 27 15.999999999999998 25 15.999999999999998 21 24 20 24 28 14.999999999999998 23 22 14.999999999999998 17 15.999999999999998 20 20 21 21
leaf_count=27 24 22 15 26 27 16 25 16 21 24 20 24 28 15 23 22 15 17 16 20 20 21 21
internal_value=0.0842146 2.27032 -1.02532 -0.568205 1.55049 3.62209 -0.105139 -2.05415 3.2363 1.15155 2.09191 -1.78559 -0.99277 -0.934533 -0.341003 -1.03835 -1.93393 0.282261 1.33726 -0.446457 -1.15754 -2.35967 -0.731473
internal_weight=505 170 335 232 111 59 111 103 43 64 47 55 121 106 69 70 39 42 40 46 42 48 36
internal_count=505 170 335 232 111 59 111 103 43 64 47 55 121 106 69 70 39 42 40 46 42 48 36
is_linear=0
shrinkage=0.03


Tree=23
num_leaves=25
num_cat=0
split_feature=32 32 32 32 32 32 32 32 32 32 32 65 32 55 32 32 9 40 70 37 50 70 13 32
split_gain=1.28102e+06 172713 164903 40454.2 24948.4 23581.3 15874.4 6761.1 5768.51 4232.96 3814.84 3490.5 3376.1 1920.36 1584.55 1376 1295.16 838.896 780.699 677.578 483.346 322.571 262.27 248.484
threshold=318.27000000000004 438.83500000000004 212.46000000000001 268.62500000000006 381.92500000000001 517.97500000000014 178.40500000000003 248.88500000000002 477.83000000000004 295.56500000000005 353.58000000000004 93.582850000000022 415.2050000000001 253.20500000000001 165.31500000000003 234.31000000000003 18.500000000000004 28713.475000000002 93.992500000000021 0.92875000000000008 328.48980000000006 95.717850000000013 62.650000000000006 147.14500000000001
decision_type=2 2 2 2 2 2 2 2 2 2 2 10 2 10 2 2 2 10 8 10 10 10 2 2
left_child=2 4 6 7 10 8 14 13 -3 19 -2 18 -6 -4 23 17 -12 -15 -8 -5 -9 -17 -19 -1
right_child=1 5 3 9 12 -7 11 20 -10 -11 16 -13 -14 15 -16 21 -18 22 -20 -21 -22 -23 -24 -25
leaf_value=-2.4590862094207462 0.81468512955177852 2.7806524460980677 -1.1443986038390748 -0.18829578756294724 1.8009411265713451 4.5065418621312787 -1.4460525163667293 -0.54325625370049424 3.5077458585979251 0.40088189363479615 1.4814407817209798 -1.7632990489441023 2.3322269570976126 -0.75349912649769313 -1.9587604300431378 -0.7781483809258849 1.1273845371780937 -0.93595384844909835 -1.1314922051413907 0.044799315167719275 -0.33164403465136749 -0.57347908374875078 -1.1331968387337616 -2.2335489601502441
leaf_weight=14.999999999999998 24 22 25 24 27 15.999999999999998 17 24 21 26 19 29 20 14.999999999999998 19 15.000000000000002 21 15.000000000000002 14.999999999999998 21 17 14.999999999999998 14.999999999999998 28
leaf_count=15 24 22 25 24 27 16 17 24 21 26 19 29 20 15 19 15 21 15 15 21 17 15 15 28
internal_value=0.0816949 2.20238 -0.994637 -0.487439 1.50409 3.51371 -1.86827 -0.781428 3.13944 0.0965163 1.11708 -1.52188 2.02929 -0.914518 -2.20754 -0.83716 1.29724 -0.943038 -1.30064 -0.0795558 -0.456062 -0.676988 -1.03635 -2.31502
internal_weight=505 170 335 212 111 59 123 141 43 71 64 61 47 100 62 75 40 45 32 45 41 30 30 43
internal_count=505 170 335 212 111 59 123 141 43 71 64 61 47 100 62 75 40 45 32 45 41 30 30 43
is_linear=0
shrinkage=0.03


Tree=24
num_leaves=26
num_cat=0
split_feature=32 32 32 32 32 32 32 32 32 32 32 32 41 9 70 24 20 55 32 33 32 50 0 51 34
split_gain=1.2055e+06 162534 155278 44829.8 23476.5 22232.5 8312.65 8085.53 3983.26 3590.01 3244.83 3177.33 2179.93 1824.21 1660.79 1349.2 1231.51 663.849 654.965 606.24 527.154 385.362 372.606 258.832 135.153
threshold=318.27000000000004 438.83500000000004 204.02500000000001 268.62500000000006 381.92500000000001 506.9550000000001 246.30500000000004 170.76000000000002 295.56500000000005 353.58000000000004 477.83000000000004 415.2050000000001 15256.190000000001 13.500000000000002 91.651250000000019 6.0500000000000007 17.500000000000004 313.68000000000001 227.35000000000002 0.76950000000000018 149.08000000000001 321.73575000000005 6.5000000000000009 0.91265000000000007 0.73620000000000008
decision_type=2 2 2 2 2 2 2 2 2 2 2 2 10 2 8 2 2 10 2 10 2 10 2 10 10
left_child=2 4 7 6 9 10 12 20 17 -2 -3 -6 -4 -9 -15 -14 -11 -5 22 -8 -1 -21 -17 -20 -22
right_child=1 5 3 8 11 -7 19 13 -10 16 -12 -13 15 14 -16 18 -18 -19 23 21 24 -23 -24 -25 -26
leaf_value=-2.3636742069318353 0.79029538442092229 2.6974220473101349 -1.2572145803351151 -0.18970040642387695 1.7470127456862472 4.1709572866011637 -0.34000787178895475 -1.955281481061663 0.38887851626310144 1.3976131405899779 3.3106590103707041 2.2624346524283774 -0.70554725482230451 -1.7271081039175 -1.3054871518143984 -0.95657696558574035 1.0458331512736383 0.040564882933687998 -0.94532750423823531 -0.67159432610800074 -2.2175953717098054 -0.45156472614833282 -1.1609568987983412 -0.75815441765262437 -2.0114817944300141
leaf_weight=18 24 22 18 23 27 22 18 14.999999999999998 26 24 14.999999999999998 20 26 21 15.999999999999998 21 15.999999999999998 22 16.000000000000004 15.000000000000002 15.999999999999998 14.999999999999998 17 14.999999999999998 17
leaf_count=18 24 22 18 23 27 22 18 15 26 24 15 20 26 21 16 21 16 22 16 15 16 15 17 15 17
internal_value=0.0792478 2.13647 -0.964875 -0.5343 1.45907 3.40857 -0.811164 -1.93397 0.0936263 1.08365 2.9502 1.96854 -0.951727 -1.66645 -1.54683 -0.893198 1.25842 -0.0771729 -0.963324 -0.479577 -2.20481 -0.562564 -1.04945 -0.856175 -2.11466
internal_weight=505 170 335 232 111 59 161 103 71 64 37 47 113 52 37 95 40 45 69 48 51 30 38 31 33
internal_count=505 170 335 232 111 59 161 103 71 64 37 47 113 52 37 95 40 45 69 48 51 30 38 31 33
is_linear=0
shrinkage=0.03


Tree=25
num_leaves=28
num_cat=0
split_feature=32 32 32 32 32 32 32 32 32 32 59 32 54 52 52 32 49 56 24 50 61 67 40 71 9 64 67
split_gain=1.10112e+06 150855 122604 35791.3 23346.6 14425.3 11530.5 5595.37 5488.38 5328.46 2457.35 2263.97 2039.77 1318.35 1280.02 1179.03 1040.64 993.654 881.396 686.181 660.543 638.683 494.801 464.643 458.813 353.535 349.213
threshold=329.19500000000005 213.23500000000004 452.49500000000006 266.11500000000007 409.42000000000007 182.68000000000004 506.9550000000001 237.08000000000001 293.48000000000008 363.8250000000001 448.23000000000008 164.46000000000004 0.85665000000000013 0.78910000000000002 0.9507500000000001 251.47500000000002 332.63715000000008 337.3250000000001 6.3500000000000005 328.48980000000006 197.84500000000003 97.420000000000016 29435.855000000003 80.390000000000001 23.500000000000004 100.34500000000001 84.500000000000014
decision_type=2 2 2 2 2 2 2 2 2 2 10 2 8 8 10 2 10 10 2 10 10 10 10 10 2 10 10
left_child=1 5 4 7 9 11 10 16 22 21 -4 26 13 -7 -6 18 23 -10 -9 -17 -13 -2 -5 -3 -11 -25 -1
right_child=2 3 6 8 14 12 -8 15 17 24 -12 20 -14 -15 -16 19 -18 -19 -20 -21 -22 -23 -24 25 -26 -27 -28
leaf_value=-2.2516545771981429 0.75607722897070162 -0.84473847219877141 2.6753268103108447 -0.28280885700867553 1.9766569996528884 -1.3382364858140694 3.9631156232416456 -0.50558874843276547 0.52445925944711447 1.5285486488590529 3.2702280149744989 -1.9560698644017194 -1.1551637295031003 -1.7427453669044266 2.3704288378744032 -0.53637982122912375 -0.70033335486123716 0.19414721655789935 -0.80532400878761268 -0.27781563651126084 -1.6521306317766136 1.0426604233548491 -0.070671477528599994 -0.95308799914885645 1.3020202222491235 -1.1521116133079636 -2.0219911916632403
leaf_weight=25 15.000000000000002 15.999999999999998 15.000000000000002 15.999999999999998 22 17 18 15.999999999999998 17 23 14.999999999999998 17 24 14.999999999999998 14.999999999999998 25 14.999999999999998 15.999999999999998 21 14.999999999999998 15.999999999999998 14.999999999999998 26 20 18 18 18
leaf_count=25 15 16 15 16 22 17 18 16 17 23 15 17 24 15 15 25 15 16 21 15 16 15 26 20 18 18 18
internal_value=-0.00890229 -0.936484 2.08967 -0.457 1.52775 -1.73877 3.35105 -0.730557 0.0756365 1.20774 2.97777 -2.00885 -1.37074 -1.53032 2.13932 -0.554039 -0.926975 0.364889 -0.676606 -0.439924 -1.81147 0.900915 -0.151762 -0.989197 1.43084 -1.04879 -2.15801
internal_weight=509 353 156 221 108 132 48 146 75 71 30 76 56 32 37 77 69 33 37 40 33 30 42 54 41 38 43
internal_count=509 353 156 221 108 132 48 146 75 71 30 76 56 32 37 77 69 33 37 40 33 30 42 54 41 38 43
is_linear=0
shrinkage=0.03


Tree=26
num_leaves=27
num_cat=0
split_feature=32 32 32 32 32 32 32 32 32 32 32 54 52 52 32 49 56 24 50 61 67 40 48 71 32 64
split_gain=1.03623e+06 141963 115382 33681.9 21970.4 13574.4 10889.3 5265.72 5165.01 5013.68 2129.73 1919.89 1240.66 1204.89 1109.52 979.141 935.057 829.295 645.606 621.393 600.973 465.644 441.706 437.104 345.922 332.629
threshold=329.19500000000005 213.23500000000004 452.49500000000006 266.11500000000007 409.42000000000007 182.68000000000004 499.38000000000005 237.08000000000001 293.48000000000008 363.8250000000001 164.46000000000004 0.85665000000000013 0.78910000000000002 0.9507500000000001 251.47500000000002 332.63715000000008 337.3250000000001 6.3500000000000005 328.48980000000006 197.84500000000003 97.420000000000016 29435.855000000003 385.43000000000006 80.390000000000001 149.08000000000001 100.34500000000001
decision_type=2 2 2 2 2 2 2 2 2 2 2 8 8 10 2 10 10 2 10 10 10 10 10 10 2 10
left_child=1 5 4 7 9 10 -4 15 21 20 24 12 -7 -6 17 23 -10 -9 -16 -12 -2 -5 -11 -3 -1 -25
right_child=2 3 6 8 13 11 -8 14 16 22 19 -13 -14 -15 18 -17 -18 -19 -20 -21 -22 -23 -24 25 -26 -27
leaf_value=-2.2432687889935563 0.73347027442780022 -0.81947527234799389 2.7838161800011774 -0.27435101529148131 1.9174917249614689 -1.2982071334525638 3.7110176584477728 -0.49046833974178705 0.50877161451099195 1.3026349701396334 -1.8975598744143489 -1.1205808665697885 -1.6906367213860698 2.2995522315953654 -0.52032054193005584 -0.67939316860465104 0.18834094541095125 -0.78122167365284823 -0.26950885218243265 -1.6027210970014054 1.0114845330374582 -0.06855540217313337 1.5311017322223446 -0.92456667112887947 -2.0092362462008064 -1.117644002814042
leaf_weight=14.999999999999998 15.000000000000002 15.999999999999998 24 15.999999999999998 22 17 24 15.999999999999998 17 26 17 24 14.999999999999998 14.999999999999998 25 14.999999999999998 15.999999999999998 21 14.999999999999998 15.999999999999998 14.999999999999998 26 14.999999999999998 20 28 18
leaf_count=15 15 16 24 16 22 17 24 16 17 26 17 24 15 15 25 15 16 21 15 16 15 26 15 20 28 18
internal_value=-0.00863167 -0.908466 2.02716 -0.443328 1.48204 -1.68675 3.25083 -0.708701 0.0733741 1.17161 -1.94874 -1.32973 -1.48456 2.07532 -0.537461 -0.899247 0.353977 -0.656363 -0.426757 -1.75729 0.873979 -0.147222 1.38802 -0.959604 -2.09342 -1.01741
internal_weight=509 353 156 221 108 132 48 146 75 71 76 56 32 37 77 69 33 37 40 33 30 42 41 54 43 38
internal_count=509 353 156 221 108 132 48 146 75 71 76 56 32 37 77 69 33 37 40 33 30 42 41 54 43 38
is_linear=0
shrinkage=0.03


Tree=27
num_leaves=25
num_cat=0
split_feature=45 46 31 49 61 25 31 58 11 46 48 43 45 54 3 61 10 28 38 46 62 28 46 70
split_gain=711891 125998 100838 58101.2 44587.2 22751.5 18772.5 13216.8 11449.3 9704.48 9137.51 7667.85 7074.8 6520.19 4761.49 4101.95 3361.28 3317.1 2441.93 2377.95 1400.93 1106.61 771.347 124.341
threshold=365.13500000000005 200.90500000000003 159.50000000000003 364.67140000000006 308.37145000000004 8.3500000000000032 164.50000000000003 380.4464000000001 37.750000000000007 536.5150000000001 265.56000000000006 33874.867150000013 197.85500000000005 0.92945000000000011 3.5000000000000004 319.60930000000008 11.500000000000002 11.500000000000002 0.90540000000000009 402.57500000000005 289.67590000000007 12.500000000000002 293.06000000000006 85.951250000000016
decision_type=10 10 2 10 10 2 2 10 2 10 8 10 8 10 2 10 10 2 10 10 10 2 10 10
left_child=1 8 -2 6 19 9 14 -5 21 13 -8 -12 -10 -6 17 22 -16 -3 -17 -4 -18 23 -13 -1
right_child=2 3 4 7 5 -7 10 -9 12 -11 11 15 -14 -15 16 18 20 -19 -20 -21 -22 -23 -24 -25
leaf_value=-1.9214732954744806 -0.31235494988776963 -1.4184431618138362 1.046581159196887 1.3197892294461426 2.2025147482065055 3.2101925332004169 -0.76710613027497121 0.20631285388453474 -1.565563374682776 2.7723258030971634 0.46269715624790253 -0.57927061494618592 -0.72408515106403937 1.4096165384310428 -0.43899111733639301 0.23403315379240802 -0.67475802403164586 -0.82836259668523604 -0.2624938979142919 1.5070958211470624 -1.0089682332293315 -1.6762177176787474 -0.31244433496599994 -2.0981687828802293
leaf_weight=25 18 18 20 17 24 27 29 22 23 15.999999999999998 14.999999999999998 26 14.999999999999998 15.999999999999998 27 15.999999999999998 21 17 20 22 26 15.999999999999998 15.999999999999998 17
leaf_count=25 18 18 20 17 24 27 29 22 23 16 15 26 15 16 27 16 21 17 20 22 26 16 16 17
internal_value=-0.00837861 -0.709675 1.78616 -0.377616 2.08836 2.49164 -0.55845 0.692781 -1.64289 2.14262 -0.302612 -0.15742 -1.23483 1.88755 -0.844516 -0.276912 -0.707157 -1.13347 -0.0417551 1.28934 -0.860548 -1.90892 -0.478151 -1.99544
internal_weight=509 366 143 270 125 83 231 39 96 56 122 93 38 40 109 78 74 35 36 42 47 58 42 42
internal_count=509 366 143 270 125 83 231 39 96 56 122 93 38 40 109 78 74 35 36 42 47 58 42 42
is_linear=0
shrinkage=0.03


Tree=28
num_leaves=29
num_cat=0
split_feature=45 46 55 49 29 21 26 48 11 62 34 48 71 45 76 25 10 14 49 76 23 9 30 30 75 25 14 38
split_gain=669915 118572 65811.6 54676.2 37626.6 17428.4 14122.4 12855.9 10774.4 9408.77 8946.66 8270.81 6769.29 6657.03 6579.07 5262.64 4404.2 3111.55 2575 2088.28 1524.15 1503.96 1152.22 1142.88 939.03 922.639 541.471 337.191
threshold=365.13500000000005 200.90500000000003 498.21500000000009 364.67140000000006 5.5000000000000009 7.5500000000000007 39.500000000000007 431.79500000000002 37.750000000000007 354.30965000000009 0.94425000000000014 236.62000000000003 88.055000000000021 197.85500000000005 18.340000000000003 8.0500000000000025 12.500000000000002 1.0000000180025095e-35 306.76000000000005 -7.9549999999999992 6.4500000000000011 11.500000000000002 2.5000000000000004 2.5000000000000004 -31.659999999999997 7.9500000000000011 0.010000000000000002 0.7914500000000001
decision_type=10 10 10 10 2 2 2 10 2 10 10 8 10 8 10 2 10 2 10 10 2 2 2 2 10 2 2 10
left_child=1 8 4 6 -2 -4 11 10 23 -5 15 -3 -8 -10 16 -6 17 24 22 -12 -19 -14 -18 27 -13 -20 -24 -1
right_child=2 3 5 9 7 -7 12 -9 13 -11 19 14 21 -15 -16 -17 18 20 25 -21 -22 -23 26 -25 -26 -27 -28 -29
leaf_value=-2.0355106764573314 -0.087032767609504361 -1.3393124333885422 2.2143129146800318 1.1744469212561104 1.3084662797246283 3.4446882351962 0.43695575888370747 2.3419199247138445 -1.5186983441996214 0.23959996687827934 0.72993051370512985 -0.44424067136061146 -0.12071238097557223 -0.70243475530630717 -0.0043142355003230205 2.0343066045806162 -1.1313951945868064 -0.47530432795369326 -0.79281842632828459 1.228575469756795 -0.90628271457760823 -0.51452050934207727 -0.95690921808794061 -1.6356242095862727 -0.12250274808122841 -0.49287665043115086 -0.69305345630328907 -1.8079235811322647
leaf_weight=24 14.999999999999998 14.999999999999998 28 18 18 17 14.999999999999998 14.999999999999998 23 21 15.000000000000002 14.999999999999998 17 14.999999999999998 14.999999999999998 19 19 15.000000000000002 15.999999999999998 15.999999999999998 14.999999999999998 18 15.000000000000002 18 18 23 14.999999999999998 15.999999999999998
leaf_count=24 15 15 28 18 18 17 15 15 23 21 15 15 17 15 15 19 19 15 16 16 15 18 15 18 18 23 15 16
internal_value=-0.00812825 -0.688435 1.7327 -0.366311 1.29542 2.68246 -0.541734 1.54518 -1.59373 0.672058 1.36782 -0.664993 -0.0952859 -1.19787 -0.603667 1.68348 -0.663174 -0.470966 -0.800415 0.988908 -0.691993 -0.32373 -0.945729 -1.8518 -0.269243 -0.616826 -0.826404 -1.94688
internal_weight=509 366 143 270 98 45 231 83 96 39 68 181 50 38 166 37 151 63 88 31 30 35 49 58 33 39 30 40
internal_count=509 366 143 270 98 45 231 83 96 39 68 181 50 38 166 37 151 63 88 31 30 35 49 58 33 39 30 40
is_linear=0
shrinkage=0.03


Tree=29
num_leaves=26
num_cat=0
split_feature=45 46 31 49 55 21 31 58 5 11 48 7 45 69 44 57 46 39 73 57 31 65 30 68 38
split_gain=630430 111580 91663.5 51454.2 40517.7 18613.8 17003.9 11831.2 11815.5 10139.2 8469.45 6982.06 6263.94 5839.48 4886.99 4864.79 4537.63 2901.64 2504.51 2049.63 1953.56 1296.27 1075.2 1034.07 316.845
threshold=365.13500000000005 200.90500000000003 159.50000000000003 364.67140000000006 490.94000000000005 7.5500000000000007 164.50000000000003 380.4464000000001 33.500000000000007 37.750000000000007 293.17500000000007 436.50000000000006 197.85500000000005 94.357850000000013 43879.226400000007 310.85855000000004 398.50000000000006 25294.655000000002 90.067850000000007 324.27140000000003 115.50000000000001 88.701450000000008 2.5000000000000004 96.675000000000011 0.7914500000000001
decision_type=10 10 2 10 10 2 2 10 2 2 8 2 8 10 10 10 10 10 10 10 2 10 2 10 10
left_child=1 9 -2 6 8 11 15 -5 16 22 18 -6 -11 14 -12 20 -4 -17 -8 -15 -3 -22 24 -19 -1
right_child=2 3 4 7 5 -7 10 -9 -10 12 13 -13 -14 19 -16 17 -18 23 -20 -21 21 -23 -24 -25 -26
leaf_value=-1.9745722818672038 -0.31986250592070598 -1.2836238402306441 0.92534889714247515 1.2451815696615627 1.6941988527418366 3.3744720326821631 -0.83413148313178942 0.19169390081548363 2.0443204991785437 -1.473236220353596 0.60293418460510095 2.6108085047641647 -0.6814317249222055 -0.47908024884800215 -0.12045409606197686 -0.24708958420798038 1.5109334665746212 -0.59151470939417428 -0.37350217628954646 -0.061309162843262349 -1.0358631757128005 -0.70021563603693693 -1.5866914160562022 -0.92566474116125763 -1.7538548250287491
leaf_weight=24 18 14.999999999999998 22 17 15.000000000000002 19 23 22 26 23 14.999999999999998 15.999999999999998 14.999999999999998 28 19 15.999999999999998 27 20 20 17 23 20 18 14.999999999999998 15.999999999999998
leaf_count=24 18 15 22 17 15 19 23 22 26 23 15 16 15 28 19 16 27 20 20 17 23 20 18 15 16
internal_value=-0.00788696 -0.66784 1.68086 -0.355357 1.96899 2.63113 -0.525533 0.651951 1.52608 -1.54604 -0.282048 2.17078 -1.16203 -0.0974764 0.19906 -0.797789 1.24926 -0.582956 -0.620603 -0.321532 -0.986004 -0.880777 -1.79639 -0.735881 -1.88862
internal_weight=509 366 143 270 125 50 231 39 75 96 122 31 38 79 34 109 49 51 43 45 58 43 58 35 40
internal_count=509 366 143 270 125 50 231 39 75 96 122 31 38 79 34 109 49 51 43 45 58 43 58 35 40
is_linear=0
shrinkage=0.03


Tree=30
num_leaves=28
num_cat=0
split_feature=32 32 32 32 32 32 32 32 32 10 78 32 78 32 63 77 18 32 32 33 32 70 32 58 40 1 53
split_gain=817666 123227 108486 33064 21408.6 15776.3 8811.64 5103.63 4053.23 3469.62 2718.11 2118.24 1721.12 1396.8 1084.78 1006.11 895.268 887.708 734.169 673.775 665.045 648.147 467.148 420.331 384.979 369.803 258.781
threshold=309.9550000000001 424.19500000000005 213.23500000000004 506.9550000000001 251.47500000000002 365.24000000000007 173.96500000000003 278.95500000000004 473.59500000000008 21.500000000000004 -17.102499999999996 342.23500000000007 -23.916049999999995 237.08000000000001 90.850000000000009 -16.059399999999997 11.350000000000003 388.37500000000006 150.19000000000003 0.76950000000000018 287.47000000000008 95.748550000000009 265.17500000000001 238.14445000000003 12767.855000000001 142.50000000000003 0.92715000000000014
decision_type=2 2 2 2 2 2 2 2 2 8 10 2 10 2 10 10 2 2 2 10 2 10 2 10 10 2 10
left_child=2 5 6 8 13 11 18 19 15 12 -7 14 23 16 -2 -3 -4 -12 -1 -6 -9 -15 -21 -8 -20 -18 -22
right_child=1 3 4 -5 7 10 9 20 -10 -11 17 -13 -14 21 -16 -17 25 -19 24 22 26 -23 -24 -25 -26 -27 -28
leaf_value=-1.9787723852252679 0.70599302434475619 1.9303394547988175 -0.69366728961148993 3.8960298111113993 -0.20782557828896708 1.6350609634962101 -1.4469222009961851 -0.079217518218451577 2.7178413527986138 -1.0265747769614906 1.0326735758558612 0.90682110032106522 -1.7180394345577632 -0.69423219145459591 0.36860505053377524 2.2802448290727262 -1.0314933148157561 1.3579394933974638 -1.8495576145921635 -0.52107965244082954 0.078160964479470185 -0.43902814988678074 -0.29477694397352855 -1.2084731975119134 -1.629477460864867 -0.83116479252976083 0.24330538030478641
leaf_weight=17 15.999999999999998 17.999999999999996 28 14.999999999999998 22 23 15.999999999999998 17 14.999999999999998 27 15.999999999999998 21 15.999999999999998 24 19 19.000000000000004 17 17 17 19 20 14.999999999999998 14.999999999999998 17 26 21 14.999999999999998
leaf_count=17 16 18 28 15 22 23 16 17 15 27 16 21 16 24 19 19 17 17 17 19 20 15 15 17 26 21 15
internal_value=-0.0135034 1.63469 -0.858968 2.65212 -0.436143 1.02512 -1.52077 -0.139461 2.28987 -1.30408 1.38124 0.668059 -1.45576 -0.741076 0.523669 2.1129 -0.825789 1.20208 -1.7939 -0.338064 0.0745094 -0.596803 -0.421864 -1.32614 -1.71857 -0.922063 0.149226
internal_weight=528 179 349 67 213 112 136 108 52 76 56 56 49 105 35 37 66 33 60 56 52 39 34 33 43 38 35
internal_count=528 179 349 67 213 112 136 108 52 76 56 56 49 105 35 37 66 33 60 56 52 39 34 33 43 38 35
is_linear=0
shrinkage=0.03


Tree=31
num_leaves=28
num_cat=0
split_feature=32 32 32 32 32 32 32 32 32 10 78 32 78 54 37 18 63 30 32 32 33 32 32 32 73 54 68
split_gain=769519 118351 100257 31117.2 19306.7 15523.6 8291.75 4424.94 3814.79 3265.7 2557.28 2115.88 1619.59 1480.88 1361.12 1335.09 1057.33 1029.52 835.246 690.934 634.063 585.956 538.965 439.545 431.497 309.023 143.023
threshold=307.10500000000008 424.19500000000005 213.23500000000004 506.9550000000001 251.47500000000002 365.24000000000007 173.96500000000003 278.95500000000004 473.59500000000008 21.500000000000004 -17.102499999999996 342.23500000000007 -23.916049999999995 0.9195000000000001 0.76740000000000008 10.950000000000001 90.850000000000009 4.5000000000000009 388.37500000000006 150.19000000000003 0.76950000000000018 227.35000000000002 287.47000000000008 265.17500000000001 89.500700000000009 0.74475000000000013 93.265000000000015
decision_type=2 2 2 2 2 2 2 2 2 8 10 2 10 10 10 2 10 2 2 2 10 2 2 2 10 10 10
left_child=2 5 6 8 14 11 19 20 13 12 -7 16 24 -3 -4 17 -2 -16 -12 -1 -6 -17 -9 -22 -8 -21 -24
right_child=1 3 4 -5 7 10 9 22 -10 -11 18 -13 -14 -15 15 21 -18 -19 -20 25 23 -23 26 -25 -26 -27 -28
leaf_value=-1.9195833276653569 0.68487921420658859 1.8479985442874938 -0.46135267461571733 3.7795372602393065 -0.20160494946348828 1.5861155336591013 -1.175126870702178 -0.07684796086460613 2.6365769862178157 -0.99583445546367022 1.0017898901823525 0.87968111178654107 -1.666658813619168 2.2567754526745909 -0.76307612344890297 -1.0140541698001428 0.35924750743739109 -0.45723622878625592 1.3173207535282256 -1.7574424154484349 -0.50548830062385608 -0.78812036944338459 0.19137494947204142 -0.28596301623753134 -1.4156601519917331 -1.5590788356562206 0.065994242775105988
leaf_weight=17 15.999999999999998 19 15.999999999999998 14.999999999999998 22 23 18 17 14.999999999999998 27 15.999999999999998 21 15.999999999999998 18 25 18 21 17 17 23 19 29 17 14.999999999999998 14.999999999999998 20 15.999999999999998
leaf_count=17 16 19 16 15 22 23 18 17 15 27 16 21 16 18 25 18 21 17 17 23 19 29 17 15 15 20 16
internal_value=-0.0130943 1.57242 -0.84023 2.5728 -0.430656 0.983589 -1.47527 -0.144916 2.22138 -1.26507 1.33991 0.638669 -1.41222 2.04968 -0.718898 -0.764896 0.500836 -0.64001 1.16613 -1.74022 -0.327952 -0.875666 0.0601777 -0.409245 -1.28648 -1.66713 0.130821
internal_weight=528 181 347 67 211 114 136 106 52 76 56 58 49 37 105 89 37 42 33 60 56 47 50 34 33 43 33
internal_count=528 181 347 67 211 114 136 106 52 76 56 58 49 37 105 89 37 42 33 60 56 47 50 34 33 43 33
is_linear=0
shrinkage=0.03


Tree=32
num_leaves=28
num_cat=0
split_feature=32 32 32 32 32 32 32 32 32 10 78 32 54 37 18 78 64 30 32 33 0 32 32 32 32 68 67
split_gain=724166 111380 94347.9 29284.9 18168.3 14608.4 7807.25 4164.18 3590.37 2769.71 2405.95 1990.98 1393.47 1280.69 1256.26 1232.31 1011.56 968.643 785.882 596.692 569.563 507.218 489.932 463.184 413.572 134.581 82.7869
threshold=307.10500000000008 424.19500000000005 213.23500000000004 506.9550000000001 251.47500000000002 365.24000000000007 170.76000000000002 278.95500000000004 473.59500000000008 21.500000000000004 -17.102499999999996 342.23500000000007 0.9195000000000001 0.76740000000000008 10.950000000000001 -23.916049999999995 96.015000000000015 4.5000000000000009 388.37500000000006 0.76950000000000018 6.5000000000000009 287.47000000000008 186.75500000000002 150.19000000000003 265.17500000000001 93.265000000000015 83.75500000000001
decision_type=2 2 2 2 2 2 2 2 2 8 10 2 10 10 2 10 10 2 2 10 2 2 2 2 2 10 10
left_child=2 5 6 8 13 11 23 19 12 15 -7 16 -3 -4 17 22 -2 -15 -12 -6 -16 -9 -8 -1 -21 -23 -25
right_child=1 3 4 -5 7 10 9 21 -10 -11 18 -13 -14 14 20 -17 -18 -19 -20 24 -22 25 -24 26 -26 -27 -28
leaf_value=-1.8621647013107703 0.61551465446446219 1.7927040929118478 -0.44755521034525925 3.6665277890430334 -0.19557051392639574 1.5386352851851126 -1.388819543727547 -0.074549280071188634 2.5577424626651393 -1.0047316044948598 0.97182979619391618 0.85335336698772224 2.1892597302043209 -0.74022953718722218 -0.75937040216782514 -1.5929939402023718 0.29417310535709718 -0.44355937202654971 1.2779170137556417 -0.49036344873623577 -0.97978900879386843 0.18565054134189907 -1.1475679823434255 -1.7262277535411799 -0.27741262673539574 0.064020583027991171 -1.5729419978270902
leaf_weight=17 22 19 15.999999999999998 14.999999999999998 22 23 18 17 14.999999999999998 29 15.999999999999998 21 18 25 28 17 14.999999999999998 17 17 19 19 17 18 15.999999999999998 14.999999999999998 15.999999999999998 21
leaf_count=17 22 19 16 15 22 23 18 17 15 29 16 21 18 25 28 17 15 17 17 19 19 17 18 16 15 16 21
internal_value=-0.0126973 1.52538 -0.815089 2.49585 -0.417768 0.954159 -1.43113 -0.14058 2.15493 -1.24478 1.29982 0.619561 1.98836 -0.697382 -0.742002 -1.37503 0.485854 -0.620855 1.13125 -0.318141 -0.849454 0.0583778 -1.26999 -1.71266 -0.397004 0.12691 -1.64151
internal_weight=528 181 347 67 211 114 136 106 52 82 56 58 37 105 89 53 37 42 33 56 47 50 36 54 34 33 37
internal_count=528 181 347 67 211 114 136 106 52 82 56 58 37 105 89 53 37 42 33 56 47 50 36 54 34 33 37
is_linear=0
shrinkage=0.03


Tree=33
num_leaves=28
num_cat=0
split_feature=32 32 32 32 32 32 32 32 32 65 31 32 32 32 69 63 59 60 65 49 32 70 33 32 32 67 27
split_gain=681486 104819 88787.2 27560.5 17096.9 13747.3 7372.99 3918.79 3379.14 2809.15 2858.06 2211.57 1873.49 1226.77 1192.93 972.466 804.566 1081.36 719.771 641.284 618.756 585.054 561.523 477.341 389.132 186.951 127.64
threshold=307.10500000000008 424.19500000000005 213.23500000000004 506.9550000000001 251.47500000000002 365.24000000000007 173.96500000000003 278.95500000000004 473.59500000000008 96.821450000000013 135.50000000000003 397.07500000000005 342.23500000000007 237.08000000000001 98.445000000000007 90.850000000000009 221.36500000000004 252.56000000000003 85.334300000000013 307.05715000000004 164.46000000000004 95.748550000000009 0.76950000000000018 287.47000000000008 265.17500000000001 84.500000000000014 22.500000000000004
decision_type=2 2 2 2 2 2 2 2 2 10 2 2 2 2 10 10 10 10 10 10 2 10 10 2 2 10 2
left_child=2 5 6 8 13 12 20 22 14 18 -11 19 15 16 -3 -2 -4 -18 -8 -7 25 -15 -6 -9 -24 -1 -25
right_child=1 3 4 -5 7 11 9 23 -10 10 -12 -13 -14 21 -16 -17 17 -19 -20 -21 -22 -23 24 26 -26 -27 -28
leaf_value=-1.7789729578727991 0.64779085034521933 1.7559365981713198 -0.89207817146164214 3.5568974653985408 -0.18971670522981757 0.94644823020863733 -0.88459758910776176 -0.072319361920580486 2.4812651026526162 -1.7140389614168587 -1.1176038492399198 1.4738251819724808 0.82781356353940994 -0.63385601226108723 2.126485640897779 0.33556973128873774 -0.4948638057972915 -0.80881543546333234 -1.1379446449891768 1.2333692744562397 -1.4657845268361378 -0.39170572653165286 -0.47569115886538044 0.17694035240487707 -0.26911789244591594 -1.6058878548689712 0.058052293054289196
leaf_weight=24 15.999999999999998 20 25 14.999999999999998 22 16.000000000000004 18 17 14.999999999999998 15.000000000000002 14.999999999999998 25 21 24 17 21 18 23 28 14.999999999999998 17 14.999999999999998 19 18 14.999999999999998 19 14.999999999999998
leaf_count=24 16 20 25 15 22 16 18 17 15 15 15 25 21 24 17 21 18 23 28 15 17 15 19 18 15 19 15
internal_value=-0.0123129 1.47975 -0.7907 2.42121 -0.405266 0.92561 -1.38831 -0.136374 2.09047 -1.1901 -1.41823 1.26093 0.601021 -0.676511 1.92887 0.471317 -0.755867 -0.67179 -1.03991 1.08709 -1.63815 -0.54138 -0.308624 0.0566317 -0.385129 -1.70448 0.123115
internal_weight=528 181 347 67 211 114 136 106 52 76 30 56 58 105 37 37 66 41 46 31 60 39 56 50 34 43 33
internal_count=528 181 347 67 211 114 136 106 52 76 30 56 58 105 37 37 66 41 46 31 60 39 56 50 34 43 33
is_linear=0
shrinkage=0.03


Tree=34
num_leaves=28
num_cat=0
split_feature=32 32 32 32 32 32 32 32 32 10 78 32 78 54 37 18 64 30 32 32 32 33 32 73 32 40 27
split_gain=641321 98644.2 83553.7 25937.7 16088.7 12936.8 6937.91 3687.86 3180.32 2787.43 2225.11 1762.89 1412.62 1288.4 1172.68 1152.44 929.997 887.711 695.89 592.027 531.232 528.425 449.222 379.518 366.135 333.39 120.103
threshold=307.10500000000008 424.19500000000005 213.23500000000004 506.9550000000001 251.47500000000002 365.24000000000007 173.96500000000003 278.95500000000004 473.59500000000008 21.500000000000004 -17.102499999999996 342.23500000000007 -23.916049999999995 0.9195000000000001 0.76740000000000008 10.950000000000001 96.015000000000015 4.5000000000000009 388.37500000000006 150.19000000000003 227.35000000000002 0.76950000000000018 287.47000000000008 89.500700000000009 265.17500000000001 12767.855000000001 22.500000000000004
decision_type=2 2 2 2 2 2 2 2 2 8 10 2 10 10 10 2 10 2 2 2 2 10 2 10 2 10 2
left_child=2 5 6 8 14 11 19 21 13 12 -7 16 23 -3 -4 17 -2 -16 -12 -1 -17 -6 -9 -8 -23 -21 -24
right_child=1 3 4 -5 7 10 9 22 -10 -11 18 -13 -14 -15 15 20 -18 -19 -20 25 -22 24 26 -25 -26 -27 -28
leaf_value=-1.7547736257961417 0.58152454201056025 1.6836066046286755 -0.4172824883238177 3.4505450033903915 -0.18403810856293654 1.4527073815070626 -1.069249525413619 -0.070156144854609914 2.4070744926984919 -0.90583196042425751 0.91124294887079249 0.80303815202871587 -1.5277562849098276 2.063841239950333 -0.69721230284182611 -0.93330257214997947 0.27347648411494152 -0.41331508060354638 1.1992368321125109 -1.6419024881939033 -0.71871796429054657 -0.46145788282859973 0.17164684975246314 -1.2937917637112133 -0.26107118460823131 -1.4399614248440498 0.056316509480492209
leaf_weight=17 22 19 15.999999999999998 14.999999999999998 22 23 18 17 14.999999999999998 27 15.999999999999998 21 15.999999999999998 18 25 18 14.999999999999998 17 17 17 29 19 18 14.999999999999998 14.999999999999998 26 14.999999999999998
leaf_count=17 22 19 16 15 22 23 18 17 15 27 16 21 16 18 25 18 15 17 17 17 29 19 18 15 15 26 15
internal_value=-0.011939 1.43549 -0.76704 2.3488 -0.393138 0.897915 -1.34677 -0.132294 2.02794 -1.15449 1.2232 0.583039 -1.29042 1.87116 -0.656263 -0.698951 0.457218 -0.582965 1.06124 -1.58913 -0.801836 -0.299392 0.0549376 -1.17316 -0.373609 -1.52165 0.119434
internal_weight=528 181 347 67 211 114 136 106 52 76 56 58 49 37 105 89 37 42 33 60 47 56 50 33 34 43 33
internal_count=528 181 347 67 211 114 136 106 52 76 56 58 49 37 105 89 37 42 33 60 47 56 50 33 34 43 33
is_linear=0
shrinkage=0.03


Tree=35
num_leaves=26
num_cat=0
split_feature=32 32 32 32 32 32 32 21 32 78 10 32 32 78 54 32 7 32 61 32 32 9 70 32 59
split_gain=595066 84056.9 75579.4 19414 12575 8764.1 7496.39 4116.24 3584.22 2531.42 2177.58 1794.86 1366.08 1337.64 1238.64 887.671 856.902 684.406 567.24 550.528 545.915 431.929 367.664 347.736 155.822
threshold=318.27000000000004 213.23500000000004 432.61500000000007 268.62500000000006 477.83000000000004 367.50500000000005 182.68000000000004 7.5500000000000007 234.31000000000003 -17.125699999999998 22.500000000000004 307.10500000000008 163.30000000000004 -23.916049999999995 0.87895000000000012 251.47500000000002 436.50000000000006 287.47000000000008 197.84500000000003 397.07500000000005 223.02000000000001 17.500000000000004 95.748550000000009 149.08000000000001 337.05000000000007
decision_type=2 2 2 2 2 2 2 2 2 10 8 2 2 10 10 2 2 2 10 2 2 2 10 2 10
left_child=1 6 5 8 -4 14 12 -6 16 -7 13 17 23 -8 -2 22 -3 -5 -14 -11 -18 -17 -10 -1 -19
right_child=2 3 4 11 7 9 10 -9 15 19 -12 -13 18 -15 -16 21 20 24 -20 -21 -22 -23 -24 -25 -26
leaf_value=-1.7581843059958016 0.86430665702463305 -0.53594365200149674 1.8583333093979779 -0.13816528522394556 2.3436457241730038 1.5289040116920365 -1.0224253965362788 3.0492059858750107 -0.59316517619391096 0.95319811275627608 -0.81846446157277541 0.33623828510113329 -1.4768398685399389 -1.405649966302319 0.52576573406666116 -0.2419333355739062 -0.905363279070173 0.00099390825378560532 -1.201612265704082 1.2021507461427703 -0.6894534574827248 -0.44090416150358758 -0.4130327513211321 -1.5440769330193014 0.13556641560456284
leaf_weight=14.999999999999998 15.999999999999998 15.999999999999998 28 28 14.999999999999998 18 19 18 26 17 23 14.999999999999998 17 15.999999999999998 26 24 22 16.000000000000004 14.999999999999998 19 23 17 18 28 14.999999999999998
leaf_count=15 16 16 28 28 15 18 19 18 26 17 23 15 17 16 26 24 22 16 15 19 23 17 18 28 15
internal_value=-0.0287211 -0.712124 1.50758 -0.352034 2.33316 0.982031 -1.3074 2.73257 -0.552613 1.23502 -1.04921 0.043789 -1.50621 -1.19941 0.655644 -0.426192 -0.728256 -0.0307588 -1.34995 1.08612 -0.79593 -0.324907 -0.520061 -1.62076 0.0662714
internal_weight=510 353 157 220 61 96 133 33 146 54 58 74 75 35 42 85 61 59 32 36 45 41 44 43 31
internal_count=510 353 157 220 61 96 133 33 146 54 58 74 75 35 42 85 61 59 32 36 45 41 44 43 31
is_linear=0
shrinkage=0.03


Tree=36
num_leaves=26
num_cat=0
split_feature=32 32 32 32 32 32 32 24 32 78 10 32 7 67 32 43 32 32 61 32 33 32 40 49 35
split_gain=559989 79103 71123.2 18269.7 11835.7 8247.61 7054.37 4010.32 3385.88 2382.1 2049.37 1689.09 1460.52 1301.44 1285.06 1213.16 1055.46 644.061 533.615 518.635 358.969 327.426 239.348 151.56 120.443
threshold=318.27000000000004 213.23500000000004 432.61500000000007 268.62500000000006 477.83000000000004 367.50500000000005 182.68000000000004 6.4500000000000011 244.09000000000003 -17.125699999999998 22.500000000000004 307.10500000000008 415.00000000000006 94.360000000000014 163.30000000000004 36636.528600000012 223.02000000000001 287.47000000000008 197.84500000000003 394.66500000000002 0.87240000000000018 149.08000000000001 30228.930000000004 310.10500000000008 0.86450000000000016
decision_type=2 2 2 2 2 2 2 2 2 10 8 2 2 8 2 10 2 2 10 2 10 2 10 10 10
left_child=1 6 5 8 -4 15 14 -6 12 -7 13 17 -3 -8 21 -2 -14 -5 -16 -11 22 -1 -10 -18 -19
right_child=2 3 4 11 7 9 10 -9 20 19 -12 -13 16 -15 18 -17 23 24 -20 -21 -22 -23 -24 -25 -26
leaf_value=-1.7056140187412401 0.83240070152842049 -0.43314085560569848 1.8026826697364848 -0.13402771453806422 2.3108616924565557 1.4831639549276505 -0.96825983131386317 3.0036530738901868 -0.37264913738599437 0.90945347415252376 -0.79396379396351713 0.32618463548710969 -0.88308490094920455 -1.3446848394335802 -1.4326646002716332 0.50103483394234472 -0.67491904498421573 0.0030598060870883465 -1.1656836649745803 1.1541267239169666 -0.45022543830623335 -1.4978371841512261 -0.21400264846264791 -0.5478301940803908 0.12141400054236438
leaf_weight=14.999999999999998 17 21 28 28 17 18 17 15.999999999999998 18 14.999999999999998 23 14.999999999999998 24 18 17 25 28 15.000000000000002 14.999999999999998 21 23 28 17 14.999999999999998 15.999999999999998
leaf_count=15 17 21 28 28 17 18 17 16 18 15 23 15 24 18 17 25 28 15 15 21 23 28 17 15 16
internal_value=-0.0278608 -0.690816 1.46247 -0.341498 2.26334 0.952651 -1.26828 2.65084 -0.536076 1.19807 -1.01782 0.0424827 -0.653454 -1.16353 -1.46114 0.636025 -0.722111 -0.0298346 -1.30958 1.05362 -0.35755 -1.57225 -0.29605 -0.631308 0.0642913
internal_weight=510 353 157 220 61 96 133 33 146 54 58 74 88 35 75 42 67 59 32 36 58 43 35 43 31
internal_count=510 353 157 220 61 96 133 33 146 54 58 74 88 35 75 42 67 59 32 36 58 43 35 43 31
is_linear=0
shrinkage=0.03


Tree=37
num_leaves=26
num_cat=0
split_feature=32 32 32 32 32 32 32 18 32 78 36 32 65 32 43 32 7 32 61 32 32 9 48 26 55
split_gain=526979 74441.1 66930 17192.8 11140 7761.55 6638.44 3926.82 3193.08 2241.59 1969.71 1589.56 1397.19 1208.85 1141.71 796.13 754.818 606.092 501.979 490.849 478.431 407.564 318.282 305.294 116.539
threshold=318.27000000000004 213.23500000000004 432.61500000000007 268.62500000000006 477.83000000000004 367.50500000000005 182.68000000000004 10.65 234.31000000000003 -17.125699999999998 0.68230000000000002 307.10500000000008 88.701450000000008 163.30000000000004 36636.528600000012 251.47500000000002 436.50000000000006 287.47000000000008 197.84500000000003 397.07500000000005 223.02000000000001 17.500000000000004 169.83000000000001 21.500000000000004 349.67500000000001
decision_type=2 2 2 2 2 2 2 2 2 10 10 2 10 2 10 2 2 2 10 2 2 2 8 2 10
left_child=1 6 5 8 -4 14 13 -6 16 -7 12 17 -8 22 -2 23 -3 -5 -15 -11 -18 -17 -1 -10 -19
right_child=2 3 4 11 7 9 10 -9 15 19 -12 -13 -14 18 -16 21 20 24 -20 -21 -22 -23 -24 -25 -26
leaf_value=-1.64957614649122 0.80750190846731229 -0.50527963584828595 1.7486985999122659 -0.13001404960525229 2.8994689950355688 1.438792297701426 -0.87632442905261254 2.2151143639109958 -0.39631204184584723 0.89662141246180371 -0.73277976148710477 0.31643160996841035 -1.2542761953754387 -1.3898107051010355 0.48603379106807132 -0.2242420798676425 -0.85183149480495324 0.0021410465478104998 -1.1308293298867058 1.1316479618342843 -0.64960352121878595 -0.4174311525171453 -1.4485181958662163 -0.55951116550468394 0.1185586600325932
leaf_weight=15.999999999999998 17 15.999999999999998 28 28 17 18 14.999999999999998 15.999999999999998 19 17 19 14.999999999999998 24 17 25 24 22 15.000000000000002 14.999999999999998 19 23 17 27 25 15.999999999999998
leaf_count=16 17 16 28 28 17 18 15 16 19 17 19 15 24 17 25 24 22 15 15 19 23 17 27 25 16
internal_value=-0.0270258 -0.670145 1.41871 -0.331276 2.19562 0.924149 -1.23033 2.57156 -0.520032 1.16223 -0.987364 0.0412153 -1.11026 -1.41743 0.616993 -0.400708 -0.685815 -0.0289383 -1.27041 1.0221 -0.74934 -0.304792 -1.52519 -0.489603 0.06237
internal_weight=510 353 157 220 61 96 133 33 146 54 58 74 39 75 42 85 61 59 32 36 45 41 43 44 31
internal_count=510 353 157 220 61 96 133 33 146 54 58 74 39 75 42 85 61 59 32 36 45 41 43 44 31
is_linear=0
shrinkage=0.03


Tree=38
num_leaves=26
num_cat=0
split_feature=32 32 32 32 32 32 32 18 32 70 10 32 32 32 43 78 20 32 61 18 32 32 32 33 35
split_gain=495915 70053.5 62983.9 16179.5 10485.2 7304.16 6247.15 3695.02 3012.37 2127.75 1872.61 1495.89 1229.42 1137.14 1074.46 759.047 972.907 570.362 472.215 413.944 375.216 301.841 232.415 155.125 112.698
threshold=318.27000000000004 213.23500000000004 432.61500000000007 268.62500000000006 477.83000000000004 367.50500000000005 182.68000000000004 10.65 244.09000000000003 96.32180000000001 22.500000000000004 307.10500000000008 201.90500000000003 163.30000000000004 36636.528600000012 -26.389149999999997 12.500000000000002 287.47000000000008 197.84500000000003 10.050000000000002 227.89000000000001 149.08000000000001 397.07500000000005 0.78370000000000017 0.86450000000000016
decision_type=2 2 2 2 2 2 2 2 2 10 8 2 2 2 10 10 2 2 10 2 2 2 2 10 10
left_child=1 6 5 8 -4 14 13 -6 15 -7 12 17 -8 21 -2 -3 -17 -5 -15 -10 -18 -1 -11 -21 -19
right_child=2 3 4 11 7 9 10 -9 19 22 -12 -13 -14 18 -16 16 20 24 -20 23 -22 -23 -24 -25 -26
leaf_value=-1.6068958533404276 0.783347910995707 -0.76069003464030627 1.696331162070208 -0.12612058127946393 2.8127400158297631 1.3403355396611776 -1.253631633463643 2.1488679461612876 -0.25214431076763782 0.86102104161664861 -0.74393302669235528 0.30697019549105248 -0.88474418386668452 -1.3482386488928473 0.47148187854332835 -0.38463992262718977 -0.73300413897371641 0.0012798687340413212 -1.0970171675571176 -0.34262675627521488 -0.55211238306670274 -1.4085289115701767 1.0460324953402396 -0.48353006014396183 0.11576047307977053
leaf_weight=14.999999999999998 17 24 28 28 17 24 20 15.999999999999998 28 15.000000000000002 23 14.999999999999998 14.999999999999998 17 25 20 21 15.000000000000002 14.999999999999998 15.000000000000002 23 28 14.999999999999998 14.999999999999998 15.999999999999998
leaf_count=15 17 24 28 28 17 24 20 16 28 15 23 15 15 17 25 20 21 15 15 15 23 28 15 15 16
internal_value=-0.0262157 -0.650092 1.37626 -0.321361 2.12992 0.896501 -1.19352 2.49465 -0.50447 1.12746 -0.957819 0.0399856 -1.09707 -1.37502 0.59853 -0.615185 -0.560046 -0.0280688 -1.23242 -0.336078 -0.639215 -1.47955 0.955163 -0.413816 0.0605062
internal_weight=510 353 157 220 61 96 133 33 146 54 58 74 35 75 42 88 64 59 32 58 44 43 30 30 31
internal_count=510 353 157 220 61 96 133 33 146 54 58 74 35 75 42 88 64 59 32 58 44 43 30 30 31
is_linear=0
shrinkage=0.03


Tree=39
num_leaves=26
num_cat=0
split_feature=32 32 32 32 32 32 24 65 32 32 0 21 46 78 32 66 63 50 55 21 62 33 57 28 59
split_gain=466925 73340.9 51547.2 14911.7 12027.4 9492.84 5789.43 2939.17 2320.36 1641.85 1514.32 1420.89 1293.58 1216.51 1191.23 1123.14 1045.95 761.549 581.28 560.414 490.964 420.758 701.344 385.845 337.973
threshold=330.66000000000003 229.04500000000004 452.49500000000006 201.90500000000003 272.56500000000005 391.86000000000007 7.0500000000000007 85.989300000000014 307.10500000000008 427.92500000000007 11.500000000000002 8.0500000000000025 235.99500000000003 -17.102499999999996 247.58500000000001 100.91090000000001 90.075000000000017 199.57500000000002 270.79500000000002 7.1500000000000012 337.78715000000005 0.76950000000000018 327.25145000000003 10.500000000000002 261.88500000000005
decision_type=2 2 2 2 2 2 2 10 2 2 2 2 10 10 2 10 8 10 10 2 10 10 10 2 10
left_child=1 3 5 7 14 11 -4 -1 20 13 12 19 -5 -7 23 16 -9 -17 -14 -2 -6 -16 -23 -3 -25
right_child=2 4 6 10 8 9 -8 15 -10 -11 -12 -13 18 -15 21 17 -18 -19 -20 -21 -22 22 -24 24 -26
leaf_value=-0.86843094467720705 0.76476556682903496 -0.38653383078537584 2.0160940886308802 -0.39746642451745723 -0.10547834747930551 1.3912747808310675 2.7638704557197036 -1.2543265953965075 0.32939636646900428 1.5419041191728928 -0.9725476687422423 0.96882551847664833 -0.85041277307225027 1.0138969672881994 -0.17756223868197343 -1.3139914900802638 -1.5606107735060939 -1.0388601164060218 -0.62833675398623878 0.51162094718531548 0.073646480469381742 -0.50630674843772305 -0.22365751607676754 -0.66597024220564816 -0.46541544788394151
leaf_weight=14.999999999999998 14.999999999999998 19 28 14.999999999999998 27 14.999999999999998 14.999999999999998 19 26 20 15.999999999999998 17 19 18 19 27 27 15.999999999999998 27 18 28 14.999999999999998 17 14.999999999999998 17
leaf_count=15 15 19 28 15 27 15 15 19 26 20 16 17 19 18 19 27 27 16 27 18 28 15 17 15 17
